customer_email,0,1,2,3,4,5,6,7,8,9,10,11,12,13,14,15,16,17,18,19,20,21,22,23,24,25,26,27,28,29,30,31,32,33,34,35,36,37,38,39,40,41,42,43,44,45,46,47,48,49,50,51,52,53,54,55,56,57,58,59,60,61,62,63,64,65,66,67,68,69,70,71,72,73,74,75,76,77,78,79,80,81,82,83,84,85,86,87,88,89,90,91,92,93,94,95,96,97,98,99,100,101,102,103,104,105,106,107,108,109,110,111,112,113,114,115,116,117,118,119,120,121,122,123,124,125,126,127,128,129,130,131,132,133,134,135,136,137,138,139,140,141,142,143,144,145,146,147,148,149,150,151,152,153,154,155,156,157,158,159,160,161,162,163,164,165,166,167,168,169,170,171,172,173,174,175,176,177,178,179,180,181,182,183,184,185,186,187,188,189,190,191,192,193,194,195,196,197,198,199,200,201,202,203,204,205,206,207,208,209,210,211,212,213,214,215,216,217,218,219,220,221,222,223,224,225,226,227,228,229,230,231,232,233,234,235,236,237,238,239,240,241,242,243,244,245,246,247,248,249,250,251,252,253,254,255,256,257,258,259,260,261,262,263,264,265,266,267,268,269,270,271,272,273,274,275,276,277,278,279,280,281,282,283,284,285,286,287,288,289,290,291,292,293,294,295,296,297,298,299,300,301,302,303,304,305,306,307,308,309,310,311,312,313,314,315,316,317,318,319,320,321,322,323,324,325,326,327,328,329,330,331,332,333,334,335,336,337,338,339,340,341,342,343,344,345,346,347,348,349,350,351,352,353,354,355,356,357,358,359,360,361,362,363,364,365,366,367,368,369,370,371,372,373,374,375,376,377,378,379,380,381,382,383
alexmoreiracontato@hotmail.com,-0.093454935,0.013273897,-0.029252602,-0.027718747,-0.14827007,0.040703937,0.019453058,0.10005636,-0.04896157,-0.019544842,0.08760153,-0.024286712,-0.06676399,-0.0370546,-0.08326385,0.056359246,0.090338446,-0.040570874,0.009946784,-0.015540587,-0.019031625,-0.011626226,0.014830667,0.031707097,-0.07795422,0.0055301418,0.008321612,-0.0036663075,0.048391957,-0.03670008,0.018913936,0.08755179,0.02370455,-0.025331888,-0.014078435,0.0031064623,-0.022452643,-0.09719281,0.030481275,0.049454335,0.029176725,-5.1007428e-05,-0.023148742,-0.05402532,0.03664719,0.041216068,-0.016909825,0.062444247,0.008787958,-0.0031973207,-0.105990365,-0.09339585,0.032750957,-0.012334284,-0.024090772,0.02238267,-0.02712967,-0.0062779416,-0.034448054,0.026700383,-0.0010372407,0.03747935,-0.03225225,0.036876217,0.031386264,0.04569086,-0.012405115,-0.07002775,-0.021346344,-0.01386862,0.08139258,-0.054831814,0.055025727,0.040628366,-0.08790047,0.039313808,0.083100446,-0.040468726,0.08223271,-0.06069077,-0.029124165,0.04020311,-0.047356978,0.032952573,0.036339626,0.061576545,-0.016093872,0.05145636,0.035876475,-0.04896974,0.0332005,-0.057834875,-0.083621174,0.011414228,-0.13270713,0.008503437,0.03977546,-0.06886904,-0.031401772,0.03979791,0.02214687,-0.008390283,0.030700257,0.021342417,-0.07928237,0.0122989295,0.022879887,0.024627205,0.00777716,0.078172676,-0.12269863,-0.028477127,-0.08167017,-0.058913626,-0.06202076,0.026515378,-0.017116318,0.043745615,0.10835842,-0.033505566,0.0114985565,-0.035613026,-0.02004053,-0.085495174,-0.046553385,-0.13760203,-0.019676685,7.511608e-33,0.0072890297,-0.043430094,0.005028765,-0.006963509,-0.035714354,0.039440747,0.04714924,-0.09012913,0.022920642,-0.005095489,-0.11315022,-0.018222399,-0.052846417,0.023607895,-0.06977769,-0.0155785205,0.011313762,-0.08467309,0.050422955,0.03276629,-0.008900975,0.06717379,0.005593669,0.027794393,0.0034271462,0.037658963,-0.0041907886,-0.032686938,0.057807148,0.06361272,0.029111352,-0.0027082486,-0.010128223,-0.06804175,-0.0729857,0.011999347,-0.052097403,-0.07641623,-0.007128873,0.03777599,-0.0089901555,0.02013657,-0.017225914,-0.005380129,0.045753594,-0.03397084,0.038185794,0.0594244,0.027625635,-0.031733282,-0.104397446,0.0123967305,-0.04853201,0.025130432,-0.07916889,-0.02448488,-0.074867986,0.028242247,0.04543082,0.029791195,0.049778983,0.009555309,-2.3024062e-05,0.008588244,-0.022030033,-0.093579695,-0.0025789065,-0.054388203,0.028033145,-0.004416551,0.019433884,-0.06564125,0.067588665,0.030930694,-0.06310718,0.049466033,0.097152054,-0.020533394,-0.05884037,0.015406542,0.0016034183,0.0789434,0.029150972,0.026121171,0.14129955,0.10953836,-0.019972144,0.04459434,0.017930778,0.09871887,0.06625974,0.0808973,0.011080495,0.0004771284,0.03023331,-7.419725e-33,-0.009038871,-0.009597381,0.041431017,0.05964504,0.018653972,0.009376056,-0.0053044055,-0.019304246,0.0068196836,0.055268236,0.011574536,-0.05499926,0.013429188,-0.07952433,0.008533323,0.048667468,-0.007827364,0.07407688,0.06782616,-0.0337481,0.014763313,0.1361417,-0.07008922,0.0045441985,0.029374067,0.004869837,-0.044295266,0.051079776,-0.093730845,0.043342035,-0.048318952,-0.047886763,-0.073395506,0.09233334,-0.0020947142,-0.01548597,0.011919243,0.028065423,0.01371406,0.022210192,0.018557308,0.0013561187,0.06629439,0.032199148,0.009824609,-0.0917245,-0.019480594,-0.08030946,0.058290355,0.053395957,0.04177469,0.0027583053,-0.007837144,-0.07395021,0.0136364,-0.025098914,0.031485505,-0.09490911,-0.024320992,0.028736657,0.05481676,0.01433525,-0.10722771,0.04979198,0.06792678,0.058474798,0.043959536,0.028393429,0.0590002,-0.029448656,-0.033091746,0.044870157,0.049353197,-0.058148798,-0.015712555,-0.0036767046,-0.12268135,0.07413912,0.07854473,0.04096572,-0.0040193843,-0.097526915,0.047560267,0.0148344785,0.04298081,0.010505378,-0.026694901,0.014879082,0.026565151,-0.0070732045,-0.06763212,0.05805303,-0.015008688,-0.091156274,0.0008110529,-3.7102012e-08,0.057097983,-0.089411154,0.0046182647,-0.000879612,0.07474967,-0.036171746,-0.03761031,-0.06815468,-0.015867367,0.044105563,-0.07901618,0.034756165,-0.009945353,-0.004256195,-0.079572685,-0.00064904353,0.021579254,0.13909137,-0.0066866614,-0.09493127,0.12855837,-0.016581208,-0.010252903,0.0060321046,-0.021749442,0.003567727,0.0056499126,0.118682496,-0.027668739,-0.04487337,-0.019358672,0.013575365,0.07413184,-0.08596441,0.06685517,-0.035027564,0.008557177,0.06758094,-0.084992364,-0.0069420566,-0.034118984,-0.059935894,0.050886843,0.0023284797,0.019790618,-0.003339144,-0.009748894,-0.045370143,-0.015596122,-0.019128487,-0.0050575584,-0.011884039,0.07701517,0.04530237,-0.067751065,-0.010435251,0.0086309,-0.0003544764,-0.08512464,0.00082029385,0.033158302,-0.010271381,0.013681129,-0.019500865
thiagomagnus4@gmail.com,-0.10043334,0.03695325,-0.05147693,-0.03663353,-0.12094719,-0.007860439,-0.02626525,0.076201715,-0.08112397,-0.058346335,0.0716691,-0.036552045,-0.027732838,-0.027231,-0.100523405,0.035135612,0.037339706,-0.026877925,0.047366228,-0.022380035,0.014159653,0.0042128246,-0.02053013,0.057685524,-0.06610433,0.047380302,0.036568273,0.051482454,0.030045934,-0.07517732,-0.029472964,0.09047129,0.048677105,0.04230575,0.07556941,-0.054780602,0.0259839,-0.10720632,0.047725085,-0.015694134,0.010655156,0.01323925,-0.032797057,-0.015117928,0.041979596,0.029766748,0.01100987,0.08860688,0.033189517,-0.0069661736,-0.09194536,-0.011969482,0.0043195183,-0.059482448,-0.053395115,0.0198981,0.01540518,0.05378086,0.0153780095,0.037536655,0.07042448,0.03359313,-0.07910725,0.037885275,0.0126174325,-0.04399188,-0.047724172,-0.038931675,-0.08976419,-0.0026346191,0.07000784,-0.05821046,0.02895829,0.031116279,-0.05721466,0.027351568,0.07961891,-0.06502509,0.011089512,-0.03262993,-0.04392752,-0.03710474,-0.07009299,-0.009051225,0.038718846,-0.019740503,-0.014532593,0.06724299,0.10633454,-0.037511934,0.04487714,-0.04227806,-0.09403868,0.04881712,-0.08354911,0.03172384,0.041772358,-0.05110742,-0.017600106,0.07588604,0.01350955,0.030878158,-0.0030906724,-0.07982057,-0.08094597,0.11721487,0.0066839857,0.053057157,0.02118287,0.07203905,-0.0656363,-0.025981661,-0.08378616,-0.107446864,-0.07676061,-0.006479091,-0.046311706,0.020645805,0.027162278,-0.04778789,-0.0032864206,-0.06884496,-0.0164453,-0.032553952,-0.047442827,-0.12206441,0.04692708,9.3771396e-33,-0.0011370878,0.0028633801,-0.061288018,-0.029528458,0.01947169,0.009450451,0.049152154,-0.016186541,-0.020718956,0.007529157,-0.035667215,-0.0039681573,-0.1036211,-0.007305057,-0.001541459,0.024534905,0.009161255,-0.07961269,-0.0029174893,0.026944838,0.008124779,0.0010672434,0.016519984,0.033988222,0.021332895,0.03346437,0.0057248226,0.018444158,0.060667463,0.05936002,0.05562743,0.004430431,0.011614917,-0.00050592574,-0.059190672,-0.017912261,-0.10322549,-0.095423564,-0.03137883,0.016241243,-0.033599433,-0.0072415196,0.005528047,-0.00939374,0.017746836,-0.0029781763,0.034375586,0.105829164,0.052386973,0.027292525,-0.1328783,-0.0070453947,-0.07071456,0.05653561,-0.056740686,-0.061594255,-0.031142985,0.057085995,0.06210584,-0.03166513,-0.028329916,0.033900622,0.034704253,0.021861687,-0.003894821,-0.05312459,0.022420784,0.005250996,0.039634913,0.0022916824,0.023783928,-0.075848594,0.033232395,0.07336312,-0.023861503,0.0066266074,0.012717961,-0.019117653,-0.055925157,0.06775676,-0.034387495,0.0899377,-0.025246693,0.019296702,0.1361188,0.10293389,0.030762494,0.00082982465,0.03262396,0.10826758,0.038437407,0.04146567,0.02462692,0.0056999577,0.04738316,-8.8004494e-33,-0.027971929,0.014989758,0.04692599,0.08459986,-0.039179407,-0.037808787,-0.024512408,-0.005427531,0.029291185,0.04981004,-0.03481591,-0.043554313,0.032468483,-0.03963385,0.00072881253,0.022260372,0.05696482,-0.0013407657,0.0063774907,-0.043610785,-0.0051306067,0.10626715,-0.07091636,0.02295465,0.010134095,-0.006505577,-0.082377054,0.037938073,-0.071244664,0.03296642,0.0069205095,-0.053259447,-0.043656193,0.108415514,-0.051571157,-0.023655046,0.092927046,0.068611406,0.030835686,0.040152114,0.045717638,0.0056689046,0.055412948,0.022719624,-0.06835207,-0.11481538,0.038146026,-0.12104418,0.034948517,0.006141574,0.12883489,0.10633307,0.027026284,-0.038098603,0.0066651697,0.017485468,-0.01703628,-0.019949557,-0.06333225,0.03022774,0.09923857,0.022930577,-0.09499843,0.0963262,0.08307683,0.03694534,0.02508418,0.009732064,0.008541359,-0.031096736,-0.050389007,0.017977595,0.037481554,0.03852768,-0.028539274,-0.0009995763,-0.08719292,0.05368883,0.06764573,-0.008207066,0.040466003,-0.122429736,0.058117375,0.016844166,0.04197876,-0.003665135,-0.06043983,0.0044601504,0.0624394,0.028774679,-0.022396391,0.04313338,-0.00074498716,-0.060036257,-0.0551464,-4.0127667e-08,0.032738894,-0.06120659,-0.016290607,0.002475443,0.07814804,-0.032451075,0.046061262,-0.011612513,-0.052837197,0.05363256,-0.004607869,-0.04103766,-0.047247052,0.041769642,-0.05313448,-0.020857783,0.025853137,0.05694576,-0.011112903,-0.07276712,0.13370736,-0.016266802,-0.05363482,0.029564774,-0.05761744,-0.0055269,-0.020554073,0.1163919,-0.022022026,-0.050292514,-0.05021971,0.0040395916,0.0493949,-0.068148926,0.046744402,-0.010390625,0.008796442,0.037856996,-0.049780488,-0.03305894,0.006466584,-0.0140012335,-0.023755135,-0.027373193,0.07066512,0.0006035424,-0.08665002,-0.045360453,0.023413276,-0.0014507206,-0.031584408,-0.017177394,0.07184742,0.055849064,-0.030763008,-0.047010224,0.002810557,-0.0038155082,-0.048551645,-0.010509751,0.019348161,-0.07773505,-0.027942728,-0.03491554
Souzalilia@yahoo.com.br,-0.09091071,-0.00152941,-0.032015014,-0.06871261,-0.12530673,0.017288115,-0.0027683405,0.07852722,-0.038000662,-0.07433454,0.11520248,-0.010183882,-0.044140935,-0.013416841,-0.052988373,-0.02611615,0.061944205,-0.016790451,0.101640515,-0.036033407,0.02018479,-0.009272717,0.012051438,0.035541218,-0.08072893,0.028129105,0.003740103,0.03391236,0.014122022,-0.097379416,-0.016995257,0.11291047,0.07270365,-0.020412656,0.061905786,-0.05168556,0.033779014,-0.15035301,0.059609056,0.054830052,-0.0036814765,0.0047949627,0.014396176,-0.05562188,0.07396263,0.0053018397,-0.047340725,0.072908185,0.0052115587,0.008868927,-0.07235452,-0.034498427,0.00399913,-0.07394929,-0.01896491,0.009814017,-0.00035065296,0.018028272,0.064349264,0.059580002,0.057559747,0.03131858,-0.056031384,0.06431335,-0.01082971,-0.038642175,-0.041227847,0.010306964,-0.08069018,-0.0003090931,0.04282131,-0.090455845,0.016334865,-0.020172931,-0.0878973,0.021931332,0.02885934,-0.08155644,0.040311534,-0.0066770934,-0.022830449,-0.00051816343,-0.052607376,0.031512227,-0.004577727,0.012021335,-0.006613856,0.029427892,0.0411446,-0.07080037,-0.037596,-0.04627401,-0.12055285,0.06266556,-0.10603652,-0.0010788362,0.036690533,-0.04142931,-0.036960285,0.05774818,0.03246389,0.030049061,0.035518363,-0.07795682,-0.06099933,0.010654863,-0.0136280125,0.06752804,0.058861133,0.09762081,-0.08603576,-0.016530933,-0.07159011,-0.104814634,-0.046190746,-0.009740759,0.005307756,0.017002773,0.063627064,-0.02400545,-0.0049916944,-0.03889962,-0.014631446,-0.05958586,-0.039646626,-0.0721692,0.08486799,6.894567e-33,0.004721532,-0.0014210059,-0.017473904,-0.0052731326,0.075900145,-0.0587967,0.03351861,-0.033712238,-0.03082672,0.015995465,-0.036566522,0.024962854,-0.07606102,0.018570129,-0.02791565,0.012685131,0.015926005,-0.070611596,0.01653005,-0.020681042,-0.020161534,0.029362058,0.057210233,0.047453813,0.039408423,0.014137988,-0.05239265,0.007402385,0.074226096,0.047327984,0.08942682,0.008252994,-0.0010739785,-0.0011918561,-0.046548396,-0.04020006,-0.05589582,-0.0780508,-0.07936227,0.050975326,-0.019688727,-0.011077098,-0.05242655,0.038901877,0.024381036,-0.045287635,0.031391714,0.04238621,0.05692593,0.018707044,-0.11327374,-0.02437388,-0.09500043,0.093490124,-0.050327946,-0.06778198,-0.048385337,0.056850728,0.0511037,-0.050762203,0.015894033,0.07320706,0.043824196,-0.032874387,-0.0011844144,-0.07073795,0.02211544,0.010209701,0.05210709,-0.0032670386,0.061419684,-0.034762144,0.034542825,0.01893581,-0.016260028,0.048435204,0.009289392,-0.0013830463,-0.024014376,0.050635226,0.054451436,0.05767882,0.017487373,0.011596193,0.059793893,0.09596472,0.04141762,0.009552316,0.02891293,0.14884081,-0.020660842,0.06194762,0.032557413,-0.008698137,0.03424867,-6.092622e-33,-0.0042024534,-0.001928059,0.04599901,0.05945224,-0.037741553,-0.025161598,-0.022049049,-0.037872527,0.04151897,0.0009077618,-0.082003854,-0.043992776,0.07748402,-0.04005866,-0.01456791,0.08228573,0.002378641,0.056455586,-0.030863304,-0.023125075,0.004020185,0.077324465,-0.029512426,0.047636177,-0.013361944,0.050002806,-0.06554712,0.011472928,-0.088436194,0.011405938,0.019237002,-0.0673396,-0.055205856,0.07214671,-0.03554413,0.011664321,0.065427415,0.12151143,0.057331506,0.024930403,-0.002188268,-0.0028386582,0.041220963,0.039084613,0.020018026,-0.1427703,-0.020109316,-0.1329967,0.038964808,0.013171706,0.05908499,0.037923984,-0.04059572,-0.06789114,-0.00330633,0.0088093225,-0.02584285,-0.041299023,-0.091251545,0.024996715,0.054305125,-0.018012004,-0.10327979,0.07075646,0.12967125,0.06795506,0.0438091,-0.007630989,0.054880075,-0.003685341,-0.04982613,0.047423184,0.06335306,0.015317989,-0.037715845,0.004910944,-0.10678018,0.044556357,0.029664382,0.008544196,0.0011964192,-0.10938636,0.05404047,0.012379293,-0.0030805634,0.008304715,-0.026237667,0.022208955,0.0611331,0.023801265,-0.028500455,0.04992153,-0.027383553,-0.057942703,-0.024058562,-3.5667654e-08,0.079574265,-0.057734497,-0.038185444,0.03082175,0.091686904,-0.013385758,0.026756873,-0.08330601,0.03468035,0.050354112,-0.02032711,0.0122122355,-0.058293615,0.056906737,-0.011834725,0.007839704,0.037332453,0.08966238,0.004777876,-0.07045807,0.10252111,0.008282344,0.030638339,0.0075480756,-0.063339345,-0.023182366,0.005373061,0.121848464,-0.027572766,-0.04241356,-0.029271951,0.029594528,-0.013193055,-0.06414206,0.06966599,-0.036759775,0.018678635,0.029488867,-0.096346475,0.0039787395,0.0026963956,-0.061043844,-0.061617877,-0.0060815145,0.031398047,0.015823826,-0.0047988314,0.0002233963,-0.00176802,0.036640037,-0.0562152,-0.00758159,0.058769967,0.018959993,-0.03409176,-0.03536555,0.019270591,0.020832473,-0.054254346,-0.018315932,-0.042955842,-0.049125217,-0.02899468,-0.024326049
miguel-vastag@hotmail.com,-0.11430888,0.022996088,0.0023518878,-0.039472375,-0.1153413,0.016938997,-0.017372219,0.120473415,-0.10511677,0.011688174,0.049885564,-0.021216445,-0.05553023,-0.043338697,-0.08346819,0.049134403,0.07849714,-0.03489738,0.032109614,-0.047742955,-0.0019039892,-0.012756182,-0.012295588,0.04845411,-0.08287523,0.021097634,0.026087232,0.08373453,0.031370822,-0.08432874,-0.03143979,0.068762526,0.031242289,-0.011238438,0.01919969,-0.04910801,0.027777068,-0.08385197,0.024463108,-0.013661291,0.028892402,-0.028771244,-0.060454465,-0.029346444,0.057561398,0.02794446,0.0019751308,0.061955832,0.067311354,-0.04253126,-0.07086281,-0.060360283,0.04333828,-0.06445252,-0.026354028,0.03984424,-0.013614011,0.038742695,0.003705991,-0.004309751,0.00010487367,0.009167138,-0.06073328,0.019561771,0.036061022,-0.00037199093,-0.04575344,-0.06111638,-0.05151029,0.029356949,0.043342426,-0.039972447,0.066876285,0.027713686,-0.068330385,0.032975357,0.09817314,-0.018563107,0.01567946,-0.057010494,-0.03149778,-0.0047909087,-0.058818445,0.016084787,0.05554505,0.0060573523,0.0041721747,0.029357053,0.09591819,-0.017002035,0.009193709,-0.051240783,-0.05772217,0.03485258,-0.143065,0.013921995,0.044872228,-0.09247092,-0.0042782878,0.06438099,0.011632191,0.006868989,0.028355008,-0.0073537803,-0.047101974,0.06728805,-0.015443076,0.0553331,0.01540113,0.10028344,-0.074290924,-0.028652854,-0.08510063,-0.06659119,-0.076202996,-0.013304865,-0.04513617,0.021870129,0.07285021,-0.07373349,-0.012265326,-0.039446447,0.0388668,-0.04990442,-0.040180136,-0.1650103,0.0181686,7.037187e-33,-0.020747952,-0.016268032,-0.020851167,-0.012000037,-0.023581116,0.0051260097,0.019250212,-0.030134138,-0.021871217,-0.0028376908,-0.07442799,-0.003220187,-0.09250332,-0.0005707395,-0.032873098,-0.017728515,-0.021244096,-0.09780564,-0.00022776033,0.004673036,-0.016678184,0.00991657,0.012355542,0.02578806,0.07541845,0.03458963,0.039006874,-0.010337933,0.032222208,0.061775662,0.010380166,0.03758818,0.020511761,-0.003154801,-0.060557626,0.017738063,-0.10310979,-0.103088446,-0.032883905,0.041518494,-0.013994651,-0.042610742,-0.01854363,-0.04128041,0.012359365,-0.008562606,0.01688898,0.075995974,0.06490283,0.014943005,-0.11210904,-0.0033417966,-0.07891563,0.062301356,-0.10424734,-0.014087534,-0.03456931,0.030792251,0.06920527,-0.02045064,-0.012350542,0.027733767,0.0066812434,0.024013305,-0.030127533,-0.04196842,0.021890273,-0.032557044,0.031887572,0.022806508,0.010000549,-0.07736262,0.05382789,0.06373323,0.0011275685,0.051747434,0.040655613,0.016621416,-0.04286642,0.027873276,-0.011342995,0.0779832,-0.00092776737,0.01783031,0.17193708,0.07185038,0.023466237,0.027992092,0.016406944,0.09374966,0.06299956,0.043810558,-0.020405527,0.028012523,0.018550577,-7.1820824e-33,0.01933274,0.009962559,0.0877217,0.09758562,0.0013094206,-0.0021608544,0.027158631,-0.036635067,0.025235794,0.08116115,-0.010790345,-0.04539632,0.040545583,-0.051467445,0.012515938,0.021837624,0.022876393,-0.002186496,0.059842102,-0.047610983,0.0054832166,0.085473835,-0.096144855,-0.0120940935,0.013687241,-0.044273492,-0.053604923,0.06847742,-0.10716787,0.032821286,-0.050528362,-0.019954192,-0.03845676,0.09958564,-0.029808596,0.0010158736,0.010604845,0.06441016,0.030207096,0.015096286,0.024276478,-0.024019957,0.08446396,-0.013748978,-0.02241871,-0.12440734,0.013729045,-0.08784253,0.0059995656,0.06031338,0.122546524,0.087490104,0.04673744,-0.019686813,-0.005845593,0.0062203715,0.027017044,-0.07428336,-0.010789048,0.072061196,0.13331467,0.017309377,-0.083174035,0.05806957,0.06781672,-0.04185717,0.033193298,-0.0016781691,0.0030764707,-0.046665963,-0.048279226,0.03633689,0.0837547,-0.015277868,-0.015658455,-0.020384463,-0.11057745,0.07235427,0.09388267,0.00085468986,0.007201043,-0.08518333,0.07877475,0.04604568,0.026778297,0.0039834213,-0.039965786,0.019018272,0.06595274,0.04679479,0.00835398,0.061842952,0.011740036,-0.03800161,-0.039292008,-3.7586304e-08,0.052610222,-0.030535115,-0.03897501,0.010912925,0.08769766,-0.061550565,0.010136193,-0.043357935,-0.07449452,0.022696178,-0.02391874,0.0092109665,-0.053277723,0.054911077,-0.0717964,-0.00566549,-0.0143485945,0.08218746,-0.014797171,-0.05933137,0.09176447,-0.011165115,-0.054149393,0.007395454,-0.005648514,-0.015965974,-0.0026866684,0.11652171,-0.0285552,-0.0417024,-0.08249494,0.03880817,0.054273143,-0.072639756,0.066710725,-0.021765614,-0.028144522,0.055217795,-0.040382117,-0.008272379,0.01278883,-0.02739065,0.021618206,-0.02275917,0.028486924,0.029123984,-0.11077027,-0.046116322,-0.024537787,-0.008537701,-0.0067040804,0.0041662687,0.056939512,0.04048043,-0.019642994,-0.012112287,0.0034581092,-0.008338058,-0.087511,-0.013082059,0.019179802,-0.05134501,0.04940511,0.018363945
aristidesdamasio@gmail.com,-0.108345464,0.028471524,-0.03740242,-0.064147756,-0.08254039,0.00975757,-0.007895314,0.08061484,-0.054216925,-0.08869988,0.086278506,-0.035043612,-0.023599397,-0.033616588,-0.06311891,-0.0013849251,0.08567314,0.02959094,0.07604786,-0.043438077,-0.029440803,0.0017430951,-0.0045017055,0.05801237,-0.03819972,0.019271689,-0.0022776688,0.038700808,0.03359548,-0.058279555,-0.0012909406,0.09602035,-0.004411341,-0.01593719,0.034850433,-0.05638379,-0.019098055,-0.10596107,0.070760734,0.03215772,0.006838535,0.033825506,0.00072677433,-0.06668273,0.04699999,0.032992333,-0.012563507,0.0941208,0.04564226,-0.007894803,-0.10957293,-0.023244394,0.012897643,-0.05454984,-0.03678276,-0.006284662,0.018644745,-0.0322795,0.053957827,0.055028196,0.027231999,-0.013407619,-0.05495652,0.06708052,0.024280388,-0.039467067,-0.04848535,0.024833204,-0.072761975,0.0056978203,0.025806507,-0.073914506,0.021331256,0.024714772,-0.030793993,0.02930638,0.0434308,-0.08922742,0.008077349,-0.03391823,-0.07047899,-0.018754506,-0.05406769,0.01887222,0.031032298,0.020343183,-0.014783847,0.046907112,0.09403772,-0.055919662,0.00878739,-0.018156568,-0.091227196,-0.0013878826,-0.108037785,0.04895181,0.054405116,0.009785628,-0.044172715,0.068961345,-0.03983109,0.0027568736,0.045536324,-0.10044715,-0.08622505,0.025867928,-0.00049117726,0.076389246,0.059516862,0.09160945,-0.07037168,-0.0067830337,-0.101073705,-0.12353278,-0.07064313,-0.022033146,0.035126403,-0.007881198,0.06117963,-0.009380033,0.045902688,-0.022337962,-0.03956111,-0.04357678,-0.06740114,-0.062388267,0.098249994,8.5449035e-33,0.0012364411,0.0134150805,-0.04150794,-0.010849154,0.057396777,-0.042953655,0.01866667,-0.054063194,0.012478874,0.031593967,-0.015635878,0.026132096,-0.10377753,0.017162181,-0.017713645,0.023354542,0.02267562,-0.08750146,0.038597856,0.015473929,-0.02187339,0.046325654,0.027643606,0.08261966,-0.016808247,0.032416075,0.005782245,0.012328412,0.003822059,0.05820444,0.08443468,0.0139104705,-0.028896922,-0.0036033427,-0.04300708,-0.050505817,-0.13463476,-0.09574827,-0.047056776,0.032797202,-0.042350866,0.0029630023,-0.034661658,0.015044279,0.050210528,-0.031982645,0.032005817,0.08955343,0.037303086,0.038607165,-0.083514065,0.01888282,-0.06633286,0.09368943,-0.0682021,-0.06254807,0.00010474399,-0.015844785,0.0665623,0.01933281,-0.0071162772,0.09656253,0.037985377,0.008964767,0.00010280142,-0.063422605,0.026502417,0.010281525,0.05073233,0.0025126224,0.036483873,-0.06386047,0.02282715,0.06273855,0.0050527854,0.03338564,0.007433238,-0.02211086,-0.024152419,0.038353875,0.026884418,0.06489226,0.0061333375,0.042056873,0.0352389,0.09313243,-0.0035158736,0.013037202,0.02003925,0.09891006,0.024376113,0.030415433,0.038866032,0.024703803,0.008821206,-8.1204105e-33,0.033088636,-0.025045708,0.07833207,0.07441116,-0.011270041,0.011976687,-0.060570426,-0.007652844,0.013644587,0.018457199,-0.023996059,-0.033461243,0.0030629102,-0.01804226,0.010643076,0.11762645,0.059670962,0.056268003,-0.036200345,-0.042760614,0.07200201,0.10754262,-0.029521262,0.050191257,-0.031018268,0.029677533,-0.023021823,0.02375906,-0.0734863,0.036967196,-0.020601254,-0.07697712,0.0021873785,0.06428329,-0.02200926,0.01747032,0.07541559,0.10251187,0.015886718,0.030229537,0.044542402,-0.014177034,0.02081223,0.06527098,-0.04862792,-0.12217103,-0.051152013,-0.08407557,0.018401897,0.040110197,0.08347144,0.051917896,0.00029466592,-0.10735625,-0.036675386,-0.009198438,-0.000878045,-0.051796697,-0.09433708,0.042791385,0.055852823,0.063904494,-0.107591145,0.079222426,0.10160238,0.049828,0.025231745,-0.043128345,-0.04254463,0.0070772255,-0.05533026,0.043160997,0.075549,0.0016957131,-0.025138617,0.018698903,-0.02716197,0.0078048822,0.034923505,0.0011260024,0.001236773,-0.12284642,0.07395887,0.03708524,0.019104738,-0.012526634,-0.105564505,0.01876273,0.08914932,0.041541066,-0.025920045,0.06787368,-0.012253153,-0.07067588,0.0071411585,-4.1284707e-08,0.07056337,-0.055102676,-0.024825346,0.0015638318,0.050077472,-0.020322021,0.007219751,-0.062095754,-0.0070612654,0.09010344,0.0050949943,0.0128833,-0.052562423,0.0421851,-0.0654416,-0.019857887,0.0136347385,0.071902856,-0.031872,-0.09312266,0.11404859,-0.020046119,0.025548387,-0.017877521,-0.05582197,-0.04976637,-0.03075932,0.11054464,-0.01074969,-0.02462285,-0.028553009,0.01971739,-0.004925324,-0.0884082,0.04594127,-0.034206614,-0.040554874,-0.030950546,-0.092202045,-0.012964258,-0.04492686,-0.042267334,-0.053272568,-0.021942174,0.035224,-0.0013622518,-0.047405243,-0.012509766,-0.0066412236,0.0043700775,-0.014522153,-0.04147935,0.08389861,0.021498198,-0.07459452,-0.0518351,0.02217234,-0.019644747,-0.037954174,-0.034729145,0.013069213,-0.09073888,-0.014605354,-0.013641183
thiagmed12@gmail.com,-0.059258066,0.045060292,-0.06898322,-0.101385616,-0.060622636,-0.00070136454,0.00020498702,0.12876113,-0.11424484,-0.050196502,0.045867696,-0.027275389,-0.0072811083,-0.03066188,-0.042501003,-0.030194843,0.04485099,-0.028654248,-0.014403507,-0.020816466,-0.003520747,-0.049492728,-0.0072636483,0.07012145,-0.03679141,0.040943578,0.07033935,0.02033325,-0.059281345,-0.122675374,-0.026246049,0.083481625,0.042387024,-0.07439196,0.014511508,-0.040565886,0.07476646,-0.014470203,0.008844009,-0.018482616,-0.010563075,-0.037716486,-0.064981095,-0.022185713,0.04963378,0.022052808,0.026969329,0.07938011,0.01457229,0.016790764,-0.020339666,0.039600562,0.030082399,-0.08423591,-0.043047857,0.059573576,0.021880945,0.06964124,0.024140611,0.008541859,0.046292547,-0.01600055,-0.04073994,0.053408306,0.0483704,0.0007478076,-0.043545634,-0.064912714,-0.108354926,-0.056751534,0.014121046,-0.052129447,-0.055336032,0.034974743,-0.036829248,0.059739698,0.06432535,-0.07994193,0.029578878,-0.03641079,-0.081601635,0.0009284963,-0.054258298,-0.004738669,-0.0076264637,0.03309092,0.0400392,-0.002460572,0.025494596,-0.047554616,0.030823957,-0.037111733,-0.035814423,0.0015208181,-0.10667583,-0.029074833,0.019101556,-0.008459325,-0.020409537,0.006342621,0.07575737,-0.03313677,-0.0054399455,-0.050124496,-0.09279006,0.014481947,-0.018296735,0.02831379,0.051318176,0.06222339,-0.04091072,0.008033737,-0.07862024,-0.13133426,-0.078021824,0.045715485,-0.032304995,-0.00043312524,0.07103003,-0.0786742,0.049547855,0.0037817291,0.0013117542,-0.030246042,-0.10027155,-0.11747533,0.073374525,1.2718906e-32,-0.10687015,0.009262867,-0.06819641,-0.015336921,-0.011511169,0.017434387,0.016627112,0.03785858,-0.025994215,-0.03253219,-0.01615014,0.032671783,-0.07318977,0.048730228,-0.013831458,0.014337129,0.047433987,-0.05324548,0.0021473034,-0.04654376,0.031907108,0.10028226,0.012882396,0.0810316,0.029838517,0.048389155,0.04327936,-0.009886364,0.012817749,0.02529549,0.08647359,-0.04565959,0.06578034,0.018354356,-0.063143104,0.0121817235,-0.11316943,-0.049799047,0.03225621,-0.0038389955,-0.010578655,0.027784187,0.005595085,0.0138046,-0.027740648,0.014055452,0.045482926,0.0829745,-0.025424318,-0.0063590985,-0.105550684,0.02091437,-0.02449196,0.1206014,-0.051089153,-0.100229226,-0.013038588,-0.015882792,0.030707836,-0.0418981,0.061302073,0.08917941,-0.00028237788,0.01617926,-0.06019642,0.037226543,0.048620403,-0.00064731407,0.0039984705,0.0805632,-0.018119933,0.026267981,0.090642594,0.030753272,-0.0027034616,0.013925309,0.0019693377,-0.010727385,-0.011219177,-0.0013298625,-0.031566724,0.06703377,0.012732737,0.008194808,0.060805377,0.06016375,-0.015821636,0.04379713,-0.010365976,0.0760502,0.07275292,0.02036496,-0.014911548,-0.000666369,0.048397724,-1.2411617e-32,-0.037977815,-0.0005201679,0.03486514,0.08530122,0.023318788,-0.02191414,-0.031441417,-0.029984193,0.0046280273,-0.0218916,-0.021948949,-0.03986862,-0.013086721,-0.0066641755,0.01078753,0.034284297,-0.028054513,0.061145276,0.0280934,-0.0729184,-0.022499427,0.08391711,-0.07915974,0.007924096,-0.0043791956,-0.053686254,-0.06395539,0.004149689,-0.000648887,0.022600336,-0.009764677,-0.04821728,-0.071822144,0.1061793,-0.07613201,-0.0042788778,0.05524243,0.047087666,0.0117011815,0.048335478,-0.0043292283,-0.027120797,-0.023436883,0.0034900191,-0.04607047,-0.11513149,-0.09342833,-0.108154595,0.07388324,0.07579207,0.07840061,0.08820291,0.06898452,-0.03565096,-0.09091762,0.033660937,0.028533256,-0.0038072986,-0.025051186,0.017603263,0.015136665,0.020982545,-0.016002478,0.066712864,0.044840697,0.030692652,0.016891584,0.07622183,-0.008251984,-0.077319935,0.022591375,0.005233699,0.08291221,-0.04055235,-0.029052222,-0.011543314,-0.049650963,0.060167897,0.06963883,0.04052794,-0.018508213,-0.06281687,0.09961344,0.040244535,0.058623657,0.038923934,-0.079623684,0.04188722,-0.014366662,0.047445565,-0.007491142,0.059223037,-0.012809243,-0.032859355,-0.051472083,-5.5018745e-08,0.05077774,-0.09183529,-0.012360522,0.06861694,0.07599812,0.008078845,0.024505934,-0.017539809,-0.05386132,0.054235585,-0.009176888,-0.043508966,-0.11920388,0.023197407,-0.042012334,-0.026544685,0.0055149947,0.10880679,0.01122459,-0.014862593,0.081006706,0.021895664,-0.03491097,-0.03415341,-0.056600202,0.009578039,0.010805215,0.0768609,0.00029723276,-0.008683265,-0.026476555,0.012929513,0.042140845,-0.06786124,0.026580932,-0.0073945792,-0.02624679,0.14055912,-0.09805497,-0.030129459,-0.025962139,-0.04799204,-0.10569537,0.02137998,0.0900598,-0.05166361,-0.08625802,-0.0468886,0.060585555,-0.027437279,-0.022838859,0.04276313,0.10966916,0.016293468,0.0014685339,-0.004469654,-0.03944293,-0.007003653,-0.022609664,0.012785273,0.036478266,-0.11231653,0.019972475,-0.0076926667
beatrizrybandt@gmail.com,-0.05659934,0.050452854,-0.0049396837,-0.058085326,-0.13350621,0.003682691,0.074065536,0.07678698,-0.03235034,-0.005630027,0.024278864,-0.048858106,-0.029836278,-0.03989755,-0.13190204,-0.003161951,0.0018379564,0.024535483,0.04741162,-0.056078568,-0.0100310445,-0.05337916,-0.02271983,0.07647561,-0.06820542,0.02317976,-0.023867471,0.024515165,-0.072424464,-0.10068031,-0.088171445,0.008325379,-0.03668508,0.022663632,0.0016827711,-0.025660474,0.011118533,-0.11799988,0.008463944,0.032451697,0.019989049,0.02615702,-0.03309091,0.025183924,-0.009061443,0.09179027,0.022915144,0.062259525,-0.03819696,0.03152442,-0.10189773,-0.05937888,-0.013907115,-0.09031289,-0.023853967,0.09521943,0.026187066,0.051353376,0.032030698,0.017589623,0.063072376,0.0028405932,-0.06100044,0.04923176,-0.014278361,-0.021999126,-0.027596146,-0.02004539,-0.121654645,0.0016692325,0.0680838,-0.05221886,-0.009570836,-0.016752359,-0.00219831,0.056126397,0.05377235,-0.072820745,0.02660073,-0.04613426,-0.09224443,-0.018060366,-0.038432606,-0.026026072,0.003953107,-0.0044718008,0.0362822,0.015968727,0.11212176,0.007471741,0.06819707,0.008720041,-0.06128185,0.030514993,-0.11147625,0.041269656,0.027683554,-0.0020348348,-0.029427523,0.05005425,-0.004190006,0.041814525,0.025027612,-0.008065821,-0.0236626,0.062616736,-0.0081465915,-0.030876406,0.004831518,0.05356422,-0.06214958,-0.00087427703,-0.06574682,-0.10760283,-0.046349607,0.003073523,-0.06657004,0.01548522,0.06702161,-0.09924865,0.044951815,-0.08489624,-0.032986585,-0.0055757375,-0.13234109,-0.07151548,0.02170423,8.227387e-33,-0.06194749,0.040804826,0.02192976,-0.036730632,0.021743018,-0.032793052,0.017445615,0.00198119,-0.035583608,0.027458787,-0.09683808,0.03188308,-0.10805503,0.017620709,0.025654411,-0.034828395,0.074805744,-0.022183772,0.030237045,-0.018858025,-3.193158e-05,0.04801609,0.011415899,0.009583953,-0.03065914,0.06545467,0.0325009,-0.043191496,0.083725736,0.04639717,0.044038504,-0.013591936,0.046593323,-0.0013590024,-0.07945373,-0.046188474,-0.06360723,-0.046237815,-0.0030651249,0.0063998094,-0.025341636,-0.0129883,-0.006209356,0.025040718,-0.022578506,-0.02837824,0.020659495,0.064057805,0.047258563,-0.026569659,-0.08203325,-0.054407015,-0.007429131,0.095678546,-0.031825542,-0.042013608,-0.044176813,0.029187597,0.07038404,0.0032717302,0.048998293,0.061201964,0.08746748,-0.0105662765,-0.0006918671,0.048214998,0.06419722,0.011046893,0.027585449,0.025101874,-0.030745367,-0.0446519,0.045543246,0.017438775,-0.009621787,0.02644592,0.03175396,-0.044654243,-0.037112113,-0.0030169096,-0.059589833,0.04096083,-0.028666116,0.034868915,0.055522777,0.09005354,0.023547009,0.051994104,0.049743403,0.17686082,-0.027424028,0.04271575,0.034455378,0.01055606,0.015230156,-7.8062075e-33,0.030084489,-0.08900008,0.019339284,0.05855331,0.009125342,0.010406282,-0.040017366,-0.016898485,-0.0020421357,-0.0034230459,-0.071833484,-0.043079395,0.012533589,-0.017779667,-0.011268543,0.00636538,0.021922434,0.058357168,0.0038356185,-0.06171864,0.0028021408,0.06391781,-0.05975747,0.06546761,0.0020370337,-0.025754614,-0.03462919,0.03702964,-0.11880929,0.021655923,0.020005254,-0.07867733,0.008047887,0.11258197,-0.11180391,0.073770195,0.09174845,0.09037486,0.048213247,0.060574528,0.025110062,-0.043217428,0.052705135,0.06113446,-0.017480342,-0.04743896,-0.07411541,-0.06638635,0.027082378,0.092662305,0.08752855,0.058416996,0.015211417,-0.09404217,-0.04309221,0.037771933,-0.04124786,-0.058417186,-0.030786915,0.042770047,0.043042544,0.016203597,-0.0767946,0.061044257,0.078171134,-0.0016175585,0.049330413,-0.018444689,-0.033468463,-0.042074587,-0.009025306,0.09060724,0.024908641,-0.004842429,0.004161946,0.06288883,-0.04539774,0.040189363,0.08969333,0.02711492,-0.0019302946,-0.030168237,0.08216141,0.02952786,0.009632196,0.016154297,-0.005913613,0.082459345,0.033371817,0.0047549736,0.026502848,0.015010399,0.06745723,-0.08376393,-0.014264095,-3.6606387e-08,0.10284338,-0.010256336,0.022218429,0.0045094406,0.060456697,0.015265905,0.026271652,-0.006735073,-0.060837366,-0.018302776,-0.0074171615,-0.068223596,-0.049646966,0.06726662,-0.07988363,-0.01432221,0.019688746,0.0895983,-0.007064613,-0.035760764,0.074525654,0.03245353,-0.014046497,-0.008433853,-0.05279459,-0.04434018,-0.010232627,0.076025926,-0.075435065,-0.043487072,-0.022066273,-0.0067879986,0.028031474,-0.03807087,0.09653811,0.016917832,-0.09086876,0.061284393,-0.063303284,-0.017769314,-0.041862454,-0.04144442,-0.020095024,-0.025315914,0.014559433,0.041439004,-0.0975292,-0.046733834,0.026222805,0.09523696,-0.014611327,0.036534503,0.055830855,0.027038082,-0.051897667,-0.00640134,0.023872612,0.016980149,-0.08507028,0.00598484,0.052479953,-0.10341321,0.012919814,-0.022534546
dalysonfreitas123@gmail.com,-0.08499736,0.015118169,-0.06937649,-0.073376894,-0.13160928,0.03257161,-0.035886686,0.08531452,-0.08332394,0.018569924,0.069436036,-0.0031771618,-0.021119412,-0.028191598,-0.097973675,0.042220067,0.021992426,-0.045615066,0.08152146,-0.03133013,-0.024400447,-0.030550975,-0.06954239,0.08553619,-0.032175325,0.029707104,0.04332017,-0.013144341,0.00268565,-0.10267928,-0.03523521,0.049572255,0.034213766,-0.034320313,0.013656335,-0.022534834,0.01281699,-0.089710556,0.009313357,0.010374029,-0.022451406,-0.0015537163,-0.06677194,0.0055135186,0.016911153,0.042388868,0.06733194,0.095131226,0.021227453,-0.029644707,-0.061527707,-0.019057622,0.059319515,-0.09143247,-0.03587215,0.051078234,-0.03127849,0.037932776,-0.006381009,-0.01636707,0.042135354,0.012801749,-0.100187995,0.080541834,-0.007263083,0.021164685,-0.019228308,-0.040260617,-0.09635174,0.027764076,0.079509996,-0.07502887,0.046889212,0.006218614,0.012878815,0.0586884,0.06903304,-0.09423639,0.04243827,-0.04778993,-0.021877592,0.010078932,-0.057553783,0.008457244,0.018850982,0.00736058,0.05162248,0.052409373,0.01899889,-0.01989221,0.053298805,-0.05203565,-0.08269107,0.01472953,-0.102744155,0.049010903,0.010529749,0.0031680744,0.009334294,-0.0041966173,0.041532077,0.009782844,0.035191104,-0.055737283,-0.09075151,0.061220586,-0.017285096,0.022033198,0.07346714,0.07707432,-0.12576117,-0.000681651,-0.12672606,-0.077354826,-0.06884902,0.023576902,-0.0048267934,-0.015370062,0.06956825,-0.08062679,0.019601395,-0.020273086,-0.029861405,-0.011391949,-0.064014174,-0.15279953,0.013089921,5.4092235e-33,-0.052350234,-0.011923382,-0.06374891,-0.043265697,-0.027392153,0.010682752,0.034306847,-0.054082226,0.008273494,0.019728007,-0.0783751,0.054677077,-0.09261539,0.047490925,-0.006326108,-0.00041103,0.008523882,-0.03830077,0.00940588,0.008101275,-0.05067727,0.05412105,-0.032700893,0.083812386,0.015955437,0.05033329,0.04863451,-0.013908057,-0.00571319,0.040679615,0.014145435,0.032220248,0.010367939,-0.035579644,-0.076335445,-0.0053205597,-0.054791488,-0.024724504,0.010077806,0.009915898,0.009016418,0.043858893,-0.04399706,-0.016811926,0.009553444,-0.033549983,-0.004163501,0.06671371,-0.00314828,0.015638284,-0.11184911,0.016644724,-0.00035692967,0.0716136,-0.0016535798,-0.018997822,-0.039083827,0.062176168,0.085189566,0.009658593,0.042466972,0.060396798,0.009574906,0.026511814,-0.046379834,-0.015195468,0.025681924,-0.005824999,0.044026565,0.02866645,-0.019638006,-0.041278258,0.02828549,0.008022544,-0.017012818,0.03066333,-0.0003433283,0.011327155,-0.05065195,0.029118061,-0.05220843,0.051997803,0.012638252,0.008627843,0.14893565,0.10595687,0.040150672,0.055385265,-0.027505785,0.13415232,0.04979644,0.06713613,0.02959985,0.019238185,0.058272123,-6.578155e-33,-0.01084125,-0.042415,0.10179023,0.10908603,-0.034151193,0.006807388,-0.03726312,-0.011182152,0.03223525,0.034540873,-0.017543042,-0.036651537,0.001049861,-0.0052002454,0.012294811,0.053834565,0.0066129067,-0.0065507875,0.003901049,-0.059271377,0.021578623,0.1362954,-0.067226715,-0.0018357937,-0.01144772,-0.047693428,-0.06236018,0.05345753,-0.088954866,0.017809989,-0.018209714,-0.036395263,-0.008391335,0.12218564,-0.09623325,0.003798678,0.058374345,0.099915795,0.03334147,0.04377389,0.028851269,0.031781085,0.024634968,-0.015185759,-0.036863655,-0.095860764,-0.04159414,-0.13365087,0.02661561,0.03193488,0.09331085,0.091271244,0.062985815,-0.054938514,-0.035345517,-0.03118958,-0.029861111,-0.055530414,-0.05092064,0.012521114,0.043841798,0.020115335,-0.08448049,0.03486367,0.092092186,0.014195466,0.031808004,0.017342944,0.006481454,-0.02532999,0.009058561,0.06473776,0.072378345,0.03022151,-0.013061126,0.00858832,-0.09825589,0.06525454,0.09619137,0.01717181,-0.036164995,-0.08057616,0.06519185,0.062321365,0.030474018,0.0200574,-0.059277236,-0.01926168,0.029896004,0.011011206,0.0005168996,0.07075083,0.009187852,-0.090422705,-0.026916292,-3.7518756e-08,0.03206634,-0.07889327,-0.02660808,0.004993966,0.08675051,-0.016074635,-0.011956441,-0.040868353,-0.023693679,0.04112074,0.007351243,-0.053301137,-0.02900736,0.07558432,-0.060573306,-0.022222606,0.04635323,0.108835585,0.0005059559,-0.06297232,0.085660115,0.033294577,-0.018857157,0.023772184,-0.0144176865,-0.0064165946,-0.0065112603,0.06661359,-0.04424071,-0.043043196,-0.069803976,0.018789228,0.034973208,-0.08427084,0.055902127,-0.0070111295,0.008768954,0.048987776,-0.09399902,-0.00015395031,-0.010786637,-0.034278266,-0.031994164,-0.040373188,0.04824729,-0.037921976,-0.053632088,-0.046553336,-0.009522644,-0.010722795,-0.045200996,0.04869453,0.06027566,-0.011069026,-0.004793752,-0.02523737,-0.006246849,0.0008735645,-0.0654172,-0.026262274,0.04704236,-0.06827059,-0.014070596,0.0042076665
claudio.custodio@hotmail.com,-0.1019102,0.025239507,-0.05600727,-0.038601425,-0.10646526,0.04021294,0.07596088,0.065735996,-0.07381448,-0.03592664,0.055847954,-0.046681266,-0.024099145,-0.05325718,-0.0633082,0.06332223,0.073486336,0.00095908856,-0.00574148,-0.031903762,-0.037478864,-0.036919028,0.021326168,0.058627985,-0.049915724,0.06271066,0.023947971,0.03611393,-0.037766833,-0.105869465,-0.07133591,0.041430067,0.047485843,0.0009105734,0.0017384994,-0.0351379,0.0071545215,-0.03069876,0.02521042,0.012271305,-0.0063762623,0.029819328,-0.031845793,0.014944773,0.0045099664,0.0647239,0.005491116,0.058980342,0.025375789,0.035081144,-0.012811956,-0.038107973,0.015820665,-0.018753143,-0.03059725,0.06847306,-0.032645002,0.011298524,-0.017411182,-0.00096051424,-0.002090385,0.009899467,-0.051145844,0.025472194,0.031898297,-0.013807373,-0.032298878,-0.036168516,-0.08111701,-0.013194518,0.04098362,-0.009884012,-0.03110158,-0.0067063784,-0.04277006,0.074531734,0.12578544,-0.07926449,0.028511452,-0.02835531,-0.11115949,-0.013046773,-0.052869614,0.010794711,0.018331205,0.03473209,-0.033151448,0.032292295,0.06418334,-0.06797821,0.033352017,-0.059423152,-0.05592963,0.03193861,-0.115182504,0.05674042,0.040031865,-0.04052074,-0.06636611,0.03488994,0.05293768,0.005298364,0.048920657,-0.043674394,-0.043227427,-0.017657189,0.027253825,-0.031049317,-0.0054742033,0.08018859,-0.020004164,-0.0018335162,-0.030403348,-0.08216753,-0.07441675,0.014727367,-0.0140737705,0.07830734,0.047249213,-0.09442088,0.0117567275,0.0075709107,0.020699378,-0.008173956,-0.107051365,-0.10092522,0.00069824833,1.4031543e-32,-0.01033725,-0.023189154,-0.024022305,0.04356261,-0.00626207,-0.022970738,0.046506647,-0.037453834,0.028319985,0.0008792236,-0.10446313,-0.0011710662,-0.041962788,0.022953128,-0.012321788,-0.024702057,0.03055842,-0.08905831,0.045070644,-0.031196304,-0.06932299,0.06859775,0.0031780945,0.034928378,0.010797864,0.06348567,0.06489122,-0.004547555,0.073630705,0.040180214,0.022826305,0.009350013,0.0119085815,0.034881216,-0.04262827,-0.01087454,-0.11183889,-0.034393724,0.006621817,0.040538386,-0.044242017,0.018944269,-0.03423471,-0.029096764,-0.010720902,-0.06453782,0.051189642,0.13506679,0.034662135,-0.020754773,-0.09738849,-0.040139604,-0.029840898,0.08185576,-0.10208749,-0.066137366,-0.02676785,0.033944402,0.0756138,0.03778765,0.04734609,0.08550007,0.048547674,0.024935775,-0.033368673,0.008905558,0.013153241,-0.037201874,0.012578657,0.043707438,0.0022459428,-0.019153098,0.06608803,0.03125941,0.018859237,0.026564028,0.04919717,-0.04145209,0.0068029035,-0.023198042,0.030489365,0.05400503,0.06339798,0.08544151,0.056710325,0.041540787,-0.02258342,0.03833944,0.02610199,0.08145042,-0.0003786964,0.030470863,0.007985254,-0.05405839,0.045715526,-1.1763847e-32,0.045523893,-0.04255902,0.059417043,0.06378704,0.059630074,0.00936689,-0.02368573,-0.059926488,-0.0038158647,0.0056879153,-0.040960427,-0.048910655,-0.037625052,-0.040316686,0.022483466,0.05326804,-0.04418518,0.06376083,0.033002812,-0.07635918,-0.0009959193,0.032978054,-0.050798148,0.008924095,-0.024057643,-0.015926056,-0.037731085,0.042147577,-0.0349968,0.042827733,-0.0273109,-0.08261384,-0.015798494,0.12317915,-0.09219729,0.0024870527,0.10549843,0.11330349,0.085290596,0.030440424,0.00306115,-0.07023036,0.045006588,0.03937303,-0.030666865,-0.14493161,-0.08694174,-0.08307032,0.05343753,0.09625193,0.039400622,0.0287916,-0.025231145,-0.042122014,-0.04703487,-0.011602848,0.0072142365,-0.07427249,0.011794445,-0.0027738346,-0.014043822,0.014499769,-0.041774653,0.029825749,0.07277495,0.03215328,0.040739976,-0.0033640119,-0.040242746,-0.007610814,-0.0758974,0.023683969,0.07702763,-0.04529422,0.02046808,0.0132293375,-0.009111277,0.07707902,0.16321604,0.045816354,-0.01710344,-0.0831713,0.07624591,0.05362052,0.05136451,0.072512984,-0.043883834,0.0919628,0.009335137,0.026885305,0.010607505,0.05145956,0.06323852,-0.04637676,0.0011158682,-4.60392e-08,0.0634509,-0.058014926,-0.019464508,0.024358599,0.07212841,0.04948535,0.023299513,-0.018665716,-0.02626541,0.030285936,-0.011497486,0.02953855,-0.065673955,-0.021934113,-0.10553014,-0.00629069,-0.019074632,0.09564777,-0.0041851387,-0.100306764,0.11939486,0.013397081,-0.019524913,-0.0035937992,-0.022217283,-0.048248403,-0.055822913,0.10517101,-0.017748164,0.004033301,-0.027298016,-0.01083238,-0.000644564,-0.118789844,0.059971444,-0.057382893,-0.025813486,0.03579739,-0.06599984,0.030749522,-0.016160013,-0.0485229,-0.033092685,-0.010706805,0.06571336,-0.02595626,-0.10655685,-0.050591186,0.01788443,0.013005964,-0.0061069084,0.00085635064,0.10136135,0.023591667,-0.05378023,0.014813055,-0.028906163,-0.030999256,-0.027305905,0.051961947,-0.0071364264,-0.13870658,-0.034500394,-0.005018559
patriciadesouzacristina@gmail.com,-0.07373461,0.039003845,-0.03676213,-0.073367216,-0.12847303,0.0016157995,0.038382303,0.11852494,-0.019815287,0.021834128,0.07979466,0.00022077351,-0.016974049,-0.020526968,-0.08229773,0.021910662,-0.06405944,-0.005967539,0.08376386,-0.02593229,-0.040890403,-0.017636912,-0.022452075,0.030362146,-0.066153735,0.058074646,-0.033384085,0.037409674,-0.02094632,-0.09533028,-0.062677525,0.0154143395,-0.025490776,-0.011132386,0.023304833,-0.012205315,0.0031453623,-0.12762272,-0.021670423,0.011870149,-0.017187554,0.029722892,-0.0436337,0.015472805,-0.012063564,0.067232385,0.030949475,0.08152494,-0.017263457,0.010973625,-0.110981554,-0.057093985,0.03432476,-0.06918122,-0.028065566,0.08215761,0.041745394,0.060365275,0.020636788,-0.00548876,0.06460305,-0.0262617,-0.044068847,0.036334522,-0.02506068,0.022504047,-0.030975439,-0.056739822,-0.11677809,0.0070156334,0.06145662,-0.07451079,-0.027969003,-0.052995574,-0.008393513,0.048566945,0.0293072,-0.05685832,-0.014404341,-0.017718965,-0.045069624,-0.057370875,-0.06503868,-0.046734065,0.047083296,0.0005728626,0.020618761,-0.0138906315,0.087058544,0.020934083,0.02279989,0.026356889,-0.048214596,-0.00031522682,-0.09506219,0.04210689,-0.008235596,0.0133732315,-0.07743368,0.07314466,0.034308303,0.07522785,0.06091122,0.0049905563,-0.06324115,0.050708655,0.021428864,-0.0020641452,-0.016568178,0.055245064,-0.08701609,0.004436408,-0.08231724,-0.10164883,-0.022359552,0.018419895,-0.045505006,0.039796297,0.09874127,-0.070163496,0.08361524,-0.07625675,-0.02563407,-0.007945453,-0.12143181,-0.06425263,-0.005605006,7.676081e-33,-0.055052612,0.06462251,-0.019075267,-0.021169104,0.0036665064,-0.00072352285,-0.010028171,0.04098341,-0.040560883,0.036124304,-0.09204128,0.03974869,-0.058223177,-0.0006984864,0.0023011246,-0.04913364,0.0762122,-0.022468593,0.052447513,0.001174367,0.06694656,-0.0052341833,0.013915515,0.013398187,-0.01347363,0.04884531,0.033712227,-0.005870282,0.04268171,0.038356505,0.0043586204,-0.0038407317,0.018099794,-0.05004371,-0.015151689,-0.04526011,-0.05485687,-0.059881497,-0.01786097,0.029655267,-0.026109442,-0.026718363,-0.020099187,-0.0031349396,0.036792513,-0.0059822886,0.071570955,0.06220265,0.09118211,-0.055418137,-0.09552289,-0.0423755,-0.06641691,0.07717237,-0.017168391,-0.06821329,-0.026063101,0.04588452,0.028170638,-0.03020163,0.06415647,0.040730264,0.07390457,-0.020534059,0.0020099485,0.04098347,0.052361857,0.008973741,0.04285539,0.035752006,-0.035084516,-0.054765135,0.07442522,0.045754977,-0.014733866,0.016668795,-0.017482944,-0.038574453,0.0045495587,-0.002234697,-0.06844775,0.034968454,-0.019734139,0.03711346,0.08120123,0.06739108,0.0015712025,0.068857394,0.024744747,0.09582881,-0.0062884307,0.025572926,0.06845291,-0.022037985,0.008385517,-7.534206e-33,0.003707988,-0.07281025,0.0148629835,0.0509803,0.036924217,0.01532328,-0.036641825,-0.0010782578,-0.016098127,0.0070308307,-0.064802535,-0.056947388,0.009984317,-0.052572522,0.004479436,0.056323238,-0.0057139792,0.018082857,0.018026222,-0.05990788,0.049845435,0.0133929,0.0021748396,0.056540713,0.00869861,0.014925693,0.048153434,-0.021550542,-0.09448196,0.072455734,-0.0335743,-0.06698946,-0.0105188405,0.10643216,-0.110548824,0.05627908,0.046089027,0.07099173,0.01824832,0.02407301,0.023136504,-0.0107177105,0.09964678,0.04302755,-0.024412213,-0.094502866,-0.090772495,-0.0638065,0.00045517093,0.06130848,0.081085786,0.072003774,0.014650068,-0.10690905,-0.061039876,0.015822658,-0.047180556,-0.07109858,-0.05760295,0.03821252,0.043673184,0.025256157,-0.107834466,0.1039498,0.10059784,-0.04000708,0.034646165,0.016681427,-0.056878112,0.002204764,-0.02317674,0.05788575,0.04561313,0.0049883327,0.0023617004,0.09734765,-0.03861941,0.030728359,0.12693802,0.033404224,-0.015003674,-0.05903447,0.037775733,0.05532791,-0.007694142,7.939536e-06,-0.030543007,0.062465336,0.043720216,0.015676536,0.024076197,0.035385117,0.07877682,-0.09472596,-0.014077576,-3.640213e-08,0.07066403,-0.025995465,0.020628536,0.020745574,0.086575896,-0.00065232976,0.0017666462,-0.035414565,-0.08677586,-0.009230738,-0.0499955,-0.06808404,-0.017111937,0.05861989,-0.06081719,0.020527465,0.01737174,0.110738374,-0.0105100265,-0.03632224,0.0910239,0.01759178,-0.019800952,-0.014190404,-0.051437207,-0.026320893,-0.045524504,0.12074122,-0.06336807,-0.004447087,-0.050700903,-0.03197212,0.03210734,-0.073207855,0.06697437,-0.013714271,-0.040166523,0.024228169,-0.110644825,-0.022581745,-0.03376883,7.6130505e-05,0.007997314,0.0003123353,0.014442195,0.02995705,-0.105100535,-0.04434723,0.015650017,0.09572247,-0.0089317,0.019892318,0.03363202,0.07025538,-0.05168997,0.029854812,0.020636251,0.032942172,-0.11042884,0.009568804,0.026167955,-0.06695793,-0.017433895,-0.008101008
giuliafogassa@gmail.com,-0.078056395,0.011620238,-0.043908212,-0.069728844,-0.09808613,0.020278826,-0.051369935,0.075370714,-0.09002608,-0.0018025655,0.0678828,-0.018370984,-0.015592666,-0.046707083,-0.053169128,0.056073133,0.027725032,-0.08316972,0.048708495,-0.0108625125,0.0044075456,-0.0065290034,-0.03592427,0.065047935,-0.020373017,-0.013713725,0.057162076,0.00841777,-0.016305476,-0.081389055,-0.028241757,0.09245791,0.037171435,-0.020354996,0.036223497,-0.041522246,0.029181482,-0.058597647,0.03348302,-0.02474314,0.0046689613,-0.008360943,-0.048606806,0.018621085,-0.016440796,0.041936036,0.014681084,0.09744401,0.055031784,-0.043355208,-0.03027405,0.023192752,0.016096896,-0.061321538,0.00035075253,0.030685628,-0.014596455,0.0526937,0.016304445,-0.024322765,0.04178552,0.042170495,-0.09761824,0.07018513,0.044599682,0.00491592,0.00063509424,-0.041104577,-0.11876156,0.01904837,-0.01171696,-0.05415076,0.047644857,0.013341267,0.03587927,0.019509615,0.05900943,-0.079923846,0.03947932,-0.023993565,-0.052345604,-0.021294069,-0.08968659,-0.00254585,0.04448291,0.0026891138,0.039478984,0.05634069,0.102524295,-0.08689493,0.017807217,-0.06316201,-0.060563378,0.03061601,-0.09472025,0.005890173,0.0072833356,-0.017608646,-0.003625863,0.037550144,0.049436692,-0.0063355705,0.030181732,-0.04837358,-0.1015141,0.0761848,-0.071911365,0.054324333,0.04423278,0.09361977,-0.041991748,-0.030808263,-0.07902817,-0.121438384,-0.079385035,0.008020943,-0.044258717,0.0016005456,0.029711857,-0.08988989,-0.0061284676,-0.026248803,0.05304717,0.02615161,-0.07259357,-0.14580947,0.04073083,3.56366e-33,-0.0038625633,-0.033260845,-0.074115165,-0.03351319,-0.024110861,0.040117092,0.0479216,0.008306377,-0.059158456,-0.008638122,-0.009125141,0.014653739,-0.09051671,0.045504976,-0.031641927,0.0104405,0.035033084,0.0051876693,0.041753057,0.021637842,-0.029040722,0.028312316,-0.019655403,0.06564433,0.053538054,0.025291668,0.05234823,0.004285585,-0.027705919,0.049044788,0.03847204,0.016947474,-0.018625159,-0.015395585,-0.06622901,-0.009961366,-0.11483145,-0.03276225,0.008461768,-0.032779586,-0.08171829,0.07715946,0.010792131,-0.107395105,-0.006666269,-0.032054793,-0.03854308,0.098261416,0.012897884,0.04440811,-0.080356166,0.012246393,-0.021137137,0.13785161,-0.052773297,-0.04745071,-0.0031800347,0.05633986,0.06903287,-0.0026107354,0.036343403,0.06458564,-0.036049813,0.019127518,-0.078461505,0.0038400823,0.07046628,0.025747206,0.028643453,0.037474252,-0.029076846,-0.06554159,0.039777473,-0.021038609,-0.029859208,0.04569001,0.003257598,0.008124561,-0.04017494,0.05978785,-0.059322335,0.036622662,-0.0048550246,0.011757018,0.08007724,0.078484096,0.033317134,0.02904475,-0.026985386,0.110357836,0.0808447,0.02905912,-0.0016778938,0.013358785,0.081876524,-4.6680677e-33,0.00017343239,0.022176564,0.10409408,0.11101607,-0.0029305918,-0.04151262,0.014336683,-0.029862873,-0.0017991831,0.0027511124,0.012946843,-0.05166415,-0.0075386693,0.0053416034,0.007746962,0.050363213,0.042364504,-0.019688372,0.019602666,-0.024940781,0.016865347,0.08069744,-0.08024215,-0.017472593,-0.015107802,-0.06169099,-0.053046495,0.07117725,-0.07211773,-0.008835691,-0.02340242,0.014804799,-0.05288225,0.09901515,-0.09068571,-0.011043262,0.04995122,0.12821087,0.07275304,0.05725371,0.053719874,0.03526943,-0.018572519,0.019765971,-0.09143554,-0.0677717,0.03099232,-0.12763198,0.039021358,0.046069123,0.04856054,0.12101498,0.060670663,-0.04865781,-0.020690432,-0.02833699,0.001908524,-0.013232931,-0.08290198,0.02996481,0.059863064,0.025944196,-0.027852936,0.06482605,0.057697747,0.013289857,0.040440764,0.0110110445,-0.03576252,-0.031422187,0.027486863,0.057929896,0.08087744,0.010470786,-0.03538017,-0.02592923,-0.08130048,0.023326738,0.06347577,0.014753473,-0.012078371,-0.10451345,0.080407545,0.027276225,0.033329908,-0.011276262,0.006538569,-0.009089696,0.03937809,0.033128634,-0.036349308,0.08563178,0.020080125,-0.06958591,-0.034041915,-3.4663483e-08,0.0213504,-0.08274661,-0.030875098,-0.011101513,0.06697177,-0.01191559,0.025187137,0.010063006,-0.041857768,0.0268129,0.036325637,-0.038279604,-0.10119253,0.056100905,-0.007569028,-0.029642612,-0.008799788,0.05357593,-0.047599867,-0.07825046,0.073637,-0.0011237067,-0.00052600494,-0.03519132,-0.043843478,-0.018788697,-0.012725081,0.08273731,0.011382775,-0.05833109,-0.08315765,0.009450812,0.02714221,-0.112285286,0.049590237,0.008568869,-0.024308208,0.07340795,-0.04864623,-0.015729697,-0.008708935,-0.012113879,-0.046255775,-0.018589659,0.08755623,0.016440587,-0.088707104,-0.05255555,0.0022833557,0.0103996955,-0.037789095,0.073597275,0.08439314,0.016512329,-0.00417717,-0.0020784147,-0.043552198,0.012393519,-0.02541095,-0.008599371,0.04508005,-0.12166042,0.0018091784,-0.01815593
amandaalves.nt@gmail.com,-0.095422424,0.018148964,-0.029971456,-0.07334899,-0.12280854,0.038584456,-0.0059359055,0.07898016,-0.079497285,-0.0138048,0.0591184,-0.060448468,-0.025241299,-0.035742477,-0.067110695,0.033817817,0.054270774,-0.02907788,-0.010482038,-0.015008415,0.008303761,0.017069893,-0.0011644504,0.069167025,-0.011688012,0.02828296,0.081503876,0.028333798,-0.04149072,-0.09129458,-0.07005304,0.07090553,0.04144935,-0.030993052,0.008531039,-0.09881061,0.011477407,-0.046396233,0.028927859,-0.0030748395,-0.015087196,-0.016665291,-0.054099973,0.01687606,0.021412821,0.04549287,0.02428585,0.0691761,0.037393853,0.021830086,-0.03111783,-0.030369526,-0.0065924996,-0.031189311,-0.044476956,0.0909993,-0.006265622,0.03222843,0.032023035,0.018996777,-0.0017261186,0.009667628,-0.04340445,0.037966814,0.07715344,-0.007279339,-0.010854002,-0.06660457,-0.11172965,-0.016049316,0.023410203,-0.04941176,-0.026760112,0.04419672,-0.025926959,0.034404732,0.104526184,-0.08712824,0.028972853,-0.071657635,-0.066897616,-0.0010357933,-0.057569254,0.0014409892,0.031618927,0.010341703,0.017901486,0.04179214,0.058125917,-0.075695604,0.05508522,-0.075333096,-0.04868604,0.0006493679,-0.105894625,0.030153064,0.0029418268,-0.041659765,-0.013782447,0.047279958,0.07700696,-0.023534227,0.008019412,-0.054084424,-0.08869048,0.037597045,0.00035980254,0.0409732,0.04151526,0.09345222,-0.05896315,-0.01733841,-0.07069346,-0.104210936,-0.11886572,-0.0085050715,-0.016791126,0.017975071,0.087865196,-0.07366731,0.026854482,-0.023114748,0.013040942,0.0058613895,-0.09590907,-0.1495917,0.008692522,1.2191798e-32,-0.03809362,-0.0430766,-0.050921407,0.005650739,-0.018561527,0.024738377,0.079773106,0.0047631646,-0.0408425,-0.031224282,-0.087580234,0.015788995,-0.068479575,0.0036446955,-0.048805263,0.010334598,0.017116541,-0.0742624,0.008914997,-0.023676274,-0.024968602,0.10328632,-0.003962255,0.06973,0.03920533,0.008899728,0.032348704,-0.021842524,0.021552466,0.037689637,0.042291265,0.0016781033,0.04774609,-0.018505517,-0.013567247,0.008488922,-0.06538403,-0.049465723,0.018168785,-0.012766915,-0.05735313,0.04328271,-0.015547311,-0.03054809,-0.008380749,-0.0073911804,-0.009829431,0.077196054,-0.024244081,-0.028726075,-0.087009564,-0.012179781,-0.040801436,0.10561599,-0.052935228,-0.050044645,-0.028611867,0.02910132,0.04919262,0.010895262,0.05347489,0.11317036,0.0059927306,0.027826253,-0.08189018,-0.014993549,0.00561917,-0.0021393786,0.032431066,0.05097933,-0.010886822,-0.020062054,0.06671203,0.01648907,-0.026955768,0.036911912,-0.009282745,-0.0065459954,-0.037216377,-0.00037788862,-0.0067393244,0.043028932,0.030420719,0.06295722,0.09800146,0.058938015,-0.008637949,0.0062210294,-0.0023618848,0.0662472,0.06828921,0.04240898,0.023943936,-0.041597057,0.07340577,-1.13839685e-32,0.003141488,-0.011396872,0.059482828,0.117684096,0.012349384,-0.023808727,0.011850655,-0.07952084,0.013771383,0.010661574,0.0013958779,-0.042290684,-0.028002007,-0.04729405,0.034914054,0.04271638,-0.00063634105,0.03733366,0.051949784,-0.053985577,-0.021832028,0.0421565,-0.05680183,0.01989445,0.004412954,-0.05008509,-0.033810083,0.044221736,-0.027425868,0.05967287,-0.044843223,-0.05068894,-0.024933612,0.1287528,-0.10785746,0.0154615315,0.079184905,0.078880966,0.046787485,0.03660074,0.02007876,-0.025112802,0.038270824,0.030203164,-0.056044843,-0.1530698,-0.022859842,-0.101579845,0.04834811,0.084767744,0.06433609,0.051614907,0.03350947,-0.06272176,-0.07022927,-0.007938419,0.021663764,-0.053572774,-0.03279451,0.0252103,0.025757123,0.02422659,-0.055100746,0.060529474,0.07614069,0.0029652542,0.02269405,0.049055226,0.006475151,-0.06984409,0.0010905805,0.049483184,0.06941873,-0.038785093,-0.01257494,0.0014825305,-0.02862536,0.08450226,0.115759626,0.050176136,-0.047804557,-0.07839492,0.06537821,0.059026577,0.03147268,0.023240687,-0.021492649,0.035514373,0.027899833,0.06616734,-0.054137863,0.060885772,0.064061105,-0.091331095,-0.06232723,-4.5226205e-08,0.031449597,-0.06477001,-0.016934937,0.030569537,0.104812406,0.021653896,0.038438562,-0.0021085816,-0.046237368,0.037665,-0.0050467667,-0.00016706921,-0.07170554,0.00045109668,-0.06828642,-0.009878422,0.037673377,0.1164622,-0.0010210436,-0.06300214,0.10644247,0.03791246,-0.050786827,0.007309962,-0.058111016,-0.012845362,-0.009037405,0.12898077,-0.011816673,-0.019450182,-0.06562385,-0.0051457533,0.026950212,-0.10619385,0.046243943,-0.049200527,-0.00062636763,0.063006215,-0.07178149,-0.005939069,-0.04353858,-0.055688247,-0.06588077,0.0008167113,0.0961684,-0.029384257,-0.082958564,-0.043060165,0.030928988,-0.052487183,-0.0030953002,0.033098813,0.06356312,0.034311842,0.006989155,-0.027958298,-0.018053668,-0.01102892,-0.04281844,0.036244,0.057734564,-0.083992526,0.0040358882,0.019566718
jhuliocosta2@gmail.com,-0.10705671,0.010338216,-0.024702372,-0.060640473,-0.15194853,0.018234521,-0.0013699568,0.08613525,-0.101542845,-0.0016424166,0.089281544,-0.024560513,-0.0528342,-0.023957746,-0.06265248,0.057815943,0.063679874,-0.032294348,0.02456991,-0.007442073,0.021318786,0.013144244,-0.0123065915,0.063534774,-0.07127636,0.030338876,0.031321302,0.05159536,0.029485902,-0.071754895,-0.012036601,0.087541334,0.032594025,0.0057706055,-0.0064126444,-0.050839145,-0.014599584,-0.094803564,0.047279138,0.026895339,0.010199867,-0.03256006,-0.046210837,-0.034489617,0.07493698,0.007199148,-0.003632851,0.04437177,0.025965048,-0.049492337,-0.07690279,-0.05688631,0.01470898,-0.051976204,-0.033635903,0.024508405,-0.0031353724,0.021680478,-0.0011648915,0.03716592,0.019152295,0.010997551,-0.051789604,0.02640939,0.049451396,0.008235179,-0.0025921918,-0.05919122,-0.065877266,0.01852342,0.07503662,-0.06761309,0.039262883,0.05126402,-0.080132425,0.025602696,0.08273176,-0.01682228,0.05261183,-0.0765946,-0.0202725,0.0038949463,-0.061919402,0.024467507,0.03166504,0.020621963,-0.024406007,0.035309233,0.072680384,-0.05481914,0.009548752,-0.052838888,-0.06105881,0.051829353,-0.13200432,0.018328648,0.016015189,-0.089958414,-0.01720365,0.057120107,0.022879593,-0.014012899,-0.0021280698,-0.009212517,-0.09476416,0.03617472,0.0487831,0.04605322,0.027541561,0.09940909,-0.050692428,-0.025967216,-0.06404425,-0.069857866,-0.096476994,0.0047668745,-0.031253394,0.03943991,0.09423039,-0.06018628,-0.011983213,-0.056822937,0.03176321,-0.043176185,-0.007022319,-0.14541483,-0.0023912527,1.1457364e-32,-0.021848183,-0.06488192,-0.012872461,-0.0010744596,-0.004575674,-0.015079222,0.026024004,-0.053601485,-0.03874447,-0.028452791,-0.090719976,0.010393081,-0.10898103,-0.0027090397,-0.034104224,-0.006009695,-0.019703766,-0.10593693,0.027511248,0.0015584573,0.0041811466,0.015269901,0.025955742,0.03289792,0.06475452,0.020230789,-0.0063442234,-0.036599524,0.022229666,0.06494606,0.031199561,0.0133355465,0.017231846,-0.0128458105,-0.047851004,-0.004081217,-0.08498596,-0.077671744,-0.043463662,0.028658835,-0.024421921,-0.03274195,-0.029143881,-0.027087675,0.030339452,-0.014316985,0.000164317,0.078545235,0.022558367,0.019503586,-0.11009228,0.0050001536,-0.08425382,0.035292745,-0.08124331,-0.013228392,-0.04742562,0.035359375,0.06752175,-0.00097333535,-0.0121889645,0.03499413,0.0023169967,0.038067643,-0.017712286,-0.07074904,0.01598353,-0.018166918,0.07652279,0.0030608918,0.013258042,-0.092897676,0.0230943,0.064905696,-0.024353245,0.0237293,0.028609984,0.018565523,-0.06377999,0.025755696,0.0013708604,0.05834538,0.022414654,0.019783832,0.16475776,0.09368665,0.018666223,0.0007369439,0.046496406,0.10449942,0.06140883,0.054585643,0.02548413,-0.0003812713,0.010963494,-1.0707692e-32,0.014003913,-0.010409721,0.040441193,0.0924685,-0.010276136,-0.033283524,0.020461647,-0.0595547,0.037469942,0.05922564,0.012037596,-0.038056068,0.038595445,-0.08623693,0.05594687,0.03843206,0.028983872,0.017979011,0.04334028,-0.037703775,0.023475884,0.05820719,-0.09433397,0.005566125,-0.0027566592,-0.049520824,-0.024023453,0.040490333,-0.0835551,0.04349537,-0.032292843,-0.059182405,-0.026016898,0.099739134,-0.050330274,-0.002197521,0.07096008,0.0645621,0.007701121,0.005562687,0.04014169,-0.0076600513,0.045642294,-0.0027918192,-0.043921918,-0.11912433,-0.0021802387,-0.0677376,-0.0038484791,0.050560296,0.12584187,0.078918464,0.028095545,-0.08060859,0.015216491,-0.019238448,0.034941964,-0.07658094,-0.031357694,0.07021725,0.10940309,-0.020555394,-0.101146005,0.05316114,0.0753978,-0.018251121,-0.00017208523,0.036206145,0.03809103,-0.030721977,-0.04616897,0.02269381,0.03513595,-0.034082513,-0.0446012,-0.015579531,-0.112241715,0.09464693,0.08255446,0.0054165926,-0.018248312,-0.093882404,0.04036573,0.046222895,0.04133213,0.021972455,-0.02132104,0.016377065,0.06805492,0.049647544,-0.001318543,0.059937194,0.02632081,-0.048430722,-0.06820815,-4.5349932e-08,0.027285688,-0.072664514,-0.019783026,0.027860448,0.11279706,-0.02654586,0.055705205,-0.032128934,-0.046434935,0.015386457,-0.0069796047,0.03267831,-0.037373602,0.047171216,-0.043492492,0.008666559,0.0078196,0.11964138,-0.016374344,-0.06515385,0.12362419,-0.021210955,-0.0694426,0.02140956,-0.011202335,-0.03219465,-0.00779273,0.14330134,-0.019394822,-0.049964607,-0.068090655,0.016431846,0.04544162,-0.08238674,0.073621936,-0.008337243,0.045868363,0.065426365,-0.036990188,-0.011067137,-0.023151888,-0.022380877,0.029604062,-0.011001196,0.0279134,-0.0008001845,-0.069818966,-0.033963047,0.0028058717,-0.046906672,-0.00019990362,0.0052269176,0.06427865,0.059280578,-0.0029890928,-0.009031693,0.01722448,-0.020072866,-0.08678685,-0.0031707855,0.047111,-0.007596065,0.03900712,-0.002179184
davilimafotografias@gmail.com,-0.07574585,0.04729497,-0.008426703,-0.07749391,-0.12930745,-0.0017143636,0.03858879,0.09937429,-0.016266141,0.043394618,0.04879443,-0.044477586,-0.028998604,-0.027094522,-0.11769195,0.016626168,-0.024721324,0.0009671648,0.07606653,-0.044569142,-0.027753068,-0.012381418,-0.0170102,0.05892269,-0.054648325,0.006892104,-0.017340992,0.02766467,-0.037925575,-0.0822021,-0.07054262,-0.0022890698,-0.045947615,0.00892126,-0.017334307,-0.00995385,-0.003413907,-0.0923692,-0.0072117373,0.020595826,0.010503084,-0.0021989811,-0.06390206,0.013613459,-0.0117655415,0.10160456,0.018468298,0.07175179,-0.030783676,0.008135681,-0.08503462,-0.06380933,-0.011150543,-0.052886184,-0.033238977,0.08808764,0.024230279,0.05312653,0.015707491,-0.017668916,0.046873495,0.0062363935,-0.091809295,0.024133272,-0.0023247534,0.029850425,-0.02428866,-0.028020568,-0.10886044,0.0014146753,0.08140822,-0.05732035,0.012392718,0.0011327246,0.0029849387,0.054972526,0.042858206,-0.04148732,0.02667243,-0.058726955,-0.073127516,-0.014219218,-0.0483277,0.002457944,0.025310265,0.020386348,0.005469307,0.0061949813,0.09556722,-0.031096645,0.04587297,-0.014684621,-0.0562672,0.021480765,-0.11222904,0.049933154,0.0071353675,0.0035715625,-0.03209175,0.056151167,0.034468163,0.057312343,0.0052348343,0.008598557,-0.04887181,0.056255445,0.0018697253,-0.013330915,-0.018991292,0.061119646,-0.08420595,0.0006539632,-0.07583798,-0.12066174,-0.060145494,0.018885957,-0.075300716,0.020477708,0.08615246,-0.09226291,0.052206527,-0.065037094,-0.029326983,0.0007455678,-0.0774594,-0.10169822,0.017087912,7.685802e-33,-0.047932345,0.022081248,0.015482321,-0.054799963,-0.010531498,-0.0071792607,0.031363007,-0.009903337,-0.034894664,0.039410926,-0.10794623,0.012130176,-0.10985819,-0.008140344,-0.0071526254,-0.04228361,0.075065166,-0.031872824,0.049173336,0.008719684,0.016152574,0.034012746,0.0127513725,0.0022659379,0.012582835,0.048508205,-0.0068836426,-0.041285064,0.06296669,0.053583372,0.013115993,-0.02516125,0.014907831,-0.032200214,-0.088861056,-0.05602378,-0.06632172,-0.06733781,-0.007795071,0.0034372464,-0.02453329,0.014443961,-0.0012415797,-0.009343765,0.004528935,-0.0247078,0.03320727,0.06483876,0.03295032,-0.027439086,-0.09173334,-0.060224347,-0.020678278,0.096440025,-0.042771813,-0.045574747,-0.008892916,0.041423135,0.050441198,0.013478771,0.06524452,0.058281723,0.06455489,0.0036552288,-0.016597103,0.00969228,0.07575099,0.021303874,0.029717099,0.018286437,-0.03145674,-0.055693567,0.063077554,0.019082136,-0.036439177,0.053034507,0.044416845,-0.047569223,-0.010703019,-0.015153552,-0.056904472,0.012527328,-0.05321175,0.04310358,0.10181527,0.08827038,0.027991187,0.028531503,0.027901499,0.13987355,0.028053451,0.04563644,0.039267898,0.0017657654,0.00066813274,-7.369885e-33,0.013930798,-0.061251607,0.018409485,0.07114567,0.013923161,0.003769377,-0.01712795,-0.020874714,-0.0055788034,7.0067836e-05,-0.06314001,-0.05412253,0.005730964,-0.022189958,0.011761167,0.026990583,0.012465597,0.044432383,0.06553016,-0.047771335,0.019204171,0.06950577,-0.048341483,0.042391222,0.018665519,-0.040671922,0.0028291475,0.046668768,-0.104781635,0.046692457,-0.010010888,-0.061284605,0.0038034364,0.11718463,-0.111726634,0.036187634,0.091889694,0.09374417,0.0500757,0.017416516,0.049438495,-0.02090778,0.05102137,0.05194779,-0.041268025,-0.06399727,-0.08083658,-0.04381756,0.029986026,0.06384901,0.09087973,0.058954284,0.05662298,-0.107935525,-0.04507633,0.015052879,-0.0340613,-0.072592914,-0.02260565,0.041228898,0.048235502,0.0146067375,-0.10547258,0.08777776,0.08258041,-0.038049217,0.031930782,0.012005886,-0.046697676,-0.022169814,-0.045956537,0.047436416,0.02871554,-0.02395871,-0.005924501,0.061953,-0.039376814,0.056950938,0.14611879,0.048260413,-0.04235628,-0.036092307,0.05967613,0.028126888,0.010998425,0.014261225,-0.014106477,0.07732411,0.047419,0.016814256,0.02632117,0.04136946,0.08329738,-0.092695065,-0.037276197,-3.6665032e-08,0.10493849,-0.054224174,0.04148142,0.020349082,0.0803549,-0.035595424,0.036022346,0.0033829352,-0.093220256,0.018752068,-0.017280497,-0.041937996,-0.043420844,0.035752755,-0.05438454,0.007406222,0.040134862,0.108737454,-0.029660946,-0.070872605,0.100478806,0.033281118,-0.012554987,-0.033710077,-0.022231746,-0.046860404,-0.0074517783,0.09271446,-0.08024602,-0.039371226,-0.043386143,-0.008378835,0.046957254,-0.061355706,0.10421235,-0.0037238684,-0.07871373,0.07943037,-0.07021522,-0.025225552,-0.05348068,-0.013256726,-0.0062814145,-0.022641586,0.033182446,0.046607867,-0.095795654,-0.037975993,0.027383057,0.03996699,-0.012550882,0.027858846,0.080959514,0.031040553,-0.047871567,0.025140263,0.011417432,0.03617204,-0.076225296,-0.00069741067,0.051633574,-0.06999516,0.0039235703,-0.016026344
caiogoularto@gmail.com,-0.09123901,0.07973467,-0.01937276,-0.07804983,-0.06715331,0.020205306,-0.021496706,0.12862673,-0.050126232,-0.070326895,0.056537192,-0.04060275,0.019659657,-0.042228498,-0.10249322,0.01014405,0.030213382,-0.043455046,0.07506688,0.0022991071,-0.057503693,0.00062111474,-0.017207203,0.026917102,-0.083216615,0.05173613,0.09010765,-0.014943651,7.902112e-05,-0.08467854,-0.016581383,0.069129005,0.002386004,0.015526779,0.093887,-0.05570756,-0.015026635,-0.10336652,0.055375632,-0.0061683017,-0.008229126,-0.0024441292,0.0048924615,-0.0065822904,0.030158123,0.0312637,-0.0029743824,0.09352349,0.039099265,0.01670951,-0.116155386,-0.043058872,0.00978881,-0.026767507,-0.010220454,0.053731307,0.0004351645,0.03826904,0.027182804,-0.009225718,0.10392244,0.009027858,-0.08066309,0.05556274,0.043248832,0.024238056,-0.027254978,-0.044435088,-0.074726515,0.0002153174,0.086441725,-0.012429323,-0.034547787,-0.026701285,-0.009778236,0.033605065,0.06346232,-0.07347535,0.020048069,-0.015366799,-0.083852276,-0.03388626,-0.05232585,-0.013594896,-0.0057791537,0.0058203414,0.041924465,0.036915302,0.06967779,-0.050049733,0.03833051,-0.0689014,-0.11363173,-0.012461678,-0.098546006,0.013802557,0.03574975,0.036105722,0.01467895,0.0607375,0.03219591,0.038033623,0.0403112,-0.047005855,-0.059480056,0.08348507,-0.032830223,0.040835295,0.014531363,0.043481294,-0.076854564,0.0106656365,-0.07063302,-0.10471565,-0.033668447,-0.009978395,0.023068858,0.030010186,0.10086519,-0.06180254,0.063714065,-0.008426678,-0.08884352,-0.02876403,-0.108323365,-0.09756419,-0.014563467,5.231832e-33,-0.00597867,0.00023595817,-0.028137544,-0.005512985,0.053430717,-0.022363491,0.03906959,-0.0026571683,-0.036177043,0.044881117,-0.04510833,0.0049258554,-0.08243255,-0.03596119,-0.054448348,-0.001781604,0.011840278,-0.028052494,-0.04691784,-0.0037299993,-0.006002532,0.006315936,0.012883593,0.09611213,-0.005202202,0.0147218965,0.04960572,0.03549804,0.05067104,0.049070477,0.06398649,-0.01995018,0.028606143,0.023876416,-0.044005726,-0.0031013796,-0.09486079,-0.09141608,0.020156601,0.022546189,-0.044124346,0.0353306,0.03371522,0.008024229,-0.013335806,-0.017129464,-0.0121583175,0.020483686,0.025219698,-0.015301189,-0.09641355,-0.0010356766,-0.03407977,0.06985205,-0.04775934,-0.07620648,-0.049042642,0.04294658,0.0772099,0.06121261,0.039210353,0.09657462,0.04803511,0.06423026,-0.011780396,-0.027303245,0.022391852,-0.03332507,0.017839184,-0.035932474,0.011305028,-0.040246658,0.07559502,0.03168293,-0.0010810819,0.04507905,-0.025991146,-0.035288304,-0.07208095,0.002519553,-0.056253735,0.043385893,-0.004982524,0.019339217,0.06566602,0.040858585,0.014245414,-0.033309314,-0.03908358,0.0721109,-0.010629329,0.030155906,-0.0022038496,0.039419718,0.056711905,-5.5271406e-33,-0.01208344,-0.06520621,0.049836792,0.04867264,-0.031332895,-0.021841584,0.010496535,0.056340188,0.013091089,0.023432301,-0.023619933,-0.04185148,0.023624524,-0.006611365,0.009381594,0.10989837,0.072822616,-0.029302778,-0.024793394,-0.04163892,0.06591301,0.09910243,-0.063522086,0.019299686,-0.02243819,0.03759163,-0.04978785,0.010468214,-0.08455016,0.026549349,-0.06053701,-0.055589758,-0.051498882,0.14351267,-0.08760417,-0.019091565,0.09753657,0.04492511,0.06040597,0.0028126992,0.00984747,0.0088014975,0.020510053,0.10655596,-0.044747468,-0.13211131,0.03184953,-0.1347562,0.11953035,0.042139806,0.04059557,0.055479407,0.052275203,-0.023943618,-0.033922985,-0.018754296,0.019113628,-0.05248235,-0.05982616,0.025867058,0.11364425,0.0674739,-0.08787356,0.07144178,0.09063086,0.032198787,0.020511366,-0.030803867,-0.030550014,-0.009897832,-0.012625292,0.08367968,0.06444039,0.028386643,-0.012133766,0.02429933,-0.01457332,0.04514287,0.047731303,0.04003697,0.026583657,-0.12548885,0.051291786,0.069994405,0.04944843,0.029110242,-0.0099824285,0.01714469,0.029698176,0.0142137855,-0.04327684,0.069229566,-0.019101752,-0.08536186,-0.018411817,-3.5837196e-08,0.009455634,-0.061396293,-0.043364577,-0.035087883,0.07668229,-0.068406865,0.02266968,-0.0137755545,-0.024510007,0.023686845,-0.048434462,-0.039870832,-0.04524639,0.03591385,-0.050415225,-0.038619082,-0.02064244,0.07599696,-0.02704784,-0.071326286,0.08019904,-0.03091638,0.04599914,-0.023687808,-0.06655211,-0.009703855,-0.006987233,0.03984978,-0.034969933,-0.024879353,-0.07023816,0.028721955,0.04479511,-0.09479397,0.050205626,-0.030779177,0.0075644115,0.039347813,-0.09424921,-0.04543237,-0.014770384,-0.0688884,-0.046265356,-0.010228872,0.0948633,-0.0075975405,-0.034978256,0.013702911,0.013021641,0.03566537,-0.017109321,-0.021497294,0.06431918,0.020205645,-0.053334348,-0.028636483,0.007073715,0.062128615,-0.04452761,0.01357351,0.019548377,-0.0832109,-0.025815327,-0.028790856
gabrielleacoutinho@hotmail.com,-0.11430888,0.022996088,0.0023518878,-0.039472375,-0.1153413,0.016938997,-0.017372219,0.120473415,-0.10511677,0.011688174,0.049885564,-0.021216445,-0.05553023,-0.043338697,-0.08346819,0.049134403,0.07849714,-0.03489738,0.032109614,-0.047742955,-0.0019039892,-0.012756182,-0.012295588,0.04845411,-0.08287523,0.021097634,0.026087232,0.08373453,0.031370822,-0.08432874,-0.03143979,0.068762526,0.031242289,-0.011238438,0.01919969,-0.04910801,0.027777068,-0.08385197,0.024463108,-0.013661291,0.028892402,-0.028771244,-0.060454465,-0.029346444,0.057561398,0.02794446,0.0019751308,0.061955832,0.067311354,-0.04253126,-0.07086281,-0.060360283,0.04333828,-0.06445252,-0.026354028,0.03984424,-0.013614011,0.038742695,0.003705991,-0.004309751,0.00010487367,0.009167138,-0.06073328,0.019561771,0.036061022,-0.00037199093,-0.04575344,-0.06111638,-0.05151029,0.029356949,0.043342426,-0.039972447,0.066876285,0.027713686,-0.068330385,0.032975357,0.09817314,-0.018563107,0.01567946,-0.057010494,-0.03149778,-0.0047909087,-0.058818445,0.016084787,0.05554505,0.0060573523,0.0041721747,0.029357053,0.09591819,-0.017002035,0.009193709,-0.051240783,-0.05772217,0.03485258,-0.143065,0.013921995,0.044872228,-0.09247092,-0.0042782878,0.06438099,0.011632191,0.006868989,0.028355008,-0.0073537803,-0.047101974,0.06728805,-0.015443076,0.0553331,0.01540113,0.10028344,-0.074290924,-0.028652854,-0.08510063,-0.06659119,-0.076202996,-0.013304865,-0.04513617,0.021870129,0.07285021,-0.07373349,-0.012265326,-0.039446447,0.0388668,-0.04990442,-0.040180136,-0.1650103,0.0181686,7.037187e-33,-0.020747952,-0.016268032,-0.020851167,-0.012000037,-0.023581116,0.0051260097,0.019250212,-0.030134138,-0.021871217,-0.0028376908,-0.07442799,-0.003220187,-0.09250332,-0.0005707395,-0.032873098,-0.017728515,-0.021244096,-0.09780564,-0.00022776033,0.004673036,-0.016678184,0.00991657,0.012355542,0.02578806,0.07541845,0.03458963,0.039006874,-0.010337933,0.032222208,0.061775662,0.010380166,0.03758818,0.020511761,-0.003154801,-0.060557626,0.017738063,-0.10310979,-0.103088446,-0.032883905,0.041518494,-0.013994651,-0.042610742,-0.01854363,-0.04128041,0.012359365,-0.008562606,0.01688898,0.075995974,0.06490283,0.014943005,-0.11210904,-0.0033417966,-0.07891563,0.062301356,-0.10424734,-0.014087534,-0.03456931,0.030792251,0.06920527,-0.02045064,-0.012350542,0.027733767,0.0066812434,0.024013305,-0.030127533,-0.04196842,0.021890273,-0.032557044,0.031887572,0.022806508,0.010000549,-0.07736262,0.05382789,0.06373323,0.0011275685,0.051747434,0.040655613,0.016621416,-0.04286642,0.027873276,-0.011342995,0.0779832,-0.00092776737,0.01783031,0.17193708,0.07185038,0.023466237,0.027992092,0.016406944,0.09374966,0.06299956,0.043810558,-0.020405527,0.028012523,0.018550577,-7.1820824e-33,0.01933274,0.009962559,0.0877217,0.09758562,0.0013094206,-0.0021608544,0.027158631,-0.036635067,0.025235794,0.08116115,-0.010790345,-0.04539632,0.040545583,-0.051467445,0.012515938,0.021837624,0.022876393,-0.002186496,0.059842102,-0.047610983,0.0054832166,0.085473835,-0.096144855,-0.0120940935,0.013687241,-0.044273492,-0.053604923,0.06847742,-0.10716787,0.032821286,-0.050528362,-0.019954192,-0.03845676,0.09958564,-0.029808596,0.0010158736,0.010604845,0.06441016,0.030207096,0.015096286,0.024276478,-0.024019957,0.08446396,-0.013748978,-0.02241871,-0.12440734,0.013729045,-0.08784253,0.0059995656,0.06031338,0.122546524,0.087490104,0.04673744,-0.019686813,-0.005845593,0.0062203715,0.027017044,-0.07428336,-0.010789048,0.072061196,0.13331467,0.017309377,-0.083174035,0.05806957,0.06781672,-0.04185717,0.033193298,-0.0016781691,0.0030764707,-0.046665963,-0.048279226,0.03633689,0.0837547,-0.015277868,-0.015658455,-0.020384463,-0.11057745,0.07235427,0.09388267,0.00085468986,0.007201043,-0.08518333,0.07877475,0.04604568,0.026778297,0.0039834213,-0.039965786,0.019018272,0.06595274,0.04679479,0.00835398,0.061842952,0.011740036,-0.03800161,-0.039292008,-3.7586304e-08,0.052610222,-0.030535115,-0.03897501,0.010912925,0.08769766,-0.061550565,0.010136193,-0.043357935,-0.07449452,0.022696178,-0.02391874,0.0092109665,-0.053277723,0.054911077,-0.0717964,-0.00566549,-0.0143485945,0.08218746,-0.014797171,-0.05933137,0.09176447,-0.011165115,-0.054149393,0.007395454,-0.005648514,-0.015965974,-0.0026866684,0.11652171,-0.0285552,-0.0417024,-0.08249494,0.03880817,0.054273143,-0.072639756,0.066710725,-0.021765614,-0.028144522,0.055217795,-0.040382117,-0.008272379,0.01278883,-0.02739065,0.021618206,-0.02275917,0.028486924,0.029123984,-0.11077027,-0.046116322,-0.024537787,-0.008537701,-0.0067040804,0.0041662687,0.056939512,0.04048043,-0.019642994,-0.012112287,0.0034581092,-0.008338058,-0.087511,-0.013082059,0.019179802,-0.05134501,0.04940511,0.018363945
juanprado781@hotmail.com,-0.097705096,0.08701922,-0.01831619,-0.08533131,-0.06484753,0.012111985,-0.02191323,0.11517163,-0.052868195,-0.06952575,0.07998679,-0.044372335,0.02545888,-0.04148317,-0.119749494,0.009692945,0.029662542,-0.040592164,0.08103752,0.00050614326,-0.05349266,-0.0024553705,-0.023290932,0.030092128,-0.08543067,0.058801178,0.07437718,-0.013675058,-0.0051948517,-0.08422578,-0.011100894,0.08079769,-0.013690737,0.013816673,0.10714345,-0.057503875,-0.019175407,-0.0939021,0.05924396,-0.0015144573,-0.0099842455,-0.016821073,-3.037375e-05,-0.017365117,0.023125725,0.044666335,-0.012730415,0.09499549,0.03974782,0.009899904,-0.11192503,-0.046713475,0.018873032,-0.025870172,-0.0063279443,0.043368287,-4.079445e-05,0.0396932,0.020139862,-0.0092328945,0.10669285,0.013829591,-0.08346387,0.05737823,0.04240403,0.039529238,-0.03217698,-0.05569927,-0.056386176,0.012068,0.10876131,-0.011284299,-0.031958163,-0.028072089,-0.009509257,0.032257512,0.06026274,-0.07612002,0.035177242,-0.01639882,-0.0904555,-0.03780134,-0.050540403,-0.0102335075,0.0054281536,0.012023683,0.028237395,0.029581314,0.062028587,-0.04650128,0.04503755,-0.072980456,-0.10384859,0.0029567922,-0.09640933,0.013599962,0.034045346,0.040975746,0.00949653,0.057169016,0.028033044,0.028323023,0.027430123,-0.04241306,-0.044247814,0.07542377,-0.022600211,0.03634037,0.012689757,0.038229726,-0.06299267,0.018155232,-0.055654157,-0.104284346,-0.04096295,-0.0020535602,0.026978336,0.040841922,0.08146578,-0.07162009,0.06740924,0.005473451,-0.086506955,-0.015280407,-0.101208344,-0.10337841,-0.02220581,5.1118958e-33,-0.0041802716,-0.002316398,-0.01694496,-0.022652458,0.04457469,-0.028405208,0.0358299,0.0028344116,-0.01848946,0.055631086,-0.032674115,0.0072510084,-0.08058553,-0.04602608,-0.05917213,0.0059362813,0.0148848295,-0.030480074,-0.049524385,-0.009063747,0.005511703,0.00025468518,0.013876996,0.08775539,-0.009748387,0.017154248,0.03070749,0.031993866,0.045590192,0.054966148,0.05796573,-0.022740846,0.036452074,0.02814032,-0.045621283,0.005220927,-0.09051944,-0.08959068,0.0053363596,0.028172271,-0.046184715,0.016104637,0.040080894,0.0015205856,-0.0034318028,-0.026306339,-0.015478284,0.016061315,0.02351433,-0.002584394,-0.08313998,-0.0022928435,-0.028166885,0.0764292,-0.05209695,-0.083482526,-0.04433665,0.039514955,0.0829495,0.061520293,0.05138249,0.08485091,0.038831364,0.0719493,-0.025776345,-0.02751477,0.024340669,-0.037583295,0.02068351,-0.04036803,0.012783564,-0.040367216,0.07168996,0.03732396,-0.0024618164,0.031966824,-0.022876905,-0.02194996,-0.073762976,-0.0060627093,-0.047655106,0.027438423,-0.0017245237,0.015378582,0.055059567,0.04252608,0.011419516,-0.025223903,-0.032339893,0.077009745,-0.0030822002,0.023160538,-0.0060543288,0.041221384,0.050321754,-5.452335e-33,-0.026243139,-0.053514898,0.05494469,0.033774048,-0.050404646,-0.024491731,0.017526198,0.06450521,0.011690401,0.023883456,-0.013937766,-0.03793207,0.010475767,-0.012521145,0.0069434675,0.115551844,0.07297293,-0.018394815,-0.036435243,-0.029998487,0.07003178,0.103567034,-0.06840876,0.02299436,-0.027002225,0.050996367,-0.046812404,0.002112242,-0.084325746,0.034018073,-0.04983556,-0.03304149,-0.047515932,0.13617817,-0.08755535,-0.023906058,0.100030914,0.04079302,0.053928718,-0.009397045,0.014761298,0.018141095,0.018329863,0.11824222,-0.052519687,-0.123150975,0.0327804,-0.13698468,0.13307905,0.049700674,0.039752435,0.0560754,0.054334547,-0.018734314,-0.033900835,-0.023716204,0.010750593,-0.06701212,-0.058748767,0.028071877,0.12247675,0.057898212,-0.09732078,0.06493055,0.095064424,0.033932954,0.019888224,-0.003933841,-0.008659007,-0.017232683,-0.014240924,0.09054497,0.056437362,0.0045568845,-0.013184907,0.027825836,-0.023546593,0.047081124,0.033998296,0.039121863,0.03139176,-0.13336062,0.05590529,0.07449772,0.053593233,0.030938432,-0.014511748,0.017646551,0.016550386,0.020469138,-0.04366801,0.06251667,-0.020302542,-0.0818423,-0.016189182,-3.585361e-08,0.0073782215,-0.06507449,-0.036498055,-0.045328803,0.07404564,-0.072128646,0.027778773,-0.02143584,-0.030020168,0.017200341,-0.05907888,-0.02715906,-0.048101522,0.025829474,-0.038964923,-0.055348646,-0.039287224,0.06667245,-0.031098131,-0.072115794,0.073449366,-0.03447696,0.040583234,-0.019391352,-0.060491767,-0.0044154683,-0.005103154,0.041180488,-0.025663393,-0.017757442,-0.0666576,0.024689335,0.044704705,-0.0903963,0.045603085,-0.021921061,0.013643321,0.04826176,-0.09790173,-0.049818154,-0.033498667,-0.06415395,-0.045698203,-0.0051443037,0.09538586,-0.02060688,-0.030494662,0.007907809,0.008843913,0.025464587,-0.015979456,-0.010899314,0.05856271,0.024237059,-0.05708357,-0.0372279,0.007870177,0.07065687,-0.04288367,0.009426572,0.039515488,-0.086509205,-0.019810269,-0.025660807
thiago.russi@gmail.com,-0.07574585,0.04729497,-0.008426703,-0.07749391,-0.12930745,-0.0017143636,0.03858879,0.09937429,-0.016266141,0.043394618,0.04879443,-0.044477586,-0.028998604,-0.027094522,-0.11769195,0.016626168,-0.024721324,0.0009671648,0.07606653,-0.044569142,-0.027753068,-0.012381418,-0.0170102,0.05892269,-0.054648325,0.006892104,-0.017340992,0.02766467,-0.037925575,-0.0822021,-0.07054262,-0.0022890698,-0.045947615,0.00892126,-0.017334307,-0.00995385,-0.003413907,-0.0923692,-0.0072117373,0.020595826,0.010503084,-0.0021989811,-0.06390206,0.013613459,-0.0117655415,0.10160456,0.018468298,0.07175179,-0.030783676,0.008135681,-0.08503462,-0.06380933,-0.011150543,-0.052886184,-0.033238977,0.08808764,0.024230279,0.05312653,0.015707491,-0.017668916,0.046873495,0.0062363935,-0.091809295,0.024133272,-0.0023247534,0.029850425,-0.02428866,-0.028020568,-0.10886044,0.0014146753,0.08140822,-0.05732035,0.012392718,0.0011327246,0.0029849387,0.054972526,0.042858206,-0.04148732,0.02667243,-0.058726955,-0.073127516,-0.014219218,-0.0483277,0.002457944,0.025310265,0.020386348,0.005469307,0.0061949813,0.09556722,-0.031096645,0.04587297,-0.014684621,-0.0562672,0.021480765,-0.11222904,0.049933154,0.0071353675,0.0035715625,-0.03209175,0.056151167,0.034468163,0.057312343,0.0052348343,0.008598557,-0.04887181,0.056255445,0.0018697253,-0.013330915,-0.018991292,0.061119646,-0.08420595,0.0006539632,-0.07583798,-0.12066174,-0.060145494,0.018885957,-0.075300716,0.020477708,0.08615246,-0.09226291,0.052206527,-0.065037094,-0.029326983,0.0007455678,-0.0774594,-0.10169822,0.017087912,7.685802e-33,-0.047932345,0.022081248,0.015482321,-0.054799963,-0.010531498,-0.0071792607,0.031363007,-0.009903337,-0.034894664,0.039410926,-0.10794623,0.012130176,-0.10985819,-0.008140344,-0.0071526254,-0.04228361,0.075065166,-0.031872824,0.049173336,0.008719684,0.016152574,0.034012746,0.0127513725,0.0022659379,0.012582835,0.048508205,-0.0068836426,-0.041285064,0.06296669,0.053583372,0.013115993,-0.02516125,0.014907831,-0.032200214,-0.088861056,-0.05602378,-0.06632172,-0.06733781,-0.007795071,0.0034372464,-0.02453329,0.014443961,-0.0012415797,-0.009343765,0.004528935,-0.0247078,0.03320727,0.06483876,0.03295032,-0.027439086,-0.09173334,-0.060224347,-0.020678278,0.096440025,-0.042771813,-0.045574747,-0.008892916,0.041423135,0.050441198,0.013478771,0.06524452,0.058281723,0.06455489,0.0036552288,-0.016597103,0.00969228,0.07575099,0.021303874,0.029717099,0.018286437,-0.03145674,-0.055693567,0.063077554,0.019082136,-0.036439177,0.053034507,0.044416845,-0.047569223,-0.010703019,-0.015153552,-0.056904472,0.012527328,-0.05321175,0.04310358,0.10181527,0.08827038,0.027991187,0.028531503,0.027901499,0.13987355,0.028053451,0.04563644,0.039267898,0.0017657654,0.00066813274,-7.369885e-33,0.013930798,-0.061251607,0.018409485,0.07114567,0.013923161,0.003769377,-0.01712795,-0.020874714,-0.0055788034,7.0067836e-05,-0.06314001,-0.05412253,0.005730964,-0.022189958,0.011761167,0.026990583,0.012465597,0.044432383,0.06553016,-0.047771335,0.019204171,0.06950577,-0.048341483,0.042391222,0.018665519,-0.040671922,0.0028291475,0.046668768,-0.104781635,0.046692457,-0.010010888,-0.061284605,0.0038034364,0.11718463,-0.111726634,0.036187634,0.091889694,0.09374417,0.0500757,0.017416516,0.049438495,-0.02090778,0.05102137,0.05194779,-0.041268025,-0.06399727,-0.08083658,-0.04381756,0.029986026,0.06384901,0.09087973,0.058954284,0.05662298,-0.107935525,-0.04507633,0.015052879,-0.0340613,-0.072592914,-0.02260565,0.041228898,0.048235502,0.0146067375,-0.10547258,0.08777776,0.08258041,-0.038049217,0.031930782,0.012005886,-0.046697676,-0.022169814,-0.045956537,0.047436416,0.02871554,-0.02395871,-0.005924501,0.061953,-0.039376814,0.056950938,0.14611879,0.048260413,-0.04235628,-0.036092307,0.05967613,0.028126888,0.010998425,0.014261225,-0.014106477,0.07732411,0.047419,0.016814256,0.02632117,0.04136946,0.08329738,-0.092695065,-0.037276197,-3.6665032e-08,0.10493849,-0.054224174,0.04148142,0.020349082,0.0803549,-0.035595424,0.036022346,0.0033829352,-0.093220256,0.018752068,-0.017280497,-0.041937996,-0.043420844,0.035752755,-0.05438454,0.007406222,0.040134862,0.108737454,-0.029660946,-0.070872605,0.100478806,0.033281118,-0.012554987,-0.033710077,-0.022231746,-0.046860404,-0.0074517783,0.09271446,-0.08024602,-0.039371226,-0.043386143,-0.008378835,0.046957254,-0.061355706,0.10421235,-0.0037238684,-0.07871373,0.07943037,-0.07021522,-0.025225552,-0.05348068,-0.013256726,-0.0062814145,-0.022641586,0.033182446,0.046607867,-0.095795654,-0.037975993,0.027383057,0.03996699,-0.012550882,0.027858846,0.080959514,0.031040553,-0.047871567,0.025140263,0.011417432,0.03617204,-0.076225296,-0.00069741067,0.051633574,-0.06999516,0.0039235703,-0.016026344
luisfelipefpereira@gmail.com,-0.034405842,0.06206428,-0.028639857,-0.07094038,-0.048657417,0.03386615,-0.029334726,0.08211077,-0.08867913,0.0009530299,0.07388021,-0.052156147,-0.04931864,-0.0139016835,-0.033021703,-0.021044258,0.0611055,0.0039089443,0.048596065,-0.018077593,0.0015615945,-0.03230376,-0.037954334,0.05701112,-0.028636431,0.060923606,0.09545258,-0.022206588,-0.043988105,-0.065307304,-0.07903647,0.071803704,0.070692964,-0.02468841,0.015835624,-0.035567623,0.073562704,-0.09048888,0.081929654,0.01541067,-0.033560302,0.0015062719,-0.048738234,-0.048390493,0.03909185,0.017415298,0.050371774,0.10656423,0.03746589,0.029034192,-0.049025558,0.040739965,0.019926544,-0.10213682,-0.02400195,0.03727281,0.009732836,0.051993374,0.07634301,0.02672773,0.07456426,-0.036410104,-0.08494863,0.08963784,0.042726938,-0.043816373,-0.06500535,0.008207748,-0.1339354,-0.015692538,0.044917163,-0.046665803,0.038714807,-0.031779103,-0.01945145,0.07795887,0.047187757,-0.052463394,0.02668058,-0.02100333,-0.036173373,-0.057721414,-0.06846334,0.0019734392,-0.039859258,0.004140605,0.07494477,0.0056654694,0.08098572,-0.028727546,-0.0019045435,-0.021101583,-0.10060648,0.04090932,-0.06654656,0.0013853264,0.012617711,-0.008323527,0.010149241,0.033122,0.030554233,0.04108987,0.039854843,-0.0810039,-0.07958637,0.030893385,-0.05134215,0.023139283,0.087744474,0.09332306,-0.06726858,-0.031077815,-0.087813474,-0.08306248,-0.058506243,-0.022689056,-0.0097631505,-0.043825638,-0.004608571,-0.040986687,0.045707844,-0.044445172,0.009604068,-0.03267521,-0.0491335,-0.10502946,0.10550601,3.0016208e-33,-0.008025825,0.0034348187,-0.051778905,-0.02884439,0.079928905,0.020315723,0.02992652,0.0052900286,-0.070438854,0.0259538,-0.013164392,0.054419316,-0.10824025,0.022847377,-0.0015169443,0.07022123,0.02805355,-0.057633635,-0.005592014,-0.012827365,-0.036994964,0.031349324,-0.0027445643,0.052709058,-0.0033374438,0.04281879,0.0448903,-0.018333988,0.013115139,0.047207616,0.055285953,-0.021849079,-0.007378315,-0.0009206255,-0.10043221,-0.05629351,-0.0558928,-0.04534841,0.008886617,-0.036697756,-0.059839368,0.017512167,0.0042254063,0.0072848652,-0.009217103,0.0012290427,0.04915355,0.045098323,0.02822223,0.070177354,-0.10743089,0.0007239527,-0.05746239,0.09739882,-0.026236964,-0.122667514,-0.047838967,0.07611449,0.026507806,-0.0052257925,0.035421014,0.07852067,-0.0075659407,0.02728711,-0.070115216,-0.01639105,0.029747829,0.020093897,0.054617938,-0.0019075689,0.021137852,-0.028184421,0.061398685,0.017071383,-0.03283975,0.036216505,-0.016925378,0.037748735,-0.03280361,0.04835913,-0.054121602,0.077758975,-0.0124862455,0.038172513,0.052283727,0.09334536,0.025102256,0.00020160817,-0.026495088,0.11129018,0.019567015,0.07615388,-0.021500425,-0.0024447648,0.07571331,-3.9823317e-33,0.03867145,-0.021893043,0.006969149,0.094707064,-0.025627494,-0.034647983,-0.03883233,0.005881906,-0.0040447754,-0.035523336,-0.052652664,-0.045628835,0.040016018,0.027456138,-0.043001536,0.023520198,0.07915146,-0.014235024,-0.045521226,-0.09617244,0.041853692,0.07999027,-0.074483,0.015731832,0.016873822,-0.043673724,-0.023723623,0.06896605,-0.118142664,-0.019307556,0.033162393,-0.0030240049,-0.018994132,0.13257617,-0.045001972,-0.009399873,0.08440576,0.102589175,0.0284906,0.06806096,0.02088919,0.0007225583,-0.036365584,-0.00071904866,-0.047591943,-0.09803701,-0.009143891,-0.11379499,0.043225057,0.013499966,0.109716,0.07689473,0.025350839,-0.0580974,-0.031489298,0.028338112,-0.015050761,-0.03337681,-0.056891352,0.02293396,0.062213346,0.04431279,-0.03553404,0.06276291,0.06570793,0.04493111,0.06409131,-0.009651355,0.0202871,-0.01626391,0.042046074,0.017249761,0.05923391,0.07818224,-0.0331903,0.02599683,-0.018366972,0.058669887,0.06881209,-0.017507335,0.008187502,-0.097845584,0.09889625,0.032203805,0.05282754,0.021580186,-0.049100503,-0.0111066615,0.024388291,0.05672822,-0.023472743,0.06351814,-0.034838676,-0.057686362,-0.021809302,-3.0204475e-08,0.010457889,-0.07413631,-0.029209876,0.030984728,0.06645361,0.0005205126,0.03879655,-0.02272407,-0.025855912,0.035127565,-0.00029676998,-0.05229498,-0.06009993,0.092167236,-0.021421177,-0.04741595,0.04961989,0.06529335,-0.03660502,-0.07661251,0.06468562,0.0042755697,-0.024409521,-0.04038406,-0.029204484,-0.021306094,-0.016495142,0.04314204,-0.006406672,-0.07586516,-0.07113895,0.0116167385,0.024632,-0.08278247,0.01664792,-0.018272266,-0.021101326,0.02673371,-0.107239865,-0.050675765,-0.000986479,-0.06767318,-0.05882102,-0.062264554,0.06637618,0.0062076147,-0.035808526,-0.017294694,0.017863045,-0.0027749995,-0.10011369,0.03823639,0.087757014,0.011309256,-0.03364318,-0.019995794,-0.039086208,0.017220896,-0.035090692,-0.011521802,0.043938812,-0.076972894,-0.07815068,-0.015039993
isabellarom96@gmail.com,-0.086605236,0.0212494,-0.018474976,-0.07817316,-0.10824748,0.011873832,0.012346769,0.08034469,-0.077606075,-0.012432951,0.035857007,-0.03590476,-0.05815011,-0.046410516,-0.07007468,0.00540183,0.084689215,-0.04215578,-0.014256308,-0.041853614,0.0031306008,-0.018910442,0.019137375,0.08980806,-0.08716826,0.02490747,0.049226556,0.017541252,-0.026273722,-0.12070577,-0.021804959,0.07805632,0.03358881,-0.073984236,0.011962595,-0.03366622,0.042981673,-0.037984982,0.046746705,-0.04096542,0.0016911246,-0.070347615,-0.03194127,-0.02238062,0.025596347,0.043589417,0.010316073,0.062251646,0.035296764,0.003961259,0.010238432,-0.002427811,0.049859297,-0.041351594,-0.029610973,0.12739404,0.01615399,0.048398867,0.00626333,-0.013931601,0.011971357,0.0027116714,-0.04350986,0.0027477758,0.06636528,0.03347115,-0.055587787,-0.07512568,-0.07934164,-0.027640432,0.06502522,-0.05282722,-0.00787897,0.02291856,-0.028574692,0.06541813,0.06866273,-0.06652787,0.040092222,-0.03632217,-0.061671197,0.022954846,0.009049995,0.007322344,0.037130877,0.031286202,0.0085569685,-0.0010129168,0.021406805,-0.087522134,0.026798949,-0.07238379,-0.0565491,0.021074997,-0.088646226,0.0037048352,0.0125567345,-0.039442874,-0.0035270466,0.036893006,0.12008294,0.0016312284,-0.0040453267,-0.033197615,-0.044442743,0.044027176,-0.037908945,0.004047368,0.075122595,0.106481954,-0.057335835,-0.022499682,-0.047057558,-0.10953782,-0.103216894,-0.0032222772,-0.046971858,0.0010730283,0.06804516,-0.0790698,0.06290684,0.01666272,-0.03169714,-0.036214754,-0.07407351,-0.12771426,0.036186762,8.072852e-33,-0.055848446,-0.0029358715,-0.0145657705,-0.045307703,-0.034479957,0.012107453,0.059860338,-0.015536333,-0.0061291005,0.0035950444,-0.06699628,-0.011078488,-0.041790757,-0.013677885,-0.095912084,-0.03342661,0.02658492,-0.06980299,0.036124818,-0.032955416,-0.029760763,0.10324188,-0.01815222,0.06529105,0.021336459,0.05399894,0.023931932,-0.03355211,0.057820085,0.05390169,0.04977955,0.016387867,0.05594361,-0.01104054,-0.08082217,-0.008331063,-0.062190138,-0.062859155,0.017726248,0.00023876311,-0.0017916098,0.029426984,0.019275125,0.014560215,-0.02641489,-0.011674662,0.02089197,0.084379874,0.011154449,-0.024268549,-0.09571804,-0.035251975,-0.06827734,0.09506359,-0.029879885,-0.06131416,-0.010859688,0.0031044795,0.043380145,-0.02290931,0.10173749,0.08114164,-0.029425142,0.01613884,-0.081476174,-0.012397165,0.02581544,0.0059384196,0.0024504813,0.05032581,-0.017864702,-0.004138315,0.054173395,0.02471132,-0.011083022,0.039512947,0.067148805,0.0030577662,0.016767982,-0.006295318,-0.0035354563,0.028994596,0.03674875,0.030025594,0.095703304,0.040500093,-0.027424578,0.042225,0.017342241,0.04935293,0.08102477,-0.015882902,0.0074687,-0.00033524033,0.0034185576,-7.8738285e-33,-0.010757449,0.009114066,0.02959906,0.124800056,0.028859353,0.009452701,-0.018441156,-0.056133818,0.0014237926,0.0148211075,-0.0044220653,-0.04277821,0.010880162,-0.03692726,0.006197979,0.07075458,-0.03597425,0.096851185,0.05005684,-0.036039744,-0.013001716,0.06752795,-0.09067752,0.019406546,-0.00068114675,-0.0453219,-0.042857915,-0.008541,-0.05571528,0.04373911,-0.07630755,-0.051297337,-0.03081588,0.12397555,-0.091207534,-0.030448165,0.06900916,0.025029184,0.0044064517,0.00069911854,-0.013628443,-0.044977907,0.039337978,0.01832739,-0.08020415,-0.12540114,-0.045711134,-0.06582503,0.06309306,0.13573875,0.064775705,0.05612533,0.05584176,-0.048249867,-0.073545225,0.011515183,-0.008034454,-0.04899347,-0.0057636336,0.071523346,0.039352205,0.016112104,-0.020209642,0.08720993,0.07815302,0.015849927,-0.01592633,0.074418336,-0.011206942,-0.029208872,0.007335755,0.070438586,0.110023014,-0.059878804,-0.00026854384,-0.006789331,-0.069026865,0.060923267,0.08429975,0.050230384,-0.04980862,-0.07209368,0.09051956,0.041809194,0.04504707,0.025148017,-0.00046433718,0.041370798,-0.016523693,0.037469685,-0.013444521,0.07729786,0.038095903,-0.07151147,-0.004375883,-3.7147164e-08,0.062139407,-0.06203949,-0.03446982,0.0012772006,0.09572116,0.0025536565,0.013820463,-0.046035483,-0.07573271,0.041695356,-0.042505678,0.014648893,-0.078358,-0.03144652,-0.054646548,-0.006879812,0.021628916,0.09298701,-0.0018238948,-0.04692601,0.10722476,0.044434357,0.00577746,-0.045477685,-0.045197975,0.011167459,0.009359479,0.10646644,-0.007311726,-0.012132928,-0.050308626,0.022648374,-0.001949128,-0.11511225,0.058456294,0.0075295866,-0.029071547,0.10649293,-0.0850834,-0.018065179,-0.07330772,-0.075871564,-0.05186737,0.00410183,0.080013916,-0.016215079,-0.08286603,-0.04511947,0.008469382,-0.033398557,-0.03180491,0.028077153,0.08717814,0.04144053,0.019073846,0.020053253,-0.0147787025,-0.008289011,-0.033399396,0.014774543,0.047924053,-0.068987936,0.03941748,0.027249811
