customer_email,0,1,2,3,4,5,6,7,8,9,10,11,12,13,14,15,16,17,18,19,20,21,22,23,24,25,26,27,28,29,30,31,32,33,34,35,36,37,38,39,40,41,42,43,44,45,46,47,48,49,50,51,52,53,54,55,56,57,58,59,60,61,62,63,64,65,66,67,68,69,70,71,72,73,74,75,76,77,78,79,80,81,82,83,84,85,86,87,88,89,90,91,92,93,94,95,96,97,98,99,100,101,102,103,104,105,106,107,108,109,110,111,112,113,114,115,116,117,118,119,120,121,122,123,124,125,126,127,128,129,130,131,132,133,134,135,136,137,138,139,140,141,142,143,144,145,146,147,148,149,150,151,152,153,154,155,156,157,158,159,160,161,162,163,164,165,166,167,168,169,170,171,172,173,174,175,176,177,178,179,180,181,182,183,184,185,186,187,188,189,190,191,192,193,194,195,196,197,198,199,200,201,202,203,204,205,206,207,208,209,210,211,212,213,214,215,216,217,218,219,220,221,222,223,224,225,226,227,228,229,230,231,232,233,234,235,236,237,238,239,240,241,242,243,244,245,246,247,248,249,250,251,252,253,254,255,256,257,258,259,260,261,262,263,264,265,266,267,268,269,270,271,272,273,274,275,276,277,278,279,280,281,282,283,284,285,286,287,288,289,290,291,292,293,294,295,296,297,298,299,300,301,302,303,304,305,306,307,308,309,310,311,312,313,314,315,316,317,318,319,320,321,322,323,324,325,326,327,328,329,330,331,332,333,334,335,336,337,338,339,340,341,342,343,344,345,346,347,348,349,350,351,352,353,354,355,356,357,358,359,360,361,362,363,364,365,366,367,368,369,370,371,372,373,374,375,376,377,378,379,380,381,382,383
johortafotografia@outlook.com,-0.074252956,0.020116694,-0.03593417,-0.08316909,-0.09771049,0.013612439,-0.052647997,0.057107296,-0.08722102,-0.0040251515,0.09554892,-0.020401813,-0.012528507,-0.046742033,-0.06791887,0.05782024,0.029264053,-0.08761321,0.04988431,-0.0070614275,0.0088630235,-0.01152102,-0.04224435,0.07833085,-0.032408092,-0.0052165105,0.038765226,0.0093699,-0.025033768,-0.07951727,-0.018982563,0.10405247,0.022662489,-0.016237646,0.052818168,-0.036088508,0.021494739,-0.055663235,0.033007707,-0.027939616,0.009536901,-0.017770248,-0.058596414,0.010981618,-0.018888582,0.052572004,0.007972234,0.093305945,0.05905769,-0.048027396,-0.034764722,0.025272852,0.031028839,-0.06643509,0.010406355,0.012148136,-0.008250064,0.059794042,0.011715222,-0.027798202,0.03309449,0.042387746,-0.098253846,0.07566034,0.04285902,0.02679452,0.0008690302,-0.05120679,-0.109194644,0.033621505,0.007807564,-0.05262254,0.05369607,0.017719762,0.040130198,0.024956675,0.036987938,-0.07659429,0.054418318,-0.030235726,-0.06142972,-0.03374125,-0.08462779,0.004681894,0.054410286,0.011830541,0.025599815,0.03698657,0.10504432,-0.08321153,0.02500592,-0.07247935,-0.051897354,0.053504698,-0.09513013,-0.0014567797,0.014484802,-0.015431187,-0.01417663,0.03826722,0.044968948,-0.013947826,0.020822242,-0.031924795,-0.08942043,0.064210944,-0.056887522,0.05355091,0.04004842,0.08856747,-0.028934184,-0.020724535,-0.06017183,-0.11700446,-0.09155639,0.01913246,-0.04336211,0.015066058,0.0021324663,-0.10024409,0.003876123,-0.008303572,0.053321604,0.03165203,-0.06678197,-0.14985916,0.04277427,3.3234013e-33,0.00761405,-0.04710084,-0.06074197,-0.04039139,-0.03115655,0.030917896,0.04687729,0.011605224,-0.047591127,-0.001581982,0.0037240563,0.00870813,-0.08531362,0.04125576,-0.04017944,0.019221997,0.04488446,0.0029160907,0.042469278,0.019065052,-0.002278365,0.013338716,-0.022991702,0.04826177,0.041811828,0.042865016,0.025011208,0.0029242847,-0.024415106,0.0562289,0.028895603,0.014170422,-0.008394664,-0.010343064,-0.060777765,-0.0033645842,-0.11324453,-0.025998829,-0.0064651384,-0.030262936,-0.08023148,0.049715135,0.012626753,-0.11303035,0.0096891625,-0.03825215,-0.051518522,0.09310178,0.006177729,0.06233355,-0.06909702,0.007594236,-0.010146756,0.14400747,-0.06275003,-0.064214095,-0.0028001901,0.045978002,0.06622497,-0.011565939,0.049890853,0.056482002,-0.04912706,0.023027213,-0.08889581,-0.0042913863,0.07238296,0.026489701,0.029984092,0.03584247,-0.029866356,-0.06254378,0.039851964,-0.007919613,-0.033669095,0.030271515,0.001989002,0.022293564,-0.04097628,0.047601555,-0.04275043,0.011433064,-0.00036974228,0.0063851867,0.06764233,0.08018878,0.029117037,0.041108247,-0.02250867,0.11956646,0.08995105,0.027995266,-0.003775738,0.021994803,0.07847022,-4.575885e-33,-0.017920012,0.027640847,0.10431934,0.09386041,-0.026570456,-0.04058951,0.023166407,-0.022692617,-0.0036528665,-0.0060510132,0.026247188,-0.05390028,-0.020962393,-0.0013271307,0.008894407,0.056283098,0.04314508,-0.0030742525,0.0071194875,-0.009801427,0.018804163,0.08826847,-0.08491653,-0.013527514,-0.023701798,-0.049661007,-0.053220443,0.063626215,-0.065208666,-0.0060843998,-0.00022079401,0.038345214,-0.05626488,0.093133144,-0.08105479,-0.0064542573,0.047860462,0.12024678,0.060472537,0.038724337,0.054530516,0.048858467,-0.027219605,0.028929397,-0.095026076,-0.060174502,0.03194154,-0.13934703,0.051090103,0.05533436,0.04375557,0.11944972,0.070662044,-0.045994774,-0.02087746,-0.027834374,0.0017409655,-0.030760499,-0.08333546,0.029869283,0.07085886,0.016869318,-0.044942513,0.053180616,0.060510185,0.017142361,0.03870599,0.03892645,-2.3726252e-05,-0.03695226,0.020433398,0.06607262,0.067491814,-0.011353951,-0.034960184,-0.022495942,-0.1029414,0.023269182,0.045158144,0.0135894315,0.00023824874,-0.114925236,0.08153715,0.0338524,0.0329762,-0.008178855,0.0047165593,-0.00847724,0.025627824,0.033135433,-0.035665277,0.076318435,0.00925322,-0.0487568,-0.029165866,-3.4360507e-08,0.0138069205,-0.087847605,-0.024237137,-0.014783211,0.075797796,-0.018147789,0.032625075,0.007371889,-0.051767163,0.014413457,0.026050083,-0.02203223,-0.10768193,0.04275925,0.008818824,-0.049124092,-0.029628908,0.04438831,-0.053611927,-0.082061,0.058447186,-0.00967362,-0.009732783,-0.03629988,-0.03437927,-0.020916348,0.0026277555,0.087756045,0.025170818,-0.062098578,-0.07828613,0.0046308,0.024062855,-0.111681424,0.036620907,0.025356194,-0.0051113786,0.08449883,-0.045448177,-0.024944944,-0.03468939,0.0022009152,-0.044799697,-0.009321881,0.08402849,0.009157883,-0.08514283,-0.04902451,0.0037400518,0.0032463253,-0.04286834,0.08486952,0.08151281,0.02456353,-0.008841049,-0.01935828,-0.03569727,0.01903153,-0.025551202,-0.010115835,0.06053768,-0.12748034,0.007755194,-0.018227687
aluzportugal@gmail.com,-0.06280019,0.028323142,0.00035668595,-0.03398828,-0.1213197,0.049268913,-0.025122244,0.14346763,-0.05595674,0.021824053,0.06454934,-0.039714053,-0.03167486,-0.016823363,-0.076945625,0.024476502,0.07438318,-0.010233197,0.031556536,-0.05007821,-0.006723005,0.028068561,-0.0068896515,0.06152005,-0.047340866,0.009489636,0.023809627,-0.019649383,0.0035134384,-0.06682791,-0.051298954,0.07109619,0.043021772,-0.022525202,0.011468276,-0.08084983,-0.022545235,-0.07566922,0.03993641,0.035047963,-0.0032197752,-0.029930107,-0.08399421,-0.022834944,0.017064294,0.064341165,0.019286182,0.10974977,0.06200943,0.029942144,-0.08900978,-0.04558249,0.017596994,-0.05215786,-0.0460468,0.07220801,0.043912306,0.037217047,-0.0018606422,0.006104092,0.010977961,0.018135315,-0.06485201,0.031820655,0.023172,0.047062464,-0.04971533,-0.06508184,-0.059178654,-0.0021723337,0.095759995,-0.050829116,0.056235824,0.03773816,-0.019860046,0.040905647,0.098530985,-0.081121825,0.012955592,-0.028602352,-0.025614737,7.810125e-05,-0.031232757,-0.0055345083,0.01769884,0.03071791,0.042626295,0.043979645,0.061129425,-0.03046516,0.03646258,-0.046951443,-0.09440333,0.0057019,-0.092033595,0.041791532,0.009174154,0.0056309337,-0.009942161,0.003178014,0.0604227,-0.009097252,0.0075808256,-0.056392353,-0.05991529,0.06064139,-0.011171204,-0.005257113,0.039176673,0.08075861,-0.12221899,-0.058728307,-0.09232095,-0.074964896,-0.07313017,0.0042725746,0.015441475,0.037526898,0.058844704,-0.054244418,0.034297895,-0.05231528,0.012582875,-0.027379742,-0.06787364,-0.16704123,0.027406465,7.6361325e-33,-0.033775385,-0.04316899,-0.07234781,-0.0037290112,0.008971703,0.021256804,0.037736125,-0.025221031,-0.018644063,0.00020190497,-0.13223794,0.014318894,-0.085845836,0.031203989,-0.040248826,0.010952223,-0.011530481,-0.039572563,-0.013100308,0.0029162997,-0.058379438,0.033981178,0.006812961,0.05159652,-0.018482044,0.07586092,0.009835146,-0.03068887,0.040294196,0.027239703,0.0052127815,-0.0011738148,0.0054263044,-0.039932292,-0.08190223,-0.02169526,-0.047197174,-0.07359716,-0.030686503,0.009774717,-0.05828894,0.07695254,0.02043577,-0.038165435,0.04532023,-0.0622757,-0.0048987814,0.07010419,0.054336138,0.0071782093,-0.07980541,0.0041735303,-0.016372038,0.09130182,-0.029965388,-0.07249761,-0.03901265,0.07027122,0.04829141,0.0045279036,0.05921478,0.0782942,0.035445936,0.0015400617,-0.03765345,-0.015341157,0.019029344,-0.016334465,0.04433259,0.006765701,0.023195744,-0.0410597,0.02826968,0.018832361,-0.033428077,0.037328497,0.059097666,-0.023600265,-0.035899874,0.0017024749,-0.031375136,0.055058446,0.00470309,0.04785236,0.15112126,0.088925935,-0.0016347768,0.023806218,-0.0075392863,0.12365574,0.027644413,0.05797223,-0.025151677,0.028821023,0.055709805,-7.491463e-33,-0.010533081,0.0012207691,0.06565105,0.09513298,-0.007550062,-0.020442426,-0.037672102,-0.03413311,0.03370961,0.017877894,-0.04612328,-0.041526224,0.059109956,-0.031089555,0.010184543,0.041102555,0.011777986,0.016034843,0.017986862,-0.06543062,-0.009443925,0.108275026,-0.078263,0.0008377242,0.012481983,-0.026545782,-0.052537438,0.0583453,-0.058199123,0.016944122,-0.0380229,-0.023071155,-0.038816124,0.13791943,-0.05142961,0.0051066973,0.04824337,0.076037,0.06385243,0.026837314,0.006129195,0.02343414,0.038231242,-0.022132698,-0.049610052,-0.12056693,-0.025134109,-0.11863648,0.050355937,0.07268229,0.104757726,0.041902255,0.012024235,-0.053947087,-0.07046084,0.00798836,-0.00753918,-0.04778771,-0.02851552,0.021143066,0.06861071,0.038307324,-0.082214154,0.04438715,0.07481248,0.0836109,0.05747827,0.03316332,-0.015751377,-0.04076295,0.015343295,0.042970147,0.06485329,0.029380986,-0.019016087,-0.0048904656,-0.07905677,0.07595752,0.10443522,0.023936749,-0.004866649,-0.120408036,0.08157278,0.038471647,0.0144760795,-0.007393432,-0.050427508,0.010145258,0.03151568,0.05594316,-0.022919064,0.050526824,0.008718819,-0.08364708,-0.01794074,-3.9236333e-08,0.042126913,-0.051083297,0.031581707,0.014447281,0.0741273,-0.049740303,0.012499522,-0.026654536,-0.05799055,0.05238653,-0.025253013,-0.030909171,-0.05579427,0.046992548,-0.031520676,-0.04491738,0.02070926,0.12593634,-0.009518561,-0.07680325,0.09359001,0.00075372786,-0.02659576,-0.008283945,-0.042678393,-0.029201662,-0.004491398,0.108784,-0.031271845,-0.04450711,-0.04053424,0.020729525,0.053886466,-0.06711957,0.04419288,-0.035621233,-0.03996461,0.03999266,-0.09235683,-0.03185015,-0.024442473,-0.061718296,-0.028953342,-0.02031344,0.09695505,-0.024321534,-0.060246464,-0.0494957,-0.01429063,-0.011851307,-0.026226306,0.053756963,0.069049306,0.031441726,-0.07182552,-0.03939176,0.022328708,0.014026733,-0.064947315,-0.007814791,0.0042508333,-0.058855128,0.021665627,-0.024584068
vcfotoefilme@gmail.com,-0.09165753,-0.0058849035,-0.022759132,-0.110041715,-0.13414706,0.030172067,0.004179972,0.063870534,-0.090752885,-0.007548914,0.08797753,-0.04159911,-0.029901106,-0.01858022,-0.04962633,0.060170934,0.05011923,-0.02744253,0.01630781,-0.0010007095,0.0052805217,0.0065119984,-0.0058062836,0.057498544,-0.021361757,0.023724489,0.052003548,0.029536217,-0.013261802,-0.09125376,-0.03807779,0.08629425,0.035096053,-0.009160468,0.00054857705,-0.10374716,-0.010086602,-0.06869025,0.029835366,0.04014175,0.010044651,-0.0039988244,-0.04925799,0.027166102,0.044956002,0.02049642,0.008384875,0.052518453,0.02725453,-0.0039321072,-0.07095532,-0.06839556,-0.0151312165,-0.05622959,-0.046928104,0.050659306,-0.013500676,0.028636489,0.03445119,0.05263766,0.0040872623,0.0141662415,-0.037278693,0.057421148,0.052489232,-0.010922865,-0.0043343175,-0.05688302,-0.08917723,-0.0014605824,0.021413151,-0.058471605,-0.0039756955,0.037943624,-0.027243627,0.027448222,0.083026245,-0.06798371,0.025301829,-0.09278073,-0.0530241,0.005053576,-0.08362671,0.015702695,0.04173013,0.0050381566,0.013425635,0.045183603,0.06027306,-0.050950963,0.022299115,-0.075011216,-0.047789767,0.018089572,-0.14193475,0.03550617,0.024857547,-0.036487557,-0.034791846,0.044733632,0.014996432,-0.029378366,0.00826835,-0.034534685,-0.11134019,0.026659302,0.038110454,0.059554882,0.0405013,0.07522846,-0.06611183,-0.0037916112,-0.06938532,-0.08749029,-0.12073564,0.00035059772,-0.014649986,0.025351554,0.11552458,-0.06687119,-0.0007446367,-0.063061394,0.025487801,-0.010964344,-0.068883,-0.14731726,-0.01524431,1.5010455e-32,-0.02214955,-0.046060253,-0.045700613,0.01518433,-0.008896706,-0.017782234,0.05344209,-0.015143042,-0.08165712,-0.048736155,-0.08662375,0.03444145,-0.09979289,0.018362254,-0.006992743,0.0057651796,-0.012306638,-0.09555383,0.025037121,-0.016501976,0.0020426097,0.07108073,0.019441137,0.06291012,0.07345098,-0.005807923,0.028441569,-0.02428834,0.014715214,0.046151396,0.03037624,-0.0061985953,0.033954572,0.0044527045,-0.013064382,0.020378433,-0.090550356,-0.06526645,-0.008363764,-0.0010246052,-0.051428623,-0.009805078,-0.047609195,-0.029790584,0.027759165,-0.0058527715,-0.0050971145,0.055915687,-0.012842205,-0.008368645,-0.08782329,0.031968374,-0.044872932,0.070728295,-0.08294401,-0.036860343,-0.049256165,0.037874293,0.056979783,0.025784772,0.008945021,0.09495246,0.021684036,0.047640774,-0.05403963,-0.03242948,0.014048841,-0.028987251,0.080929175,0.02239341,0.005493333,-0.0569651,0.059300367,0.036452018,-0.03183736,0.039176404,0.0013340375,0.004181912,-0.05429605,0.0007805852,0.0016984008,0.0476892,0.020739444,0.052451514,0.12805334,0.090044916,0.02099436,-0.0028231044,-0.0074418318,0.1116647,0.07099625,0.049848136,0.027223174,-0.029489022,0.052983195,-1.3935079e-32,0.0068764016,-0.024794798,0.05999653,0.075499736,0.0011317354,-0.039943658,0.0421388,-0.075984046,0.04084498,0.057513434,0.013079955,-0.04076697,-0.02154223,-0.073318265,0.048136417,0.019960469,0.017319389,0.011972287,0.054962445,-0.047069784,0.035191346,0.07815669,-0.07183657,0.0065175514,0.0041480996,-0.03497904,-0.038714316,0.0628435,-0.05252311,0.05304654,-0.042437367,-0.059637927,-0.038265698,0.104827635,-0.07503387,0.030667324,0.051397603,0.08140505,0.005637911,0.037591588,0.042954914,-0.016240494,0.030979142,0.03661538,-0.01743982,-0.13930665,-0.032431565,-0.09169102,0.028930543,0.061748046,0.097142376,0.070227884,-1.1257443e-06,-0.08700442,-0.038339946,-0.0078449445,0.05283573,-0.06113964,-0.06876653,0.042747475,0.054513525,0.009019102,-0.07514938,0.018529754,0.07691011,-0.0077811643,0.027023701,0.037001073,0.0036845321,-0.058307942,-0.013095444,0.045866046,0.0153847225,-0.037682056,-0.03363328,0.011491918,-0.070250034,0.1097228,0.07940693,0.02123575,-0.032898005,-0.06502289,0.05194101,0.07745615,0.04926143,0.029466676,-0.041377716,0.022997031,0.05854247,0.068965435,-0.020724308,0.042112835,0.053350728,-0.08198843,-0.076574974,-5.2935786e-08,0.012625437,-0.043206412,-0.011175354,0.038236484,0.11756088,-0.0043286914,0.043341197,-0.010929935,-0.048141286,0.0091198655,0.005271101,-6.8604764e-05,-0.06405224,0.0544665,-0.04414278,0.0035567514,-0.0077236146,0.12423789,-0.016145084,-0.07509324,0.090103015,0.022306068,-0.06355302,0.050406005,-0.054016072,-0.042284023,-0.03400982,0.12727883,-0.011761301,-0.025720477,-0.060321223,-0.018988566,0.035178274,-0.090010084,0.069091,-0.047509126,0.005041408,0.044584703,-0.06228903,0.0008262501,-0.020333007,-0.042815093,-0.02937666,0.012678613,0.06302633,-0.014200147,-0.075010456,-0.047838803,0.012978544,-0.044648852,0.02185982,0.004423572,0.050508898,0.03421907,-0.00013371074,-0.03918381,-0.017891744,-0.02297022,-0.06815294,0.02186375,0.0664568,-0.054619964,0.029294292,0.018124286
felipebf@gmail.com,-0.077528976,0.0025337953,-0.05010323,-0.086288154,-0.09297056,0.022744164,0.028544141,0.07206086,-0.104836375,0.0042056325,0.09447475,-0.07480239,0.0117527135,-0.023934338,-0.03366839,0.0079695815,0.06512317,-0.058144554,0.014533161,-0.026873203,-0.0028972607,-0.023062661,-0.023976356,0.08668244,-0.006068205,-0.012875948,0.04672219,-0.025065316,-0.0487449,-0.05851113,-0.084078856,0.05362246,0.01763316,0.006287825,0.075552665,-0.051428106,0.0027959624,-0.057163697,0.042478185,0.0033081383,-0.040467147,-0.013645433,-0.025276903,-0.032200977,0.07866046,0.0591643,0.0042849616,0.081943326,0.072827645,0.049750082,-0.07960291,0.015950348,0.023606336,-0.0608847,-0.0014605046,0.012420768,0.040309165,0.023944303,0.057321496,0.03467185,0.042516746,-0.025209859,-0.04582009,0.05956889,0.08607879,-0.03046684,-0.09527739,-0.013578068,-0.08905532,-0.0267192,-0.00043426492,-0.07059893,0.008032794,-0.013708508,-0.014269599,0.031760234,0.0425473,-0.073479645,0.02261587,-0.0111609055,-0.08746351,-0.036896672,-0.07054594,0.022555524,-0.0073368354,0.031323794,0.022904169,0.027130766,0.0418353,-0.030470748,0.016003015,-0.07971967,-0.057441615,0.029222345,-0.10499764,0.0037729442,-0.0122765545,0.0012842561,-0.04427753,0.02534839,-0.041062076,-0.0083499905,0.0204271,-0.11697351,-0.05653137,0.027882224,-0.02736426,0.05175199,0.09817795,0.057748396,-0.019713625,-0.03270297,-0.06487992,-0.08593778,-0.029249366,0.015395406,-0.027589744,-0.002439416,0.05517485,-0.063899025,0.06419389,-0.030299816,0.016768387,-0.04159771,-0.10300713,-0.09231916,0.07855557,1.15818586e-32,0.03391196,-0.017248955,-0.058818184,0.02134328,0.0648813,0.027942006,0.03811875,0.0042177876,-0.007147262,-0.020736597,-0.09331851,0.007891618,-0.07041076,0.042430714,-0.021094797,-0.020343624,0.030118605,-0.053967625,0.015904447,0.0143986745,0.037679154,0.023350615,0.017265312,0.04302615,0.06419408,0.047540642,-0.0055190767,0.0048958934,0.03578176,0.050149977,0.027325233,-0.021951359,0.0036056833,0.026023902,-0.045197543,-0.07067979,-0.06582809,-0.08113582,-0.02784227,-0.015796825,-0.05900184,0.015715737,-0.023606656,-0.018823568,0.0035730496,-0.003976549,0.0014140273,0.031868666,0.025296057,0.0033595052,-0.093109146,0.03304885,0.0037966592,0.07099048,-0.031272914,-0.12628862,0.0049166214,0.014669657,0.09634938,-0.009311727,0.022940315,0.100118116,0.012717359,0.0023213534,-0.0096072005,-0.008169219,0.0735843,0.023860259,0.016057458,0.013905679,-0.0068338728,-0.031426307,0.04521901,0.018846394,-0.025374781,0.048209876,0.0013058676,0.024111379,-0.059334833,-0.010824311,-0.054706667,0.06143542,0.016198345,0.062314704,0.090279125,0.09826444,0.009199724,-0.01878912,-0.012741407,0.07728136,-0.015074564,0.071887486,-0.0233899,0.014005814,0.037288852,-1.1921734e-32,0.004776131,0.018894812,0.0573898,0.07291591,0.016501952,-0.0655381,0.00756477,-0.037998717,0.05138096,0.0026761913,-0.05937634,-0.05181485,0.011599693,0.012512445,0.042268723,0.082566254,-0.01204781,0.02750411,-0.004248772,-0.07990151,0.030886948,0.081978545,-0.07182297,-0.03359218,0.00590045,0.012262018,-0.06604912,0.03448351,-0.07164053,0.024701713,-0.021604666,-0.05807876,-0.055357274,0.12126269,-0.12022273,0.042191796,0.04738946,0.10637906,0.058698956,0.04856539,0.068484925,-0.002323332,0.002990481,0.054410364,-0.04237175,-0.14588727,-0.0952345,-0.12783518,0.038242586,0.058573306,0.07615775,0.06280449,0.02908569,-0.05697091,-0.064179644,0.009716947,0.036689308,-0.0317361,-0.053950403,0.005716845,0.022001972,-0.020579265,-0.03854923,0.09970464,0.076425426,0.05853116,0.07099669,0.016517416,-0.008353064,-0.06403766,0.06888666,0.040877383,0.05960112,0.031799547,-0.040311616,0.040571973,-0.082409374,0.086036496,0.061612077,0.01604052,0.011020658,-0.0861421,0.09099023,0.056801263,0.05425618,-0.007297383,0.012239395,0.0026004165,0.009035974,0.056753363,-0.049941257,0.026664928,0.050683126,-0.06269935,-0.020978097,-5.141557e-08,0.011346829,-0.026781252,-0.033245783,-0.01815447,0.13057551,0.015648795,-0.02042219,-0.044244174,-0.023324268,0.032322556,0.039405096,-0.033421,-0.09566323,0.07606467,-0.03894961,-0.05877033,-0.018607872,0.06701036,-0.02839528,-0.052862514,0.08057371,-0.025951225,-0.026770096,-0.019235875,-0.057930864,-0.029942324,-0.05103999,0.10590032,-0.013187295,-0.009064648,-0.06820569,0.024435924,0.03355733,-0.0817962,0.017274847,-0.02057075,-0.065363854,0.012703965,-0.109014876,-0.04171157,-0.057162683,-0.11485705,-0.029833179,-0.0343233,0.07381495,-0.047811083,-0.05517439,-0.05432215,-0.0062692193,0.02001262,-0.014798627,0.014810054,0.11273551,0.042577688,0.010981529,-0.058975454,-0.009169721,-0.004206924,0.012843904,-0.0016724168,0.0522418,-0.042980008,-0.018735692,-0.02274773
willpasco.compras@gmail.com,-0.079008676,0.023802353,-0.012814443,-0.03975881,-0.15417188,0.035299867,0.034053493,0.06998084,-0.1198574,-0.047833472,0.056629594,-0.036140386,-0.051600844,-0.03991282,-0.090163715,0.023688767,0.09484619,-0.0063253646,-0.0017492645,-0.022305902,0.03965196,-0.023216516,-0.024278052,0.08965649,-0.083486915,0.040972494,0.018105838,0.05248378,-0.0102018,-0.09024829,-0.027595585,0.086054854,0.034149285,0.026336864,-0.006484648,-0.06738773,0.006381213,-0.13412385,0.06843581,0.059172228,0.019921489,0.01609741,-0.021209737,-0.024493901,0.062472258,-0.0033656033,0.010748498,0.02310309,0.014032397,-0.036526598,-0.09636063,-0.04841727,0.008502464,-0.09607125,-0.022346405,0.033158157,-0.0031861605,0.019976031,0.017416092,0.07143478,0.02956805,7.021962e-05,-0.024579737,0.05201002,0.025621189,-0.042371847,-0.03307532,-0.041640062,-0.058578476,0.0033636638,0.07357811,-0.05997479,0.022811059,0.023277668,-0.085530125,0.042273294,0.10231179,-0.04483519,0.048445977,-0.06573147,-0.037007257,0.0011889561,-0.05028263,0.002123624,0.011113839,-0.009415641,0.0020007838,0.04050477,0.09192139,-0.008107317,0.045563873,-0.015955193,-0.0753908,0.05727498,-0.15107593,0.015318326,0.036814004,-0.111935996,-0.01002537,0.051941577,-0.0062566195,-0.01854524,0.02129649,-0.020074908,-0.076428205,0.040615045,0.040403422,0.033073433,0.043826804,0.10743482,-0.010801587,-0.036493573,-0.06554698,-0.06279218,-0.09080468,0.0049181636,-0.021500163,0.01557531,0.07328982,-0.07316026,-0.013535299,-0.07401564,0.02923837,-0.045744117,-0.059713144,-0.09620741,-0.006372209,1.16211994e-32,-0.0559311,-0.047552176,-0.0013244412,0.009591218,0.024926271,-0.052628763,-0.0058711567,-0.042066175,-0.03388975,-0.04124826,-0.08703559,0.043573067,-0.11344137,0.012943696,-0.01180541,-0.0061860434,-0.0015444298,-0.10270995,0.0007352014,-0.02329151,-0.029148057,0.024682702,0.02576267,0.03548038,0.020925721,0.034260288,0.026907012,-0.051408816,0.048495356,0.05444767,0.060172122,0.033014223,0.050019037,0.031514563,-0.044666883,0.009553912,-0.0908795,-0.06059345,-0.033240832,0.03597173,-0.017937293,-0.037881017,-0.013364402,0.017239086,0.004259936,-0.023005802,-0.008767285,0.093683995,0.041799568,0.018410934,-0.095736496,-0.0008806189,-0.07812177,0.05455753,-0.085710205,0.0059880284,-0.074886754,0.016836062,0.0848123,-0.013591168,-0.029043276,0.03565825,0.024115724,0.021178627,-0.006164132,-0.02808346,-0.0016239578,-0.02978431,0.08515732,0.007484533,0.012653209,-0.07998419,0.025104398,0.071489714,-0.0053934045,0.020910809,0.021670815,0.019358559,-0.07890288,0.042170044,-0.01832796,0.08244606,0.03645326,0.014429533,0.117120594,0.11223191,0.02230324,0.024113053,0.08145932,0.14340194,0.008884104,0.047510613,0.019618263,0.0049290075,0.01447056,-1.0747152e-32,0.03797064,-0.055461485,0.041691665,0.07910695,0.0005618179,-0.016307004,-0.009086685,-0.04705295,0.034395423,0.039173003,-0.005481743,-0.02570079,0.0608488,-0.08086187,0.032957498,0.020809919,0.048453223,0.044794198,-0.009414279,-0.057593334,-0.010962772,0.054742113,-0.11412404,0.02471242,-0.027695596,-0.03530271,-0.05587315,0.021917293,-0.09831529,0.024918512,-0.0018801435,-0.0785944,-0.0111931,0.08660956,-0.05037481,0.03617071,0.0749376,0.046925917,0.006014835,0.067488045,0.014058609,-0.028123656,0.048466876,0.011579906,-0.014045125,-0.08312056,-0.006225408,-0.07862699,-0.012780332,0.07711032,0.1270522,0.067250915,-0.017257992,-0.07049032,0.017380575,0.0064228512,0.025344884,-0.057521954,-0.059772085,0.06867771,0.103652544,-0.010027745,-0.070327036,0.01656776,0.078446925,0.0136047015,0.021162665,-0.0019234411,0.038885374,-0.0494303,-0.012822058,0.059090663,0.020124745,-0.011290251,-0.040380828,-0.017619485,-0.11917342,0.085112125,0.03715152,-0.010826218,0.009042792,-0.069551475,0.05866264,0.05610703,0.047495063,0.02771466,-0.00962438,0.015764443,0.05102491,0.04100021,0.0014250283,0.04764508,0.024144001,-0.04651333,-0.035880018,-4.4316245e-08,0.032741304,-0.023889767,-0.03474836,0.027871324,0.08169037,0.012696571,0.04289745,-0.04593784,-0.021980718,-0.012617693,-0.008351853,0.0015768774,-0.05031679,0.06404643,-0.0829297,-0.0043630507,-0.00932725,0.10209283,-0.0026376022,-0.031516302,0.097826876,-0.012295489,-0.07579488,0.023130413,-0.043801103,-0.042043865,-0.015113391,0.12769176,-0.015801357,-0.05394444,-0.04840069,0.008072513,0.038511824,-0.05446713,0.07239992,0.009888543,0.032037612,0.044032447,-0.031922705,-0.00654598,-0.005071037,-0.058578998,0.01159945,-0.017787494,0.008468827,-0.00014390245,-0.06879343,-0.031050509,-0.0048869858,0.027505018,0.008111365,0.028397813,0.043865234,0.06377203,-0.013394252,-0.047495067,0.029732496,-0.03260547,-0.10381191,0.0037495901,0.055356756,-0.049412012,0.03394128,-0.008765404
pedroramoslm@gmail.com,-0.10705668,0.01033825,-0.02470236,-0.06064044,-0.15194857,0.01823455,-0.0013699544,0.086135276,-0.101542786,-0.0016423907,0.08928149,-0.02456057,-0.0528342,-0.02395773,-0.062652476,0.05781591,0.06367985,-0.03229433,0.024569867,-0.0074420166,0.021318773,0.013144228,-0.012306602,0.06353476,-0.07127635,0.030338846,0.03132133,0.051595308,0.029485904,-0.071754865,-0.012036564,0.08754134,0.03259406,0.005770612,-0.0064126397,-0.05083913,-0.01459954,-0.094803534,0.047279183,0.026895324,0.010199861,-0.03256003,-0.04621088,-0.034489654,0.07493696,0.0071990904,-0.0036328502,0.04437179,0.025965063,-0.049492326,-0.076902814,-0.05688627,0.014708931,-0.05197615,-0.033635885,0.024508372,-0.0031353582,0.021680485,-0.0011649185,0.037165932,0.019152254,0.010997527,-0.05178961,0.026409423,0.04945139,0.008235193,-0.002592166,-0.05919122,-0.065877296,0.018523445,0.0750366,-0.067613095,0.039262913,0.051264033,-0.08013243,0.025602704,0.08273173,-0.016822245,0.05261183,-0.07659459,-0.020272471,0.003894919,-0.06191941,0.024467492,0.031665023,0.02062194,-0.024406029,0.035309248,0.07268037,-0.054819133,0.009548755,-0.052838873,-0.061058763,0.051829338,-0.13200429,0.018328616,0.01601517,-0.0899584,-0.017203584,0.057120126,0.022879634,-0.014012855,-0.0021280574,-0.009212478,-0.09476418,0.03617472,0.04878311,0.046053216,0.027541555,0.09940911,-0.050692383,-0.025967222,-0.06404425,-0.0698579,-0.09647699,0.004766887,-0.031253386,0.039439928,0.09423043,-0.06018625,-0.011983244,-0.056822903,0.03176319,-0.043176208,-0.007022326,-0.1454148,-0.0023912857,1.1457363e-32,-0.021848211,-0.06488195,-0.012872469,-0.0010744598,-0.0045756777,-0.015079177,0.026024008,-0.0536015,-0.038744487,-0.028452786,-0.090719976,0.01039309,-0.10898098,-0.002709055,-0.034104235,-0.006009653,-0.019703781,-0.10593693,0.027511278,0.0015584576,0.004181125,0.015269859,0.02595577,0.032897923,0.06475449,0.020230759,-0.006344244,-0.036599547,0.022229737,0.064946055,0.031199565,0.013335532,0.017231846,-0.012845845,-0.047850993,-0.0040812236,-0.08498593,-0.07767172,-0.043463614,0.028658822,-0.02442196,-0.032741945,-0.029143885,-0.027087674,0.030339442,-0.014316982,0.00016432686,0.0785452,0.022558382,0.019503571,-0.110092305,0.005000133,-0.084253885,0.03529274,-0.08124334,-0.0132284155,-0.04742566,0.03535935,0.06752171,-0.00097333116,-0.01218894,0.03499413,0.0023169902,0.038067624,-0.017712284,-0.07074907,0.015983518,-0.0181669,0.07652274,0.0030608883,0.0132580325,-0.09289761,0.02309431,0.064905666,-0.024353253,0.023729313,0.028610013,0.018565489,-0.06377999,0.02575571,0.0013708359,0.058345363,0.022414621,0.019783838,0.16475777,0.09368666,0.01866623,0.0007369127,0.046496384,0.10449942,0.061408855,0.054585643,0.025484089,-0.000381271,0.010963511,-1.07076904e-32,0.014003932,-0.010409707,0.040441163,0.09246851,-0.010276143,-0.033283528,0.020461634,-0.059554677,0.037469953,0.059225593,0.012037577,-0.03805609,0.038595483,-0.08623689,0.055946834,0.038432065,0.02898386,0.017978998,0.043340296,-0.037703775,0.0234759,0.058207206,-0.094334,0.0055661723,-0.0027566634,-0.04952084,-0.024023468,0.040490318,-0.08355506,0.043495383,-0.032292843,-0.05918244,-0.0260169,0.09973912,-0.050330304,-0.0021975366,0.07096011,0.06456207,0.007701168,0.0055626985,0.040141676,-0.007660044,0.04564228,-0.0027918532,-0.043921888,-0.11912432,-0.0021802587,-0.06773764,-0.0038484687,0.05056025,0.12584183,0.07891848,0.02809553,-0.08060857,0.015216485,-0.019238448,0.034941945,-0.07658096,-0.031357683,0.07021722,0.109403044,-0.020555342,-0.10114598,0.05316113,0.075397775,-0.0182511,-0.0001721268,0.0362061,0.038091004,-0.030721975,-0.04616899,0.022693718,0.035135917,-0.03408248,-0.04460121,-0.015579506,-0.1122417,0.09464693,0.08255451,0.0054166634,-0.018248294,-0.093882374,0.040365715,0.04622287,0.041332126,0.021972433,-0.02132099,0.016376982,0.06805489,0.049647532,-0.0013185649,0.05993725,0.026320802,-0.048430767,-0.06820812,-4.5349925e-08,0.027285684,-0.072664544,-0.019783054,0.02786049,0.11279709,-0.026545871,0.055705182,-0.03212888,-0.046434935,0.0153864715,-0.0069795786,0.032678306,-0.037373666,0.0471712,-0.04349249,0.008666617,0.0078196,0.11964134,-0.016374322,-0.065153874,0.12362421,-0.021210922,-0.06944259,0.021409541,-0.011202331,-0.03219462,-0.0077926996,0.14330132,-0.01939484,-0.04996462,-0.068090655,0.016431842,0.045441628,-0.08238674,0.073621936,-0.008337255,0.045868356,0.06542639,-0.036990203,-0.011067121,-0.023151856,-0.02238089,0.029604083,-0.011001225,0.027913434,-0.0008001951,-0.06981899,-0.033962995,0.0028058982,-0.046906646,-0.00019988787,0.005226896,0.06427863,0.0592806,-0.0029890712,-0.009031676,0.017224481,-0.020072823,-0.08678688,-0.0031707117,0.04711104,-0.007596048,0.03900709,-0.0021791954
antonio@bullynutrition.ind.br,-0.05997526,-0.0008830431,-0.04963205,-0.054478295,-0.06191062,0.045871075,0.015357856,0.042102005,-0.044590916,-0.04106548,0.070794135,-0.09118874,-0.007488165,-0.0441621,-0.010373347,-0.021832708,0.0525019,-0.038012028,0.060849134,-0.007157289,-0.007008078,-0.0033524192,-0.022191964,0.061785277,-0.020467926,0.016556794,0.07673091,0.016718406,-0.040232033,-0.09425327,-0.072010055,0.079781316,0.0499653,-0.004043223,0.034928687,-0.0919749,0.047011975,-0.116829395,0.060032256,0.015290352,-0.05503637,0.037002392,-0.051331174,0.008871942,0.046934236,0.044209044,0.031100746,0.072408624,0.033889703,0.016390555,-0.030219827,-0.018829372,-0.022811325,-0.060180053,-0.07599189,0.05777164,0.0035670898,0.044765037,0.087774344,0.045219164,0.050132338,-0.051876284,-0.026153345,0.07493499,0.044141524,-0.04237143,-0.057859983,0.0014731789,-0.10254295,-0.046199724,-0.00020336214,-0.055373043,-0.004926031,0.0063755615,-0.043755334,0.05586931,0.06702703,-0.096869394,-0.008486321,-0.047412373,-0.05094406,-0.0005899467,-0.05992232,-0.007997501,0.0188588,0.0028477474,0.030758962,0.029443424,0.06761585,-0.059532017,0.044971224,-0.020388192,-0.087576985,0.022545433,-0.120626256,0.001702699,0.027552485,-0.018265562,-0.020642025,0.059271608,0.019016633,0.028583867,0.037225854,-0.08536249,-0.09004053,0.024599563,0.006829236,0.057380386,0.07126257,0.08309659,-0.08009758,-0.026955776,-0.088950664,-0.1202033,-0.09004164,-0.014310554,0.017070426,-0.0071793385,0.073118724,-0.05048816,0.0031036893,-0.05279863,-0.006046131,-0.009494519,-0.09252266,-0.09683902,0.0436289,1.1213908e-32,-0.007586418,0.0039919317,-0.061666343,-0.007855401,0.060943265,0.023875138,0.07363251,2.1735823e-05,-0.035597514,-0.0041547506,-0.060405396,0.019498449,-0.047403406,0.027052877,-0.0027670236,0.026588496,0.04756775,-0.0705437,-0.017907092,-0.03517466,0.010063676,0.07744792,-0.0070596724,0.06312191,0.011606996,0.018081633,-0.014329282,0.008918869,0.06808393,0.027781654,0.05964191,-0.03794537,0.029759793,0.016996708,-0.019243708,-0.03626865,-0.047699075,-0.048226286,-0.0012591428,-0.008544428,-0.088880196,0.04577696,-0.02360189,0.018029422,0.0057577137,-0.0031264117,0.013194025,0.06813749,-0.014972576,-0.05294044,-0.13529314,-0.009702801,-0.07505346,0.1154144,-0.043420974,-0.108187765,-0.038946748,0.024281649,0.076800406,-0.014345926,0.07768457,0.098614424,0.015927177,-0.000103633916,-0.06126045,-0.01877911,0.025739426,0.010303716,0.07387068,0.009397044,0.0067720986,-0.023269953,0.097571254,0.02813057,-0.022854183,0.03211577,-0.0642359,-0.016530428,-0.044146474,0.04564673,-0.023725132,0.052136585,0.026305825,0.08725905,0.080648646,0.09174675,0.03503858,-0.024824064,-0.02580585,0.07376249,-0.013220221,0.08731117,0.06750457,-0.061516814,0.0644372,-1.04848726e-32,0.013883583,-0.022043267,0.019757554,0.0553413,-0.009384378,-0.0028829477,-0.029907402,-0.076316275,0.0021415802,-0.018898794,-0.030019227,-0.044175714,0.010128118,-0.033729844,0.0003188252,0.046181932,0.036828388,0.024116486,-0.0013585049,-0.05807887,-0.016929505,0.034337975,-0.04601166,0.023088729,0.009414754,-0.010279173,-0.027781667,0.032411475,-0.041751668,0.049484245,-0.030911183,-0.0653377,-0.012946208,0.13798928,-0.047688566,0.050315812,0.04561682,0.08064989,0.03588478,0.07780541,0.050134942,-0.051886544,-0.0018818572,0.046329252,-0.02851421,-0.15053536,-0.046050567,-0.113367654,0.035665102,0.0213086,0.082309686,0.04613065,-0.034911327,-0.0589563,-0.04730677,0.017265107,0.0046360097,-0.01155531,-0.07292912,-0.016605653,0.033004776,0.03176826,-0.07484577,0.10418693,0.10826397,0.06676843,0.042093705,0.033672713,0.026598867,-0.04728914,-0.0010494039,0.03965678,0.028069839,0.011781552,-0.05388478,0.020345457,-0.008915536,0.06830805,0.08819682,0.026909957,-0.0093081845,-0.08142276,0.079019934,0.0299001,0.046885934,0.003228525,-0.03647265,0.009568196,0.022302251,0.05797614,-0.05537094,0.033931624,0.04127111,-0.059981547,-0.027059175,-4.2625256e-08,0.034046516,-0.05473633,0.014209708,0.064183444,0.1099479,-0.0034339642,0.05147035,-0.01549843,-0.043475095,0.0656752,-0.018317755,-0.041761175,-0.05948372,0.022174368,-0.050665967,0.0014700091,0.040408567,0.09814713,0.008661661,-0.05538312,0.077996254,0.031172495,-0.03490919,-0.016461289,-0.038917493,-0.017263286,-0.01450568,0.10320278,-0.0026193913,-0.05906484,-0.02603063,-0.03789349,0.02377921,-0.09010507,0.060725108,-0.046670504,-0.023415478,0.017621638,-0.11299893,-0.027119001,-0.056433916,-0.09276387,-0.07678812,-0.025453605,0.066742465,-0.002792605,-0.05560034,-0.037784625,0.049528554,0.015136105,-0.039786354,0.005870934,0.077677175,0.032121558,-0.0043692016,-0.05006237,-0.024081897,-0.012807758,-0.030371219,0.037204877,0.022727031,-0.06437149,-0.052165437,-0.026053267
thiagmed12@gmail.com,-0.10285083,0.0013666728,-0.072615266,-0.067509934,-0.050005507,0.014663727,0.04561342,0.12568429,-0.0659815,-0.049066033,0.08270628,-0.025887417,-0.1074084,-0.06566318,-0.038529992,0.011863222,0.026263297,-0.017236415,0.030790932,-0.037996963,-0.0050890613,-0.024450785,0.000951209,0.09512532,-0.09440054,0.013667755,0.004450729,-0.00038989217,0.0019133465,-0.041966613,0.050491255,0.07573495,0.06268143,-0.008474,-0.021556241,-0.04585746,-0.02386861,-0.148762,0.016347207,0.0031847674,0.0015983079,0.00812734,-0.025192639,-0.032470796,0.04154659,0.04111672,-0.0069576064,0.091357745,0.013177684,0.039474968,-0.104578644,-0.09028629,-0.01563751,-0.08151523,-0.05514947,0.06474579,-0.0027828487,-0.02423231,0.05962762,0.03409686,0.06508824,0.013470862,-0.048417814,0.086254835,0.004235152,-0.0028140934,-0.0011591827,-0.02151002,-0.013326046,-0.010729191,0.056008697,-0.08444026,0.015405586,0.026230114,-0.041528035,0.020094365,0.03703582,-0.071699075,0.07405107,-0.060142845,-0.068560876,-0.0060000867,-0.03667074,0.026541619,0.040846832,0.024074253,-0.04673386,0.047381327,0.06222729,-0.046735667,0.020679995,-0.037728146,-0.06314227,0.0058372635,-0.12936495,0.021445688,0.05383385,-0.059143316,-0.08951289,0.050349437,-0.03824005,0.03142508,0.038148265,-0.057880554,-0.068394616,0.038046144,0.0020233681,0.07988242,0.027752465,0.102399334,-0.09598915,-0.03100615,-0.09625563,-0.09711495,-0.011514981,0.012673539,-0.024325842,0.03733457,0.123986624,0.0074387104,0.018999405,-0.067163505,-0.003368384,-0.08381047,-0.08423397,-0.10621207,0.031100845,1.1984518e-32,-0.02331833,0.006056064,-0.037501212,-0.006447229,0.0072170827,-0.050326835,0.026368659,-0.05944781,-0.011032698,-0.0040126294,-0.026467439,0.03424234,-0.09843257,0.033642143,0.046305448,0.004548047,0.015402071,-0.04111296,0.06386021,0.016265158,0.0107477605,0.08322025,0.010373389,0.050561823,0.027058605,-0.004534783,-0.0077551017,0.013441834,0.01713226,0.05812845,0.05732224,-0.015961321,-0.013493288,-0.049925517,-0.027114559,-0.017289367,-0.11137909,-0.12052017,-0.0010927477,0.058068246,-0.013343394,-0.010221005,0.005428782,0.008864227,0.012397847,0.0111618955,0.017006077,0.05849697,0.03897006,-0.010877219,-0.119683854,0.013544791,-0.011490816,0.05668199,-0.079757884,-0.07055105,-0.03946195,0.023699613,0.066326246,-0.015369938,-0.011451722,0.03736064,0.063386135,-0.008961932,-0.018331569,-0.06590841,0.038150847,-0.042330846,0.0034623418,0.027474768,-0.0062145786,-0.037065543,0.050844394,0.001887622,-0.03514544,0.022395145,0.041726347,0.011374288,-0.11051928,0.031985275,0.004806175,0.08573814,0.0127844345,0.03938738,0.10590965,0.08592724,-0.008710297,0.02461596,-0.014071438,0.08868863,0.032153722,0.045325547,0.040234786,0.023640245,0.04340374,-1.1605081e-32,-0.070229925,-0.017255051,0.045936685,0.06199335,-0.010389545,0.037783694,-0.020584999,-0.03337778,0.015881946,0.016089818,-0.022000406,-0.0070922463,0.030884894,-0.08059131,0.01735663,0.07397143,0.012784066,0.040719043,0.0142312115,-0.07288268,0.08769291,0.08080848,-0.01027277,0.010634473,-0.0070328745,0.0024074595,-0.074504815,0.04963763,-0.02975878,0.030178413,0.046646453,-0.07798269,-0.049137782,0.078631654,-0.054116815,-0.047931682,0.022223936,0.082527354,0.040041715,0.05221816,0.0740513,-0.0006674968,0.05570266,0.015050808,-0.0061952355,-0.11271708,-0.042729102,-0.13757548,0.058034733,0.03589177,0.047143236,0.04419307,-0.019629445,-0.08230311,-0.053514972,-0.011000187,0.030117016,-0.04184903,-0.06506053,-0.0046775923,0.017190885,0.021943301,-0.0814766,0.06914827,0.06720199,0.018698819,0.030446885,0.0062122555,-0.0018313131,-0.01501956,-0.046968166,0.05118122,0.07161365,0.025076907,-0.03895653,-0.002328173,-0.03233907,0.011349264,0.042914554,0.005909291,-0.018443078,-0.076281756,0.0702574,0.021906406,0.04332241,0.0067963284,-0.07567396,0.047462616,0.027271675,0.01089276,-0.011887672,0.04996242,0.001796384,-0.069690265,-0.039988298,-4.7360448e-08,0.050778218,-0.06368587,0.01787698,-0.0006573057,0.08262779,0.013376363,-0.023338277,-0.09469911,-0.028574307,0.03994356,-0.034452956,-0.01155693,-0.015249406,0.0490587,-0.07206375,6.481404e-05,-0.004134783,0.10483863,-0.00017332734,-0.0849947,0.1429214,-0.044261727,0.022394702,0.03309023,-0.06763743,-0.0031786987,0.018299347,0.10664517,-0.03487369,0.014636239,-0.048925698,0.033996217,0.08884236,-0.031747267,0.050147608,-0.036801558,0.0060863714,0.06361387,-0.110894464,-0.003820643,-0.018319901,-0.042857386,-0.03195219,0.021687761,0.060593326,-0.011707264,0.032439426,-0.039336886,0.019232808,0.02190785,0.02196351,0.00025539089,0.06276822,0.03081467,-0.05063353,-0.035093956,-0.013156926,-0.002350026,-0.046814613,-0.05178646,0.034078192,-0.1233658,-0.017090233,-0.0133975735
nicolasmonteirofotografo@gmail.com,-0.108345464,0.028471524,-0.03740242,-0.064147756,-0.08254039,0.00975757,-0.007895314,0.08061484,-0.054216925,-0.08869988,0.086278506,-0.035043612,-0.023599397,-0.033616588,-0.06311891,-0.0013849251,0.08567314,0.02959094,0.07604786,-0.043438077,-0.029440803,0.0017430951,-0.0045017055,0.05801237,-0.03819972,0.019271689,-0.0022776688,0.038700808,0.03359548,-0.058279555,-0.0012909406,0.09602035,-0.004411341,-0.01593719,0.034850433,-0.05638379,-0.019098055,-0.10596107,0.070760734,0.03215772,0.006838535,0.033825506,0.00072677433,-0.06668273,0.04699999,0.032992333,-0.012563507,0.0941208,0.04564226,-0.007894803,-0.10957293,-0.023244394,0.012897643,-0.05454984,-0.03678276,-0.006284662,0.018644745,-0.0322795,0.053957827,0.055028196,0.027231999,-0.013407619,-0.05495652,0.06708052,0.024280388,-0.039467067,-0.04848535,0.024833204,-0.072761975,0.0056978203,0.025806507,-0.073914506,0.021331256,0.024714772,-0.030793993,0.02930638,0.0434308,-0.08922742,0.008077349,-0.03391823,-0.07047899,-0.018754506,-0.05406769,0.01887222,0.031032298,0.020343183,-0.014783847,0.046907112,0.09403772,-0.055919662,0.00878739,-0.018156568,-0.091227196,-0.0013878826,-0.108037785,0.04895181,0.054405116,0.009785628,-0.044172715,0.068961345,-0.03983109,0.0027568736,0.045536324,-0.10044715,-0.08622505,0.025867928,-0.00049117726,0.076389246,0.059516862,0.09160945,-0.07037168,-0.0067830337,-0.101073705,-0.12353278,-0.07064313,-0.022033146,0.035126403,-0.007881198,0.06117963,-0.009380033,0.045902688,-0.022337962,-0.03956111,-0.04357678,-0.06740114,-0.062388267,0.098249994,8.5449035e-33,0.0012364411,0.0134150805,-0.04150794,-0.010849154,0.057396777,-0.042953655,0.01866667,-0.054063194,0.012478874,0.031593967,-0.015635878,0.026132096,-0.10377753,0.017162181,-0.017713645,0.023354542,0.02267562,-0.08750146,0.038597856,0.015473929,-0.02187339,0.046325654,0.027643606,0.08261966,-0.016808247,0.032416075,0.005782245,0.012328412,0.003822059,0.05820444,0.08443468,0.0139104705,-0.028896922,-0.0036033427,-0.04300708,-0.050505817,-0.13463476,-0.09574827,-0.047056776,0.032797202,-0.042350866,0.0029630023,-0.034661658,0.015044279,0.050210528,-0.031982645,0.032005817,0.08955343,0.037303086,0.038607165,-0.083514065,0.01888282,-0.06633286,0.09368943,-0.0682021,-0.06254807,0.00010474399,-0.015844785,0.0665623,0.01933281,-0.0071162772,0.09656253,0.037985377,0.008964767,0.00010280142,-0.063422605,0.026502417,0.010281525,0.05073233,0.0025126224,0.036483873,-0.06386047,0.02282715,0.06273855,0.0050527854,0.03338564,0.007433238,-0.02211086,-0.024152419,0.038353875,0.026884418,0.06489226,0.0061333375,0.042056873,0.0352389,0.09313243,-0.0035158736,0.013037202,0.02003925,0.09891006,0.024376113,0.030415433,0.038866032,0.024703803,0.008821206,-8.1204105e-33,0.033088636,-0.025045708,0.07833207,0.07441116,-0.011270041,0.011976687,-0.060570426,-0.007652844,0.013644587,0.018457199,-0.023996059,-0.033461243,0.0030629102,-0.01804226,0.010643076,0.11762645,0.059670962,0.056268003,-0.036200345,-0.042760614,0.07200201,0.10754262,-0.029521262,0.050191257,-0.031018268,0.029677533,-0.023021823,0.02375906,-0.0734863,0.036967196,-0.020601254,-0.07697712,0.0021873785,0.06428329,-0.02200926,0.01747032,0.07541559,0.10251187,0.015886718,0.030229537,0.044542402,-0.014177034,0.02081223,0.06527098,-0.04862792,-0.12217103,-0.051152013,-0.08407557,0.018401897,0.040110197,0.08347144,0.051917896,0.00029466592,-0.10735625,-0.036675386,-0.009198438,-0.000878045,-0.051796697,-0.09433708,0.042791385,0.055852823,0.063904494,-0.107591145,0.079222426,0.10160238,0.049828,0.025231745,-0.043128345,-0.04254463,0.0070772255,-0.05533026,0.043160997,0.075549,0.0016957131,-0.025138617,0.018698903,-0.02716197,0.0078048822,0.034923505,0.0011260024,0.001236773,-0.12284642,0.07395887,0.03708524,0.019104738,-0.012526634,-0.105564505,0.01876273,0.08914932,0.041541066,-0.025920045,0.06787368,-0.012253153,-0.07067588,0.0071411585,-4.1284707e-08,0.07056337,-0.055102676,-0.024825346,0.0015638318,0.050077472,-0.020322021,0.007219751,-0.062095754,-0.0070612654,0.09010344,0.0050949943,0.0128833,-0.052562423,0.0421851,-0.0654416,-0.019857887,0.0136347385,0.071902856,-0.031872,-0.09312266,0.11404859,-0.020046119,0.025548387,-0.017877521,-0.05582197,-0.04976637,-0.03075932,0.11054464,-0.01074969,-0.02462285,-0.028553009,0.01971739,-0.004925324,-0.0884082,0.04594127,-0.034206614,-0.040554874,-0.030950546,-0.092202045,-0.012964258,-0.04492686,-0.042267334,-0.053272568,-0.021942174,0.035224,-0.0013622518,-0.047405243,-0.012509766,-0.0066412236,0.0043700775,-0.014522153,-0.04147935,0.08389861,0.021498198,-0.07459452,-0.0518351,0.02217234,-0.019644747,-0.037954174,-0.034729145,0.013069213,-0.09073888,-0.014605354,-0.013641183
beatrizrybandt@gmail.com,-0.05659934,0.050452854,-0.0049396837,-0.058085326,-0.13350621,0.003682691,0.074065536,0.07678698,-0.03235034,-0.005630027,0.024278864,-0.048858106,-0.029836278,-0.03989755,-0.13190204,-0.003161951,0.0018379564,0.024535483,0.04741162,-0.056078568,-0.0100310445,-0.05337916,-0.02271983,0.07647561,-0.06820542,0.02317976,-0.023867471,0.024515165,-0.072424464,-0.10068031,-0.088171445,0.008325379,-0.03668508,0.022663632,0.0016827711,-0.025660474,0.011118533,-0.11799988,0.008463944,0.032451697,0.019989049,0.02615702,-0.03309091,0.025183924,-0.009061443,0.09179027,0.022915144,0.062259525,-0.03819696,0.03152442,-0.10189773,-0.05937888,-0.013907115,-0.09031289,-0.023853967,0.09521943,0.026187066,0.051353376,0.032030698,0.017589623,0.063072376,0.0028405932,-0.06100044,0.04923176,-0.014278361,-0.021999126,-0.027596146,-0.02004539,-0.121654645,0.0016692325,0.0680838,-0.05221886,-0.009570836,-0.016752359,-0.00219831,0.056126397,0.05377235,-0.072820745,0.02660073,-0.04613426,-0.09224443,-0.018060366,-0.038432606,-0.026026072,0.003953107,-0.0044718008,0.0362822,0.015968727,0.11212176,0.007471741,0.06819707,0.008720041,-0.06128185,0.030514993,-0.11147625,0.041269656,0.027683554,-0.0020348348,-0.029427523,0.05005425,-0.004190006,0.041814525,0.025027612,-0.008065821,-0.0236626,0.062616736,-0.0081465915,-0.030876406,0.004831518,0.05356422,-0.06214958,-0.00087427703,-0.06574682,-0.10760283,-0.046349607,0.003073523,-0.06657004,0.01548522,0.06702161,-0.09924865,0.044951815,-0.08489624,-0.032986585,-0.0055757375,-0.13234109,-0.07151548,0.02170423,8.227387e-33,-0.06194749,0.040804826,0.02192976,-0.036730632,0.021743018,-0.032793052,0.017445615,0.00198119,-0.035583608,0.027458787,-0.09683808,0.03188308,-0.10805503,0.017620709,0.025654411,-0.034828395,0.074805744,-0.022183772,0.030237045,-0.018858025,-3.193158e-05,0.04801609,0.011415899,0.009583953,-0.03065914,0.06545467,0.0325009,-0.043191496,0.083725736,0.04639717,0.044038504,-0.013591936,0.046593323,-0.0013590024,-0.07945373,-0.046188474,-0.06360723,-0.046237815,-0.0030651249,0.0063998094,-0.025341636,-0.0129883,-0.006209356,0.025040718,-0.022578506,-0.02837824,0.020659495,0.064057805,0.047258563,-0.026569659,-0.08203325,-0.054407015,-0.007429131,0.095678546,-0.031825542,-0.042013608,-0.044176813,0.029187597,0.07038404,0.0032717302,0.048998293,0.061201964,0.08746748,-0.0105662765,-0.0006918671,0.048214998,0.06419722,0.011046893,0.027585449,0.025101874,-0.030745367,-0.0446519,0.045543246,0.017438775,-0.009621787,0.02644592,0.03175396,-0.044654243,-0.037112113,-0.0030169096,-0.059589833,0.04096083,-0.028666116,0.034868915,0.055522777,0.09005354,0.023547009,0.051994104,0.049743403,0.17686082,-0.027424028,0.04271575,0.034455378,0.01055606,0.015230156,-7.8062075e-33,0.030084489,-0.08900008,0.019339284,0.05855331,0.009125342,0.010406282,-0.040017366,-0.016898485,-0.0020421357,-0.0034230459,-0.071833484,-0.043079395,0.012533589,-0.017779667,-0.011268543,0.00636538,0.021922434,0.058357168,0.0038356185,-0.06171864,0.0028021408,0.06391781,-0.05975747,0.06546761,0.0020370337,-0.025754614,-0.03462919,0.03702964,-0.11880929,0.021655923,0.020005254,-0.07867733,0.008047887,0.11258197,-0.11180391,0.073770195,0.09174845,0.09037486,0.048213247,0.060574528,0.025110062,-0.043217428,0.052705135,0.06113446,-0.017480342,-0.04743896,-0.07411541,-0.06638635,0.027082378,0.092662305,0.08752855,0.058416996,0.015211417,-0.09404217,-0.04309221,0.037771933,-0.04124786,-0.058417186,-0.030786915,0.042770047,0.043042544,0.016203597,-0.0767946,0.061044257,0.078171134,-0.0016175585,0.049330413,-0.018444689,-0.033468463,-0.042074587,-0.009025306,0.09060724,0.024908641,-0.004842429,0.004161946,0.06288883,-0.04539774,0.040189363,0.08969333,0.02711492,-0.0019302946,-0.030168237,0.08216141,0.02952786,0.009632196,0.016154297,-0.005913613,0.082459345,0.033371817,0.0047549736,0.026502848,0.015010399,0.06745723,-0.08376393,-0.014264095,-3.6606387e-08,0.10284338,-0.010256336,0.022218429,0.0045094406,0.060456697,0.015265905,0.026271652,-0.006735073,-0.060837366,-0.018302776,-0.0074171615,-0.068223596,-0.049646966,0.06726662,-0.07988363,-0.01432221,0.019688746,0.0895983,-0.007064613,-0.035760764,0.074525654,0.03245353,-0.014046497,-0.008433853,-0.05279459,-0.04434018,-0.010232627,0.076025926,-0.075435065,-0.043487072,-0.022066273,-0.0067879986,0.028031474,-0.03807087,0.09653811,0.016917832,-0.09086876,0.061284393,-0.063303284,-0.017769314,-0.041862454,-0.04144442,-0.020095024,-0.025315914,0.014559433,0.041439004,-0.0975292,-0.046733834,0.026222805,0.09523696,-0.014611327,0.036534503,0.055830855,0.027038082,-0.051897667,-0.00640134,0.023872612,0.016980149,-0.08507028,0.00598484,0.052479953,-0.10341321,0.012919814,-0.022534546
teste@pandorium.com.br,-0.1012633,0.03305587,-0.032408286,-0.045556355,-0.11304529,0.027352229,0.032041263,0.12758054,-0.05605554,-0.06208259,0.040243022,-0.041161325,-0.03405052,-0.04035792,-0.07358214,0.025922008,0.1295908,0.023588223,-0.021071674,-0.044645708,0.01728916,-0.040113848,0.0076276953,0.055730537,-0.05146108,0.02002749,0.0036591566,0.028900195,-0.0043092314,-0.054810088,-0.023479553,0.07363469,-0.0022099363,-0.004902688,0.037506167,-0.07635853,0.0014931322,-0.074422576,0.043482106,0.03048194,0.02932321,0.04239208,-0.028200896,-0.042530783,0.02059667,0.064888135,-0.010650877,0.09557448,0.052143652,0.02638925,-0.08630131,-0.04691717,0.0011959033,-0.06767006,-0.005483117,0.028893858,0.010645824,-0.036442544,0.031830672,0.04893447,-0.02089665,0.011736306,-0.04320303,0.066768765,0.018195914,-0.032266907,-0.066595405,-0.03641129,-0.037649717,0.0068129883,0.041947976,-0.031437527,0.05602264,-1.9570954e-05,-0.065791845,0.041891027,0.13196538,-0.10816842,0.004524691,-0.046862658,-0.053046368,-0.033375323,-0.058642082,-0.008585402,0.041768894,0.022998607,0.01802064,0.06378881,0.12922348,-0.02139625,0.05811355,-0.038303,-0.048806064,0.017390737,-0.122716375,0.009303957,0.046488903,-0.04547926,-0.042935852,0.054686315,-0.026133334,-0.047016256,0.06711218,-0.04947436,-0.06381754,-0.0153349005,0.01560513,0.041356966,0.038125448,0.0665158,-0.04267195,-0.027583597,-0.06852715,-0.091023594,-0.07369658,0.01895177,0.024551159,0.010850073,0.055501316,-0.07898267,0.03915936,-0.053073112,-0.010010059,-0.028225234,-0.13551432,-0.10477965,0.02680051,1.2581836e-32,-0.020555392,-0.011345289,-0.030628286,-0.034475826,0.002747952,-0.019734764,0.031158002,-0.045557816,0.010517944,-0.01961187,-0.08294103,0.037904784,-0.073668785,0.0515748,-0.016911244,-0.009848139,0.04262165,-0.06920973,0.04015441,-0.012408968,-0.036675688,0.042479463,0.016085995,0.06671649,-0.037200734,0.05601574,0.042076126,-0.023531714,0.069804765,0.048181973,0.031980563,-0.017038194,0.03062978,0.0336962,-0.021061292,0.033045813,-0.13289636,-0.07551388,0.009935679,0.012891713,-0.05154481,0.012375866,-0.0359325,-0.016821843,0.057466507,-0.06828152,-0.012910053,0.07560368,0.052026715,-0.01415678,-0.064917386,0.03104675,-0.020135676,0.10013218,-0.13152073,-0.03811063,-0.025895402,0.003248984,0.09092344,0.027320866,-0.039696407,0.07621378,0.049120545,-0.017443324,-0.035866752,0.00279567,-0.00882628,-0.04868627,-0.011025199,0.048771065,-0.001392468,-0.019104946,0.051567126,0.023499338,-0.0024169607,0.035945494,0.07032041,-0.027519435,-0.035430092,0.02776568,0.011990217,0.09746523,0.038273033,0.035931047,0.052294493,0.09054271,-0.042538192,0.049217027,0.011450473,0.107763305,0.03936683,0.0474675,-0.013496031,-0.0033825822,0.045368757,-1.17186876e-32,0.006189456,-0.024384633,0.06693466,0.05804583,0.008880559,0.028500117,-0.03693852,-0.005595426,-0.013117064,0.044549834,-0.02915303,-0.03668519,-0.018108156,-0.048125263,0.0076079033,0.034695424,0.03257847,0.08693421,0.01446092,-0.04957535,0.04669665,0.113435306,-0.045575093,0.019472688,-0.01108481,0.014278769,-0.054336272,0.035101153,-0.08045255,0.038256634,-0.011217727,-0.0770745,-0.034237243,0.08758197,-0.048330568,0.04344861,0.057824228,0.106485225,0.037165187,0.04745411,0.005504514,-0.016997553,0.05913275,0.049922578,-0.001784278,-0.0892716,-0.066595614,-0.08435953,0.038100623,0.05629944,0.020157961,0.02802724,-0.003912108,-0.08889891,-0.046555635,0.0040629017,0.022458753,-0.07665591,-0.076515615,0.0105193565,0.042174682,0.05679718,-0.06795245,0.01742833,0.06181575,0.057279702,0.057520784,-0.010574759,-0.017922569,-0.060488243,-0.043746434,0.06926095,0.06506157,-0.044687048,-0.0077684605,-0.0004228113,-0.084315345,0.054371014,0.060786225,0.022914467,0.02033362,-0.058003772,0.10609475,0.017250527,0.038611174,0.013145972,-0.077219695,0.063735224,0.036063552,0.031846497,-0.036686134,0.063245684,0.06548107,-0.08735423,0.0020016327,-4.6888413e-08,0.07226202,-0.034158643,0.0032995497,-0.0015105343,0.04374038,0.007975133,-0.028941652,-0.057918336,-0.016524054,0.021303918,-0.013844317,-0.017324893,-0.0739755,0.0143046,-0.13352817,-0.0029420615,-0.02828934,0.047179196,0.0009330996,-0.06444136,0.106266744,0.002244965,-0.025454799,0.0221433,-0.057301722,-0.015960922,-0.06107537,0.10496137,-0.012978447,-0.019975858,-0.025295956,-0.0037947162,0.025487345,-0.04028217,0.0604138,-0.034005757,-0.0467914,0.031225756,-0.08349091,0.00059720257,-0.014450473,-0.044007882,-0.032806452,0.011154429,0.057878964,-0.011213205,-0.09193755,-0.07990288,0.011207751,0.0246659,0.009291516,0.010649138,0.036678012,0.04265852,-0.062536456,-0.06450245,-0.0088253785,-0.048503887,-0.09236029,0.0008560545,0.038074747,-0.12935275,-0.0033398287,0.02569937
diniz.guilherme@outlook.com,-0.09123901,0.07973467,-0.01937276,-0.07804983,-0.06715331,0.020205306,-0.021496706,0.12862673,-0.050126232,-0.070326895,0.056537192,-0.04060275,0.019659657,-0.042228498,-0.10249322,0.01014405,0.030213382,-0.043455046,0.07506688,0.0022991071,-0.057503693,0.00062111474,-0.017207203,0.026917102,-0.083216615,0.05173613,0.09010765,-0.014943651,7.902112e-05,-0.08467854,-0.016581383,0.069129005,0.002386004,0.015526779,0.093887,-0.05570756,-0.015026635,-0.10336652,0.055375632,-0.0061683017,-0.008229126,-0.0024441292,0.0048924615,-0.0065822904,0.030158123,0.0312637,-0.0029743824,0.09352349,0.039099265,0.01670951,-0.116155386,-0.043058872,0.00978881,-0.026767507,-0.010220454,0.053731307,0.0004351645,0.03826904,0.027182804,-0.009225718,0.10392244,0.009027858,-0.08066309,0.05556274,0.043248832,0.024238056,-0.027254978,-0.044435088,-0.074726515,0.0002153174,0.086441725,-0.012429323,-0.034547787,-0.026701285,-0.009778236,0.033605065,0.06346232,-0.07347535,0.020048069,-0.015366799,-0.083852276,-0.03388626,-0.05232585,-0.013594896,-0.0057791537,0.0058203414,0.041924465,0.036915302,0.06967779,-0.050049733,0.03833051,-0.0689014,-0.11363173,-0.012461678,-0.098546006,0.013802557,0.03574975,0.036105722,0.01467895,0.0607375,0.03219591,0.038033623,0.0403112,-0.047005855,-0.059480056,0.08348507,-0.032830223,0.040835295,0.014531363,0.043481294,-0.076854564,0.0106656365,-0.07063302,-0.10471565,-0.033668447,-0.009978395,0.023068858,0.030010186,0.10086519,-0.06180254,0.063714065,-0.008426678,-0.08884352,-0.02876403,-0.108323365,-0.09756419,-0.014563467,5.231832e-33,-0.00597867,0.00023595817,-0.028137544,-0.005512985,0.053430717,-0.022363491,0.03906959,-0.0026571683,-0.036177043,0.044881117,-0.04510833,0.0049258554,-0.08243255,-0.03596119,-0.054448348,-0.001781604,0.011840278,-0.028052494,-0.04691784,-0.0037299993,-0.006002532,0.006315936,0.012883593,0.09611213,-0.005202202,0.0147218965,0.04960572,0.03549804,0.05067104,0.049070477,0.06398649,-0.01995018,0.028606143,0.023876416,-0.044005726,-0.0031013796,-0.09486079,-0.09141608,0.020156601,0.022546189,-0.044124346,0.0353306,0.03371522,0.008024229,-0.013335806,-0.017129464,-0.0121583175,0.020483686,0.025219698,-0.015301189,-0.09641355,-0.0010356766,-0.03407977,0.06985205,-0.04775934,-0.07620648,-0.049042642,0.04294658,0.0772099,0.06121261,0.039210353,0.09657462,0.04803511,0.06423026,-0.011780396,-0.027303245,0.022391852,-0.03332507,0.017839184,-0.035932474,0.011305028,-0.040246658,0.07559502,0.03168293,-0.0010810819,0.04507905,-0.025991146,-0.035288304,-0.07208095,0.002519553,-0.056253735,0.043385893,-0.004982524,0.019339217,0.06566602,0.040858585,0.014245414,-0.033309314,-0.03908358,0.0721109,-0.010629329,0.030155906,-0.0022038496,0.039419718,0.056711905,-5.5271406e-33,-0.01208344,-0.06520621,0.049836792,0.04867264,-0.031332895,-0.021841584,0.010496535,0.056340188,0.013091089,0.023432301,-0.023619933,-0.04185148,0.023624524,-0.006611365,0.009381594,0.10989837,0.072822616,-0.029302778,-0.024793394,-0.04163892,0.06591301,0.09910243,-0.063522086,0.019299686,-0.02243819,0.03759163,-0.04978785,0.010468214,-0.08455016,0.026549349,-0.06053701,-0.055589758,-0.051498882,0.14351267,-0.08760417,-0.019091565,0.09753657,0.04492511,0.06040597,0.0028126992,0.00984747,0.0088014975,0.020510053,0.10655596,-0.044747468,-0.13211131,0.03184953,-0.1347562,0.11953035,0.042139806,0.04059557,0.055479407,0.052275203,-0.023943618,-0.033922985,-0.018754296,0.019113628,-0.05248235,-0.05982616,0.025867058,0.11364425,0.0674739,-0.08787356,0.07144178,0.09063086,0.032198787,0.020511366,-0.030803867,-0.030550014,-0.009897832,-0.012625292,0.08367968,0.06444039,0.028386643,-0.012133766,0.02429933,-0.01457332,0.04514287,0.047731303,0.04003697,0.026583657,-0.12548885,0.051291786,0.069994405,0.04944843,0.029110242,-0.0099824285,0.01714469,0.029698176,0.0142137855,-0.04327684,0.069229566,-0.019101752,-0.08536186,-0.018411817,-3.5837196e-08,0.009455634,-0.061396293,-0.043364577,-0.035087883,0.07668229,-0.068406865,0.02266968,-0.0137755545,-0.024510007,0.023686845,-0.048434462,-0.039870832,-0.04524639,0.03591385,-0.050415225,-0.038619082,-0.02064244,0.07599696,-0.02704784,-0.071326286,0.08019904,-0.03091638,0.04599914,-0.023687808,-0.06655211,-0.009703855,-0.006987233,0.03984978,-0.034969933,-0.024879353,-0.07023816,0.028721955,0.04479511,-0.09479397,0.050205626,-0.030779177,0.0075644115,0.039347813,-0.09424921,-0.04543237,-0.014770384,-0.0688884,-0.046265356,-0.010228872,0.0948633,-0.0075975405,-0.034978256,0.013702911,0.013021641,0.03566537,-0.017109321,-0.021497294,0.06431918,0.020205645,-0.053334348,-0.028636483,0.007073715,0.062128615,-0.04452761,0.01357351,0.019548377,-0.0832109,-0.025815327,-0.028790856
alanfilipejr@hotmail.com,-0.11430888,0.022996088,0.0023518878,-0.039472375,-0.1153413,0.016938997,-0.017372219,0.120473415,-0.10511677,0.011688174,0.049885564,-0.021216445,-0.05553023,-0.043338697,-0.08346819,0.049134403,0.07849714,-0.03489738,0.032109614,-0.047742955,-0.0019039892,-0.012756182,-0.012295588,0.04845411,-0.08287523,0.021097634,0.026087232,0.08373453,0.031370822,-0.08432874,-0.03143979,0.068762526,0.031242289,-0.011238438,0.01919969,-0.04910801,0.027777068,-0.08385197,0.024463108,-0.013661291,0.028892402,-0.028771244,-0.060454465,-0.029346444,0.057561398,0.02794446,0.0019751308,0.061955832,0.067311354,-0.04253126,-0.07086281,-0.060360283,0.04333828,-0.06445252,-0.026354028,0.03984424,-0.013614011,0.038742695,0.003705991,-0.004309751,0.00010487367,0.009167138,-0.06073328,0.019561771,0.036061022,-0.00037199093,-0.04575344,-0.06111638,-0.05151029,0.029356949,0.043342426,-0.039972447,0.066876285,0.027713686,-0.068330385,0.032975357,0.09817314,-0.018563107,0.01567946,-0.057010494,-0.03149778,-0.0047909087,-0.058818445,0.016084787,0.05554505,0.0060573523,0.0041721747,0.029357053,0.09591819,-0.017002035,0.009193709,-0.051240783,-0.05772217,0.03485258,-0.143065,0.013921995,0.044872228,-0.09247092,-0.0042782878,0.06438099,0.011632191,0.006868989,0.028355008,-0.0073537803,-0.047101974,0.06728805,-0.015443076,0.0553331,0.01540113,0.10028344,-0.074290924,-0.028652854,-0.08510063,-0.06659119,-0.076202996,-0.013304865,-0.04513617,0.021870129,0.07285021,-0.07373349,-0.012265326,-0.039446447,0.0388668,-0.04990442,-0.040180136,-0.1650103,0.0181686,7.037187e-33,-0.020747952,-0.016268032,-0.020851167,-0.012000037,-0.023581116,0.0051260097,0.019250212,-0.030134138,-0.021871217,-0.0028376908,-0.07442799,-0.003220187,-0.09250332,-0.0005707395,-0.032873098,-0.017728515,-0.021244096,-0.09780564,-0.00022776033,0.004673036,-0.016678184,0.00991657,0.012355542,0.02578806,0.07541845,0.03458963,0.039006874,-0.010337933,0.032222208,0.061775662,0.010380166,0.03758818,0.020511761,-0.003154801,-0.060557626,0.017738063,-0.10310979,-0.103088446,-0.032883905,0.041518494,-0.013994651,-0.042610742,-0.01854363,-0.04128041,0.012359365,-0.008562606,0.01688898,0.075995974,0.06490283,0.014943005,-0.11210904,-0.0033417966,-0.07891563,0.062301356,-0.10424734,-0.014087534,-0.03456931,0.030792251,0.06920527,-0.02045064,-0.012350542,0.027733767,0.0066812434,0.024013305,-0.030127533,-0.04196842,0.021890273,-0.032557044,0.031887572,0.022806508,0.010000549,-0.07736262,0.05382789,0.06373323,0.0011275685,0.051747434,0.040655613,0.016621416,-0.04286642,0.027873276,-0.011342995,0.0779832,-0.00092776737,0.01783031,0.17193708,0.07185038,0.023466237,0.027992092,0.016406944,0.09374966,0.06299956,0.043810558,-0.020405527,0.028012523,0.018550577,-7.1820824e-33,0.01933274,0.009962559,0.0877217,0.09758562,0.0013094206,-0.0021608544,0.027158631,-0.036635067,0.025235794,0.08116115,-0.010790345,-0.04539632,0.040545583,-0.051467445,0.012515938,0.021837624,0.022876393,-0.002186496,0.059842102,-0.047610983,0.0054832166,0.085473835,-0.096144855,-0.0120940935,0.013687241,-0.044273492,-0.053604923,0.06847742,-0.10716787,0.032821286,-0.050528362,-0.019954192,-0.03845676,0.09958564,-0.029808596,0.0010158736,0.010604845,0.06441016,0.030207096,0.015096286,0.024276478,-0.024019957,0.08446396,-0.013748978,-0.02241871,-0.12440734,0.013729045,-0.08784253,0.0059995656,0.06031338,0.122546524,0.087490104,0.04673744,-0.019686813,-0.005845593,0.0062203715,0.027017044,-0.07428336,-0.010789048,0.072061196,0.13331467,0.017309377,-0.083174035,0.05806957,0.06781672,-0.04185717,0.033193298,-0.0016781691,0.0030764707,-0.046665963,-0.048279226,0.03633689,0.0837547,-0.015277868,-0.015658455,-0.020384463,-0.11057745,0.07235427,0.09388267,0.00085468986,0.007201043,-0.08518333,0.07877475,0.04604568,0.026778297,0.0039834213,-0.039965786,0.019018272,0.06595274,0.04679479,0.00835398,0.061842952,0.011740036,-0.03800161,-0.039292008,-3.7586304e-08,0.052610222,-0.030535115,-0.03897501,0.010912925,0.08769766,-0.061550565,0.010136193,-0.043357935,-0.07449452,0.022696178,-0.02391874,0.0092109665,-0.053277723,0.054911077,-0.0717964,-0.00566549,-0.0143485945,0.08218746,-0.014797171,-0.05933137,0.09176447,-0.011165115,-0.054149393,0.007395454,-0.005648514,-0.015965974,-0.0026866684,0.11652171,-0.0285552,-0.0417024,-0.08249494,0.03880817,0.054273143,-0.072639756,0.066710725,-0.021765614,-0.028144522,0.055217795,-0.040382117,-0.008272379,0.01278883,-0.02739065,0.021618206,-0.02275917,0.028486924,0.029123984,-0.11077027,-0.046116322,-0.024537787,-0.008537701,-0.0067040804,0.0041662687,0.056939512,0.04048043,-0.019642994,-0.012112287,0.0034581092,-0.008338058,-0.087511,-0.013082059,0.019179802,-0.05134501,0.04940511,0.018363945
ygordalosse@hotmail.com,-0.10353063,0.038635712,-0.036407914,-0.058960363,-0.13294677,-0.0021214292,-1.0475211e-05,0.10471226,-0.050235286,-0.022998214,0.060198452,-0.029155375,-0.021398405,-0.029351164,-0.09778997,0.033536643,0.083462134,0.0078010885,0.035855785,-0.048637547,-0.006142725,0.008895407,-0.00608528,0.04978366,-0.031164479,0.008595251,0.038148455,0.025139576,0.029199805,-0.05692946,-0.040484678,0.082024254,-0.0038479487,-0.0016610376,0.027402626,-0.038389664,-0.014528128,-0.070617266,0.0314278,0.002851873,-0.004212495,0.007937348,-0.043030016,-0.047608964,0.022367666,0.057356425,-0.0022090126,0.114771314,0.054683786,0.004613894,-0.07812547,-0.030790826,0.030305702,-0.04627572,-0.017028928,0.026008854,0.0077307476,0.0035394004,-0.0013425066,0.0149199795,0.011374276,0.022859303,-0.08089385,0.060966663,0.04717791,0.0017920539,-0.0341597,-0.025289996,-0.09475325,0.0051028123,0.058779232,-0.049898926,0.0454096,0.03622487,-0.029658202,0.02660187,0.10525657,-0.0785824,0.016504824,-0.034967687,-0.029138463,-0.018972078,-0.073116556,0.0090107,0.036949944,0.018360138,-0.0051593543,0.0659923,0.088267624,-0.062410593,0.061212163,-0.04128156,-0.08156127,0.015822181,-0.09157764,0.039104924,0.02521887,-0.007614694,-0.006625036,0.051477484,0.020939197,-0.0045614764,0.047212727,-0.051449735,-0.08759047,0.04686293,-0.0010988592,0.05167398,0.022893919,0.09770259,-0.078283615,-0.030933846,-0.12372559,-0.10530287,-0.0853346,0.020448273,-0.008381253,0.01728637,0.034383453,-0.074044846,0.030602487,-0.013014945,-0.018602123,-0.03335283,-0.07833767,-0.127986,0.035548132,7.511886e-33,-0.010315516,-0.024719477,-0.056721695,-0.040080894,-0.021194167,0.009863404,0.053266063,-0.05939545,0.021124857,0.0036248977,-0.06882246,0.012460784,-0.09318637,0.0072076395,-0.018196356,0.03511065,0.013276411,-0.057161424,0.0056746276,0.038632996,-0.0421918,0.0295484,0.008240101,0.057881746,-0.014260098,0.04800776,0.024417251,-0.026859578,0.013262752,0.05081782,0.027770102,0.0069781425,-0.01358474,-0.028699046,-0.052847713,-0.02037191,-0.098420925,-0.078920804,-0.004453084,-0.0025624875,-0.06385541,0.037998136,-0.0015104383,-0.04919459,0.055651646,-0.037903294,0.0061700055,0.099303246,0.028720625,0.04295501,-0.093076654,0.009304026,-0.03499341,0.087215915,-0.069360726,-0.04707312,-0.018933551,0.017500706,0.06443651,0.03753987,-0.030629363,0.06378217,0.036584277,0.026215771,-0.045704447,-0.03462824,0.017362365,-0.013067766,0.036093548,0.029407036,0.0101487655,-0.08119706,0.018247806,0.060034122,-0.016645338,0.035445966,0.047635563,-0.03112063,-0.03562969,0.059590887,0.0046810177,0.06823199,-0.004363858,0.019781688,0.12252784,0.090626754,0.0027567395,0.008290349,0.023259416,0.09952975,0.064408146,0.058219593,0.0109902015,0.02713623,0.05223431,-7.86722e-33,0.027578348,0.005773785,0.086338185,0.097319104,-0.008537705,-0.014153293,-0.03996423,0.0039837426,-0.0026968573,0.03171509,-0.036932014,-0.021182762,-0.02406837,0.001214293,0.0043912316,0.058700003,0.05475439,0.029248746,0.017279088,-0.040516026,0.04003735,0.13896513,-0.06590785,0.0029056186,-0.009175643,-0.025688581,-0.03136503,0.04438141,-0.088975,0.028616803,-0.018814642,-0.03890978,-0.035975266,0.11825777,-0.044541858,-0.012216929,0.10354769,0.10221035,0.03803688,0.023105169,0.029793441,0.008940486,0.039893847,0.022000235,-0.070404634,-0.123366155,-0.009483312,-0.105764076,0.028482366,0.019179935,0.07559715,0.069250576,0.06896222,-0.08406256,-0.03537474,-0.018772703,-0.004995871,-0.074868,-0.052227467,0.02926321,0.065869376,0.069337636,-0.08866014,0.06451249,0.073199816,0.026852949,0.041669708,0.0018955976,-0.03492531,-0.024885193,-0.05869887,0.026288534,0.086973794,-0.0042454014,-0.019513542,0.0020618753,-0.07452077,0.050826315,0.11910764,0.025117705,0.0096017,-0.10705353,0.08117291,0.021096623,0.0075311144,0.010674663,-0.07765804,0.0052030957,0.05040494,0.012125962,-0.04155346,0.078924075,0.01805265,-0.08759581,-0.0306353,-3.779388e-08,0.05296675,-0.06700083,-0.0045804717,0.0065866043,0.05481099,-0.02932878,0.0047429493,-0.021205993,-0.029405184,0.07399109,-0.03446872,-0.011405182,-0.052996967,0.020331165,-0.084304415,-0.013984784,0.027300274,0.068361394,-0.030525012,-0.104324415,0.1432948,0.0012713046,-0.029372783,-0.002032837,-0.04194822,-0.0233594,-0.014174245,0.10256999,-0.022663692,-0.026579963,-0.064214095,0.008765121,0.034693893,-0.101093404,0.059101786,-0.033019803,-0.017148985,0.024941666,-0.07177094,-0.029165313,-0.025261097,-0.013984717,-0.0036102103,-0.025479294,0.063738935,-0.013587924,-0.09092984,-0.05767875,-0.0008235755,-0.026827207,-0.015091174,0.0018610061,0.080343135,0.031139832,-0.059878536,-0.028259166,-0.0013554646,-0.009361589,-0.07384198,-0.005598918,0.032573167,-0.108421125,-0.011240075,-0.0010937278
gubferreira@hotmail.com,-0.06324833,0.02093761,-0.05510311,-0.05417865,-0.097617626,0.026789173,-0.0177147,0.011956092,-0.07257216,-0.06792136,0.122082114,-0.0408078,-0.007807739,-0.044093244,-0.022007033,-0.01471743,0.07726789,0.008525007,0.07647145,-0.023795662,0.018705264,-0.020109337,-0.023626685,0.05550876,-0.016726445,0.012981361,0.04012217,0.001364464,0.02168717,-0.046974663,0.0066734944,0.108146854,0.055225566,0.012864261,0.043113407,-0.0018523637,0.038960576,-0.13417272,0.07674652,0.06416222,-0.051233236,0.03047378,0.00035194584,-0.05246894,0.059214495,0.016446304,-0.0072029545,0.05434896,0.00514205,0.019731887,-0.09608254,-0.029169822,0.001119463,-0.08695667,-0.040530954,0.012454795,0.0167183,0.052515257,0.046103846,0.052894995,0.07598411,-0.008485818,-0.048515465,0.08491566,0.04086378,-0.026815213,-0.07722003,-0.022047415,-0.09213494,-0.055662718,0.0501762,-0.08035323,0.048869543,-0.034213528,-0.10961155,0.03773309,0.042936444,-0.06760923,-0.004281746,-0.025008393,-0.041273158,0.008288201,-0.037617415,0.014673822,-0.034612827,-0.0069497474,-0.01832684,0.030897252,0.069499955,-0.020383602,0.0057005277,0.02765178,-0.11880981,0.0618065,-0.0944688,0.005415175,0.014958182,0.012084612,-0.019262135,0.06482632,-0.036217213,0.0284789,0.00752715,-0.06067343,-0.09867599,0.018530354,0.025605837,0.033989258,0.052220814,0.084703006,-0.0750425,-0.02593942,-0.10321974,-0.09437531,-0.044719324,-0.013625724,0.017523665,0.0070987428,0.036739632,-0.014650871,0.03605252,-0.0024658772,-0.024925709,-0.058568794,-0.07622335,-0.055632543,0.10606489,9.052195e-33,0.016404396,-0.010370927,-0.058919813,0.01012873,0.11815601,-0.017689524,0.053468097,-0.06379166,-0.015165324,0.032705385,-0.0077833263,-0.0062428485,-0.087911375,-0.0048997495,0.0141549865,0.067855656,0.015533612,-0.08892446,0.021352362,0.01882777,0.026791023,0.015481702,0.009951326,0.03177394,-0.0057048774,0.033020176,-0.01625904,0.0036377753,-0.005221134,0.050654814,0.07799685,-0.036412064,-0.029652698,-0.009927731,-0.08855897,-0.07185757,-0.06896357,-0.05127881,-0.02069388,-0.00082240644,-0.06854505,0.009800819,-0.0025663387,0.046920203,0.02483844,-0.01522955,0.04850064,0.08527012,0.03232294,0.005615509,-0.124572136,-0.01735078,-0.052876487,0.09799301,-0.031081516,-0.09470654,-0.03936578,0.053171787,0.07213431,-0.028948382,0.07468939,0.045802277,0.025069255,0.001674969,-0.026135221,-0.044894174,0.041658387,0.023323083,0.104504526,-0.045600604,0.042982172,-0.0696525,0.02301812,0.058400847,-0.05004476,0.012150692,0.020338131,-0.0350504,-0.039726842,0.063335255,0.028855678,0.09473069,0.036782764,0.020201918,0.07379586,0.11188535,0.030482942,-0.0023419892,0.024675688,0.13007566,0.0042332467,0.06252373,0.027440896,-0.029381104,0.044763222,-7.796946e-33,0.027135627,-0.014970567,0.0046584364,0.02184048,-0.022417165,-0.030768607,-0.085135184,-0.039285526,0.03628907,0.0030375347,-0.039545354,-0.042955413,0.028834684,-0.025215054,-0.027760783,0.07545709,0.06847528,0.028133472,-0.028286627,-0.046861425,0.023326036,0.09525037,-0.10411093,-0.0012146563,0.011545062,0.025867473,-0.03613491,0.032572873,-0.1012755,0.029835321,-0.0036059914,-0.07105657,-0.0057460964,0.093500085,0.0111593185,0.029059274,0.050962772,0.051201805,0.0031303784,0.07119628,0.039108627,-0.019761652,0.014357072,0.051022496,-0.05520209,-0.07833819,-0.03673827,-0.11901535,0.0038493543,0.0025644286,0.12701413,0.06335095,-0.015570583,-0.079295814,-0.009080873,-0.008661117,0.0042363796,-0.0086804135,-0.053509347,0.02760242,0.070846155,0.02106513,-0.11781926,0.076760255,0.084578514,0.08430656,0.009798654,0.0103866765,0.04365751,-0.005145173,-0.028556285,0.03508557,0.009303938,0.039473914,-0.07980001,0.014955414,-0.066973835,0.074679494,0.050900415,-0.0010867729,0.040228948,-0.08827294,0.074037254,-0.007057876,0.07887405,-0.002820331,-0.044296212,-0.0061971913,0.036814936,0.019999068,-0.025102412,0.029493496,-0.006994064,-0.060293183,0.0007841575,-3.7336747e-08,0.035805196,-0.09713627,0.016272588,0.029854298,0.07304243,-0.011519024,0.045763444,-0.04223522,-0.0019761673,0.038257938,-0.051486157,-0.022394832,-0.019378584,0.06224275,-0.036035683,-0.012444064,0.047804497,0.07531575,-0.02406368,-0.04140245,0.1197673,0.0026760562,-0.030194793,-0.011491378,-0.028237728,-0.010907276,-0.03390235,0.08023698,-0.025141293,-0.06672294,-0.012779089,-0.007156531,0.01700582,-0.09065175,0.020393426,0.034590937,-0.004800032,0.0022980196,-0.11085381,-0.06379929,-0.066111416,-0.078833014,-0.0061375783,-0.03495219,0.022316828,0.016910875,-0.044374213,-0.036933597,0.016115317,0.023886964,-0.058629084,-0.022869702,0.10073648,0.044341467,-0.049001098,-0.06451862,0.02596161,-0.004930489,-0.014164795,-0.004417852,0.022590531,-0.00095259526,-0.02712813,-0.075910605
castro.rodrigo@live.com,-0.09036696,0.029661639,-0.045397345,-0.08728259,-0.06666088,0.022191772,0.0035975713,0.098794095,-0.06656387,-0.06823634,0.09768142,-0.043464955,-0.035583604,-0.024856623,-0.03926501,-0.0036534085,0.080953166,0.026839307,0.07757746,-0.025742583,-0.016067758,-0.015077242,-0.009528289,0.049550626,-0.030623669,0.035862774,0.014761887,0.03399348,0.008826952,-0.053403337,-0.03199126,0.08961837,0.026400141,-0.012189566,0.015324591,-0.07625566,0.0100467205,-0.07963092,0.079513915,0.02566156,0.006453528,0.037232682,-0.008100502,-0.05436505,0.050616946,0.021977391,0.01438101,0.10410349,0.057518624,0.021532705,-0.10405132,-0.0028816739,-0.0020424407,-0.050770495,-0.052447204,-0.00039215217,0.01701104,-0.025860168,0.08603758,0.0639602,0.012582249,-0.030416314,-0.032309,0.08074996,0.04952437,-0.052967492,-0.05483348,0.024535907,-0.08097074,0.007642135,0.006004899,-0.06082047,0.013745869,0.0026496276,-0.046663117,0.058130488,0.031392645,-0.08709728,0.0007839946,-0.04396765,-0.087490745,-0.041219547,-0.07953693,0.022512836,0.02046322,0.03552433,0.018294802,0.017966662,0.088046536,-0.063335605,-0.011440955,-0.032114234,-0.067603014,0.020772472,-0.12752698,0.041354064,0.050747257,0.001430197,-0.041176744,0.073105104,-0.03399933,0.0018610727,0.052847076,-0.09343264,-0.09726604,0.01424814,-0.0137550505,0.067583136,0.07672768,0.08961792,-0.058034476,-0.0023529541,-0.084488906,-0.10855125,-0.077847525,-0.0247189,0.015964251,-0.021200467,0.06919318,-0.004816588,0.055855118,-0.033170998,-0.024767336,-0.03937772,-0.07202776,-0.07849203,0.109721944,9.803465e-33,0.0005515592,0.0010813783,-0.037705794,0.009513757,0.05780517,-0.038051095,0.008246095,-0.021620397,-0.0241746,0.017505378,-0.030245626,0.045865774,-0.10443023,0.0072740717,-0.010848165,0.034638416,0.016424112,-0.086929776,0.052902125,0.0030413636,-0.02244316,0.06084408,0.038126007,0.08178257,-0.011363545,0.03783984,0.016479272,0.009201482,0.014693014,0.06350295,0.08275003,-0.008936444,-0.025781203,0.020231932,-0.025661323,-0.04434144,-0.13954191,-0.09350283,-0.043821093,0.032454416,-0.055719465,-0.018858677,-0.050962143,0.011684673,0.0481027,-0.022118596,0.023706619,0.07519762,0.017666297,0.040191393,-0.08969519,0.019688357,-0.060380135,0.08609111,-0.07303302,-0.09293114,-0.008359925,-0.006704254,0.054170217,0.032651044,-0.009804722,0.10487273,0.028646087,0.018237045,-0.018062688,-0.031493515,0.04201878,-0.0014165592,0.055323265,0.005559024,0.03363018,-0.04362326,0.034830593,0.060580067,-0.008429084,0.040475585,0.0058436166,-0.009045377,-0.034901194,0.034541015,0.006766052,0.07089184,-0.0051289494,0.05707663,0.0066292374,0.09486944,-0.010588647,0.0047203978,-0.0139807975,0.08460011,0.014450052,0.03321022,0.0062264213,0.014892338,0.026788639,-9.199501e-33,0.026827672,-0.047891147,0.065790765,0.071619675,-0.0090162745,-0.010104061,-0.027603488,-0.0090270005,0.013576555,0.022863533,-0.015088796,-0.047863595,0.002811548,-0.008250592,0.027478313,0.09394537,0.07260089,0.0483539,-0.040019434,-0.058906697,0.0867854,0.09246106,-0.026876053,0.07081816,-0.012568644,0.019491743,-0.010717955,0.022103516,-0.08372418,0.032470252,0.0012356554,-0.05784542,-0.019134302,0.101067595,-0.03545782,0.02197425,0.07139813,0.10352863,0.0059880405,0.031634197,0.05797595,-0.021662649,-0.00017215405,0.06519569,-0.037258662,-0.12894733,-0.06545298,-0.068442605,0.05116209,0.046913616,0.08234388,0.062450454,-0.01747861,-0.11863767,-0.031956844,0.0022707756,0.011845418,-0.042855818,-0.09075214,0.03349184,0.04609943,0.04707737,-0.092244685,0.0677516,0.078589596,0.04150478,0.032275826,-0.029848238,-0.0375418,-0.008031752,-0.017951854,0.035730164,0.058147047,0.0016001473,-0.029842714,0.028383702,-0.017308328,0.021921191,0.025619702,-0.003532706,-0.008015022,-0.11270885,0.09309578,0.058964584,0.03905465,0.0060215723,-0.11202447,0.005705131,0.079726554,0.06217691,-0.014878439,0.059848838,-0.021002028,-0.074117035,-0.01605755,-4.562635e-08,0.062391736,-0.057111744,-0.019886773,0.009761598,0.054364182,-0.0014779185,-0.0018469837,-0.0651681,-0.008375262,0.07483278,0.032464717,-0.00066924706,-0.06264704,0.053595994,-0.058645047,-0.02409536,0.0010351512,0.06828809,-0.031991925,-0.08554904,0.089565754,-0.019626407,0.01818972,-0.02298405,-0.04990644,-0.068002865,-0.046786465,0.08741535,0.010496569,-0.023243433,-0.02678962,0.007914449,0.00023053196,-0.10460096,0.048131675,-0.03034212,-0.030867204,-0.022915762,-0.09585996,-0.018984,-0.0334966,-0.04887438,-0.061285134,-0.019065406,0.04543092,0.0008422352,-0.045685355,-0.011443155,0.0020871013,-0.02765967,-0.020004438,-0.026367834,0.08296101,0.024208233,-0.078318544,-0.06400724,-0.0059191426,-0.03083298,-0.035956923,-0.025124647,0.038244803,-0.09008067,-0.024794495,-0.0027912012
eraumacasafotografia@gmail.com,-0.079008676,0.023802353,-0.012814443,-0.03975881,-0.15417188,0.035299867,0.034053493,0.06998084,-0.1198574,-0.047833472,0.056629594,-0.036140386,-0.051600844,-0.03991282,-0.090163715,0.023688767,0.09484619,-0.0063253646,-0.0017492645,-0.022305902,0.03965196,-0.023216516,-0.024278052,0.08965649,-0.083486915,0.040972494,0.018105838,0.05248378,-0.0102018,-0.09024829,-0.027595585,0.086054854,0.034149285,0.026336864,-0.006484648,-0.06738773,0.006381213,-0.13412385,0.06843581,0.059172228,0.019921489,0.01609741,-0.021209737,-0.024493901,0.062472258,-0.0033656033,0.010748498,0.02310309,0.014032397,-0.036526598,-0.09636063,-0.04841727,0.008502464,-0.09607125,-0.022346405,0.033158157,-0.0031861605,0.019976031,0.017416092,0.07143478,0.02956805,7.021962e-05,-0.024579737,0.05201002,0.025621189,-0.042371847,-0.03307532,-0.041640062,-0.058578476,0.0033636638,0.07357811,-0.05997479,0.022811059,0.023277668,-0.085530125,0.042273294,0.10231179,-0.04483519,0.048445977,-0.06573147,-0.037007257,0.0011889561,-0.05028263,0.002123624,0.011113839,-0.009415641,0.0020007838,0.04050477,0.09192139,-0.008107317,0.045563873,-0.015955193,-0.0753908,0.05727498,-0.15107593,0.015318326,0.036814004,-0.111935996,-0.01002537,0.051941577,-0.0062566195,-0.01854524,0.02129649,-0.020074908,-0.076428205,0.040615045,0.040403422,0.033073433,0.043826804,0.10743482,-0.010801587,-0.036493573,-0.06554698,-0.06279218,-0.09080468,0.0049181636,-0.021500163,0.01557531,0.07328982,-0.07316026,-0.013535299,-0.07401564,0.02923837,-0.045744117,-0.059713144,-0.09620741,-0.006372209,1.16211994e-32,-0.0559311,-0.047552176,-0.0013244412,0.009591218,0.024926271,-0.052628763,-0.0058711567,-0.042066175,-0.03388975,-0.04124826,-0.08703559,0.043573067,-0.11344137,0.012943696,-0.01180541,-0.0061860434,-0.0015444298,-0.10270995,0.0007352014,-0.02329151,-0.029148057,0.024682702,0.02576267,0.03548038,0.020925721,0.034260288,0.026907012,-0.051408816,0.048495356,0.05444767,0.060172122,0.033014223,0.050019037,0.031514563,-0.044666883,0.009553912,-0.0908795,-0.06059345,-0.033240832,0.03597173,-0.017937293,-0.037881017,-0.013364402,0.017239086,0.004259936,-0.023005802,-0.008767285,0.093683995,0.041799568,0.018410934,-0.095736496,-0.0008806189,-0.07812177,0.05455753,-0.085710205,0.0059880284,-0.074886754,0.016836062,0.0848123,-0.013591168,-0.029043276,0.03565825,0.024115724,0.021178627,-0.006164132,-0.02808346,-0.0016239578,-0.02978431,0.08515732,0.007484533,0.012653209,-0.07998419,0.025104398,0.071489714,-0.0053934045,0.020910809,0.021670815,0.019358559,-0.07890288,0.042170044,-0.01832796,0.08244606,0.03645326,0.014429533,0.117120594,0.11223191,0.02230324,0.024113053,0.08145932,0.14340194,0.008884104,0.047510613,0.019618263,0.0049290075,0.01447056,-1.0747152e-32,0.03797064,-0.055461485,0.041691665,0.07910695,0.0005618179,-0.016307004,-0.009086685,-0.04705295,0.034395423,0.039173003,-0.005481743,-0.02570079,0.0608488,-0.08086187,0.032957498,0.020809919,0.048453223,0.044794198,-0.009414279,-0.057593334,-0.010962772,0.054742113,-0.11412404,0.02471242,-0.027695596,-0.03530271,-0.05587315,0.021917293,-0.09831529,0.024918512,-0.0018801435,-0.0785944,-0.0111931,0.08660956,-0.05037481,0.03617071,0.0749376,0.046925917,0.006014835,0.067488045,0.014058609,-0.028123656,0.048466876,0.011579906,-0.014045125,-0.08312056,-0.006225408,-0.07862699,-0.012780332,0.07711032,0.1270522,0.067250915,-0.017257992,-0.07049032,0.017380575,0.0064228512,0.025344884,-0.057521954,-0.059772085,0.06867771,0.103652544,-0.010027745,-0.070327036,0.01656776,0.078446925,0.0136047015,0.021162665,-0.0019234411,0.038885374,-0.0494303,-0.012822058,0.059090663,0.020124745,-0.011290251,-0.040380828,-0.017619485,-0.11917342,0.085112125,0.03715152,-0.010826218,0.009042792,-0.069551475,0.05866264,0.05610703,0.047495063,0.02771466,-0.00962438,0.015764443,0.05102491,0.04100021,0.0014250283,0.04764508,0.024144001,-0.04651333,-0.035880018,-4.4316245e-08,0.032741304,-0.023889767,-0.03474836,0.027871324,0.08169037,0.012696571,0.04289745,-0.04593784,-0.021980718,-0.012617693,-0.008351853,0.0015768774,-0.05031679,0.06404643,-0.0829297,-0.0043630507,-0.00932725,0.10209283,-0.0026376022,-0.031516302,0.097826876,-0.012295489,-0.07579488,0.023130413,-0.043801103,-0.042043865,-0.015113391,0.12769176,-0.015801357,-0.05394444,-0.04840069,0.008072513,0.038511824,-0.05446713,0.07239992,0.009888543,0.032037612,0.044032447,-0.031922705,-0.00654598,-0.005071037,-0.058578998,0.01159945,-0.017787494,0.008468827,-0.00014390245,-0.06879343,-0.031050509,-0.0048869858,0.027505018,0.008111365,0.028397813,0.043865234,0.06377203,-0.013394252,-0.047495067,0.029732496,-0.03260547,-0.10381191,0.0037495901,0.055356756,-0.049412012,0.03394128,-0.008765404
verdeigor@gmail.com,-0.075063884,0.06319338,0.0070404285,-0.07166729,-0.093332395,0.06684157,0.029951736,0.05931241,-0.058156062,0.0072182133,0.0717126,-0.027459227,-0.024337588,-0.030161822,-0.0057260315,-0.033716623,0.06272939,-0.06205495,0.02463917,-0.033249702,0.0017098602,-0.056680594,0.013040875,0.117249124,-0.041286767,0.019822322,0.032377537,-0.001603253,-0.01407008,-0.064719565,-0.051652934,0.08608647,0.013710325,-0.010376008,0.010133374,-0.060423233,0.05898818,-0.05490758,-0.0022403696,0.019882742,-0.002840006,0.0024084903,-0.03501965,0.035094723,0.025079815,0.02504482,0.03400802,0.10080423,0.055145927,0.0676764,-0.099273294,0.0020629242,0.0039244653,-0.045002677,0.06263635,0.050911374,-0.026347741,0.0008417115,0.102101065,0.0037586775,-0.008360489,-0.021964584,-0.06826981,0.061611503,-0.018610723,0.015437568,-0.054882105,0.00856566,-0.06680235,0.010498493,-0.01812414,-0.026527554,0.11932791,0.015036915,-0.059198935,0.029203974,0.0314067,-0.10418405,-0.048494305,-0.04132206,-0.08068155,-0.06305043,-0.09599398,0.033613164,0.036871064,0.040394273,0.03625412,0.012660777,0.07195731,-0.05905975,0.014868317,-0.032868113,-0.031030169,0.025009772,-0.11925152,0.026137784,-0.011676981,-0.053941663,0.0039594206,0.08076444,0.079896145,-0.021722278,0.042213596,0.011305081,-0.09767013,-0.052161988,-0.04789459,0.059233505,0.104007564,0.12990877,-0.015045418,0.015146714,-0.0587678,-0.06998089,-0.08071687,0.06009469,-0.027322307,0.05209554,0.117166646,-0.04434765,0.107530735,0.0054013627,0.022980047,-0.02029026,-0.042557128,-0.1282438,0.058842074,6.985439e-33,-0.0009363647,-0.04254595,-0.010599569,0.02730902,-0.040246587,-0.0012942422,0.0013518553,0.015440025,-0.041443273,-0.03400607,-0.08783973,0.055040214,-0.108579315,0.05470835,0.027220158,-0.016529815,-0.0063430713,-0.049333096,0.05186656,-0.03985399,-0.062222317,-0.04051563,-0.04864491,0.054959856,-0.0023703217,0.0672791,0.05050038,-0.0075493124,0.0621245,0.060759943,0.03650539,-0.057560988,0.060694747,-0.0076270825,0.012038016,-0.007183081,-0.07955671,-0.03419348,-0.018427426,-0.0012782956,-0.034818023,-0.01078385,-0.051525377,-0.078796856,0.02276057,-0.033868637,0.018421885,0.0416649,0.041227452,-0.0023544212,-0.07909239,-0.036939178,-0.010516792,0.006037473,-0.08251968,0.019209709,-0.022495039,0.017705895,0.045421842,0.004426832,0.036954433,0.046720147,0.033711635,0.032558925,-0.099937715,0.027291134,0.04340516,-0.032767426,-0.009097757,0.060368024,-0.02497172,0.013033704,0.063565,-0.009634699,-0.003245701,0.05098268,0.011108739,0.050261933,-0.031693567,0.034073174,-0.03426395,0.030329205,0.049900405,0.065033525,0.03645543,0.10539118,0.008482034,0.009568085,-0.0006373094,0.019783814,0.079107516,0.05747024,-0.026088443,-0.026609583,-0.0025771616,-8.133843e-33,0.019459106,-0.04902525,0.10215248,0.04361179,0.046316788,-0.07004328,0.0045394963,-0.017249636,0.037577312,0.03500327,0.011845439,-0.102536045,-0.024377968,-0.0016595531,0.038509943,0.08147579,0.0810338,-0.004915874,0.016313812,-0.03894801,0.036011327,0.010147926,-0.0038304338,-0.048709325,0.030254425,-0.030819463,0.01732061,0.078800805,-0.08238106,-0.011080835,-0.050145414,-0.08373027,-0.069623515,0.10739204,-0.0744764,0.03432612,0.02614834,0.053218994,0.0058381855,-0.00022121011,0.0502116,0.05280224,0.05245037,0.01758176,-0.04493128,-0.041216128,-0.028464487,-0.0056060296,0.046011977,0.0012626741,0.014981664,0.06893365,-0.0078679435,-0.05998857,-0.053018473,0.010634654,0.022204103,-0.057208963,-0.0885191,0.02676571,0.034986988,-0.039725233,-0.07443229,0.043175023,0.04265309,-0.002266276,0.022607427,-0.006137353,-0.027819913,-0.026326053,0.05467167,0.015506526,-0.020574195,-0.03196907,-0.115082406,-0.022334201,-0.06708621,0.082524955,-0.014184878,0.03453107,0.017026257,-0.01046595,0.06606801,0.04028053,0.013849001,0.0497021,-0.004469548,-0.00085033465,0.009387049,0.07028227,-0.05126806,0.09164921,-0.01086549,-0.018732794,-0.04801643,-4.3646622e-08,0.033442188,-0.04614241,-0.052339528,-0.05752117,0.08025761,-0.06439948,-0.024173832,-0.06492943,0.024952594,0.012806494,0.03348818,-0.0810229,-0.11473239,0.03091152,-0.04296076,-0.039868023,-0.044756122,0.10151571,-0.019573027,-0.06263936,0.10647868,-0.0030367915,0.022382904,-0.029873488,-0.030408464,0.0542007,-0.03619257,0.07339565,0.07735912,-0.015089773,-0.07052488,0.045822445,0.019219024,-0.14777108,-0.01921241,-0.084202394,-0.024564775,0.034379896,-0.03417518,0.038660135,0.017541839,-0.06476097,-0.057987086,0.0049900636,0.060686577,-0.03846352,-0.024356123,-0.0991915,0.003148986,-0.03600341,-0.008346636,0.020297674,0.075708285,0.0047424077,-0.043883268,-0.02984313,0.0053066146,-0.050281063,-0.08404947,-0.00049220223,0.08571088,-0.08991408,-0.052792173,0.051732276
cristopherpk@gmail.com,-0.08215808,0.0663965,0.0020458573,-0.014304752,-0.11165478,0.023998467,0.04459046,0.09611701,-0.1073244,-0.0837977,0.031463463,-0.010633786,-0.047301125,-0.041321326,-0.116217725,0.028825836,0.07224971,0.020257479,-0.019077148,-0.03679388,0.0345823,-0.05039908,-0.011336965,0.05708742,-0.13474157,0.05486573,0.0006271831,0.07829514,-0.014831713,-0.074175544,-0.0061741094,0.07636519,0.027244745,0.0061471844,0.03314476,-0.093683735,0.03657271,-0.1222148,0.04947622,0.03228734,0.031761136,-0.01000016,-0.02519079,-0.028560625,0.058730494,0.045629773,0.001212819,0.031870313,0.0066537927,-0.018477691,-0.07265214,-0.048511025,0.0050135083,-0.08910652,0.0009379641,0.046716914,-0.00023659755,0.028318532,0.045247674,0.007294052,0.0020989517,0.01020954,-0.039896384,0.078918435,0.006983681,-0.02986153,-0.05202409,-0.056386285,-0.04626944,-0.012471136,0.06938292,-0.07263502,0.045531925,-0.0052040373,-0.081404835,0.061588563,0.1027533,-0.057504203,0.018563045,-0.085858755,-0.036213778,-0.032188665,-0.03311341,0.011467763,0.019534051,0.0015987961,0.020680824,0.030078059,0.096098624,0.019687084,0.016624175,-0.012239842,-0.066789314,0.043723535,-0.115445584,-0.007459733,0.06886176,-0.06923371,-0.008276707,0.07758881,-0.02543028,-0.01845512,0.04435084,0.0018196024,-0.060835764,0.03639892,0.006991724,0.04018859,0.03587803,0.05746257,-0.006535238,-0.021394473,-0.074611984,-0.06998006,-0.06457601,-0.034148805,-0.015307919,0.03600123,0.041718565,-0.06794775,0.009309663,-0.07648265,-0.02474984,-0.074141495,-0.0990261,-0.09329229,0.07029204,8.8915634e-33,-0.050421212,-0.03451943,-0.014336051,0.015303489,0.06972463,-0.04770229,-0.04377076,-0.033157695,-0.018179085,-0.016824586,-0.054194123,0.026885716,-0.10429411,0.0034096146,0.007325949,0.005989513,0.04121187,-0.10528793,-0.035903204,-0.026727473,0.010914051,0.05037191,0.0448482,0.03141058,0.012087088,0.043590866,0.016842544,-0.030764934,0.054282226,0.053812236,0.10575285,0.043650404,0.031577025,0.043353725,-0.05575314,0.039401833,-0.12490376,-0.082290426,-0.015775,0.04665839,-0.001369363,-0.06252077,-0.02454707,0.047150657,0.0037924503,-0.043272838,0.009058044,0.045213994,0.1041549,0.028375193,-0.08914262,-0.025075765,-0.07043516,0.046544377,-0.082032435,-0.00030738572,-0.075073786,0.016870612,0.06742628,-0.06150048,-0.020763138,0.061098818,0.041252773,-0.017134411,0.019790974,-0.00440633,0.0066173174,-0.028607495,-0.0054203076,-0.0075623053,0.009211925,-0.037364434,0.04057091,0.04696051,-0.008106274,0.016616063,0.040397502,-0.01853202,-0.06704332,0.036648866,-0.012432678,0.087781146,0.0040054964,-0.015496254,0.100742295,0.09730939,0.009804125,0.045504685,0.050675925,0.1445328,-0.020134695,0.029708775,-0.03811593,-0.0043939366,-0.007547391,-8.967467e-33,0.031197358,-0.034196455,0.037861627,0.06765462,-0.0036987106,0.004140085,-0.022257581,-0.00981652,0.029554177,0.06427661,0.0052321567,-0.03440848,0.058681253,-0.07126153,-0.009057493,0.014714302,0.036888216,0.08078013,-0.035841946,-0.033108313,-0.012698558,0.07163312,-0.08827236,0.017918251,-0.023567658,0.0054050996,-0.058351956,0.007500492,-0.13313785,0.009742526,-0.028210504,-0.03710208,-0.0010354464,0.09446967,-0.029665403,0.045142345,0.053108852,0.0455779,-0.021399803,0.07470625,-0.02515464,-0.001494291,0.06385649,0.034259148,0.007256587,-0.072900064,-0.03665533,-0.06902476,-0.01289907,0.052755613,0.11158147,0.060425416,-0.007738582,-0.011501051,0.018910997,0.049896173,-0.0018131541,-0.061539453,-0.06028383,0.07322553,0.13970144,0.031069722,-0.079992466,0.016821155,0.09447631,-0.005107384,0.011574,0.0017532911,0.039702576,-0.08872086,-0.011490744,0.029713683,0.030728506,-0.03227735,-0.019381084,-0.042646643,-0.13743941,0.05422269,-0.0025085274,0.013245177,0.029949516,-0.05076289,0.08005415,0.06450704,0.044475045,-0.0028497383,-0.06114539,0.032290075,0.060702894,-0.008937078,0.040125117,0.045017727,0.05056443,-0.01230287,0.0017660555,-4.1853816e-08,0.05161158,0.00650244,-0.022157688,-0.002255447,0.07999513,-0.010954352,0.010252261,-0.092216335,-0.03331925,-0.019066429,-0.02239424,-0.0339063,-0.081683494,0.05092595,-0.0726247,-0.010929006,-0.04988929,0.056621406,0.003564982,0.01610051,0.06838289,-0.052979294,-0.034434862,0.039436977,-0.06367637,-0.018370941,0.002628489,0.094455756,-0.04350954,-0.04674861,-0.04787804,0.03561095,0.035632856,-0.03935199,0.08623284,0.02146134,0.0032690272,0.04429595,-0.022920474,0.0076925554,0.018398983,-0.054737814,0.022812631,0.034402832,0.025414027,0.007579932,-0.072875716,-0.021626746,-0.021340584,0.0326875,0.023592569,0.008761603,0.010030059,0.05801896,-0.073962055,-0.08343221,0.03278942,0.0050385296,-0.11089179,-0.024056248,0.05507816,-0.04723256,-0.0056630815,-0.0025937352
luciano.nunes1000@gmail.com,-0.10373884,0.027249016,-0.041809753,-0.045351736,-0.07962731,-0.015237098,-0.015006748,0.09604572,-0.101235434,-0.051424503,0.10560269,-0.026364906,-0.0786755,0.01375225,-0.10297962,0.031422917,0.013567807,0.008327972,0.083520375,-0.0446375,0.0058835596,-0.0091131,0.01667773,0.077239096,-0.116408244,0.015289168,-0.053815063,0.045147058,0.018303229,-0.031540457,-0.022436623,0.10875096,0.05601808,0.032686062,0.034016002,-0.0589965,-0.027202632,-0.12488397,0.029239045,0.06000052,0.0398697,0.05502355,0.0235004,-0.033091422,0.0060412446,0.03203425,-0.06392503,0.08603755,0.0025209207,0.003078708,-0.12986976,-0.030756187,-0.019715551,-0.065281294,-0.03569487,-0.0040425467,-0.022297608,-0.016150663,0.038171694,-0.0032020381,0.06277394,0.07228183,-0.08702189,0.066986255,0.024371568,-0.037480716,0.0020146652,-0.015807383,-0.015070642,0.011721416,0.09255278,-0.078648195,0.020439932,0.010821787,-0.076173194,0.018414773,0.016301036,-0.025489718,0.071350925,-0.05762363,-0.052294783,-0.04771913,-0.057940222,0.007277343,0.01977242,0.005708599,-0.04669185,0.06873191,0.0915452,-0.05072014,-0.0026631358,-0.048751958,-0.116049364,-0.00021086581,-0.09765099,0.02481042,0.060769193,-0.017082179,-0.061548598,0.038136788,0.011523266,-0.016797075,-0.00021504611,-0.101781994,-0.06899829,0.060836993,-0.024032729,0.113089874,0.05027482,0.077574305,-0.0737566,0.02276866,-0.029882232,-0.08815925,-0.015505025,0.031812944,-0.05623212,0.021872643,0.061209053,0.0011136355,0.05746851,-0.050251182,-0.036308743,-0.077983126,-0.012663209,-0.08129296,0.07031993,7.0317955e-33,0.021631755,0.006196519,-0.041946437,-0.010786392,0.018309807,-0.01398954,0.009411887,-0.03967388,-0.0627534,0.023426732,-0.003317462,0.01883685,-0.07257348,0.0010979371,-0.026326869,0.012751572,0.039326712,-0.06197906,0.057843674,0.020445783,-0.018769052,0.03000022,-0.00071786944,0.058585033,0.032599688,0.058679447,-0.06728761,-0.014010092,0.0046677794,0.07670761,0.121914305,-0.00071163126,-0.04111751,-0.025295906,-0.008972005,-0.026720962,-0.07977837,-0.11774341,-0.048838902,0.0060442155,0.03696149,-0.013794119,-0.0198454,0.029329441,0.03501442,-0.050111797,-0.036524966,0.05675826,0.018892791,0.03674804,-0.089636765,0.010152788,-0.046602294,0.010757028,-0.043473605,-0.01580781,-0.020643523,0.016126616,0.016872324,-0.041607577,0.047350775,0.07008364,0.04296641,-0.009942172,0.03418599,-0.11074766,0.041226506,-0.008077293,0.02946842,0.031636473,0.009645796,-0.06438911,0.014145868,-0.0043744487,-0.00298275,0.0425727,0.04657852,-0.0052652922,-0.06705303,0.02424789,-0.054725267,0.052350536,-0.012031977,0.03350958,0.071373925,0.09706745,0.02310504,0.030933464,0.033111457,0.124419145,0.043603886,-0.004453772,0.024603875,0.020160038,0.049863487,-6.688996e-33,-0.05204643,0.0004619942,0.06679836,0.05042325,-0.044713777,-0.046343986,-0.06398853,-0.0141432,0.04764345,-0.020659588,-0.017274931,-0.039016947,0.022662688,-0.055689227,0.0002783908,0.11349755,0.047024224,0.0799316,-0.034145687,-0.06845403,0.058624998,0.07849976,-0.036940932,0.037709154,-0.002374293,0.040827133,-0.033030186,0.019163897,-0.06699878,-0.0067991526,0.03231205,-0.04109529,-0.035713367,0.03817805,-0.05834682,-0.012165789,0.103425555,0.05883381,0.036892347,-0.018031366,0.045410737,0.033222158,0.0503304,0.056552228,-0.04729482,-0.07190076,0.022362614,-0.056290988,0.05454672,0.06347472,0.04928987,0.048687074,-0.007139521,-0.11403223,-0.00452795,0.007952266,0.0014244153,-0.083165124,-0.08132507,0.016942985,0.068204194,0.017768404,-0.119292326,0.09274447,0.061889146,0.060676005,0.02777721,0.05392374,0.038962238,-0.0066660903,-0.036448848,0.055313274,0.05224735,0.050856907,-0.037669875,0.0068644,-0.080109164,0.03025664,0.022459712,0.023056543,-0.023423279,-0.114770465,0.03539118,0.07409113,0.04949282,-0.016478015,-0.06453155,0.037635066,0.06057847,-0.029950906,-0.00895418,0.03449794,0.0010768645,-0.094592415,-0.013709849,-3.7637275e-08,0.060603116,-0.06086624,-0.05882526,-0.0064667086,0.092557244,0.041365653,-0.01440004,-0.07475612,-0.021666013,0.057706233,0.004142437,0.017480751,-0.028334156,0.02358686,-0.0074145966,-0.052521817,0.017466651,0.05538349,-0.025898915,-0.08949104,0.11636386,-0.049083225,0.010221236,0.020095136,-0.09555406,-0.018715534,0.0036488401,0.07660938,-0.03185162,0.021279221,-0.043860026,0.05179487,-0.005752291,-0.044297982,0.08185455,-0.012300794,0.017708704,0.012595971,-0.07422135,-0.0349953,0.0035338842,0.0063660257,0.0016767599,0.022308003,0.028339274,-0.0003811887,0.04747443,-0.03819103,0.021433856,-0.0257075,-0.021184547,-0.03153798,0.0785244,0.03243975,-0.07442802,-0.03285312,0.065082245,-0.039660152,-0.017669417,-0.069888435,0.02554099,-0.05529659,-0.03373023,-0.004318853
